,0,1,2,3,4,5,6,7,8,9,10,11,12,13,14,15,16,17,18,19,20,21,22,23,24,25,26,27,28,29,30,31,32,33,34,35,36,37,38,39,40,41,42,43,44,45,46,47,48,49
gitlab/chiemotono/mdcontactcom,-0.3878356,-1.0774016,-0.8138423,3.5284111,8.378624,-3.9169543,-1.5670887,0.89281714,-4.150775,0.69321984,-3.9607618,1.3719164,-1.8400911,-6.2252154,-0.14062664,0.26317617,-7.279892,-3.6304994,-3.7171974,-4.5559053,3.014374,3.2224524,-0.60040474,-1.6281519,0.8336206,3.305176,-3.2529457,-1.59531,-3.5253942,0.8009744,5.2427077,4.482263,-5.4324822,3.2112088,4.735544,-0.4466558,-1.410668,-3.2007384,1.6828128,3.2083519,-0.63277864,0.5081568,-0.41631904,-5.2480574,-1.073133,1.9638922,-3.9086478,-1.3259109,0.996378,-1.3148808
gitlab/pyFBS/pyFBS,1.3626602,-1.801855,-1.5941389,-2.846408,-1.560122,-2.206849,-0.5616733,2.8502421,-3.7366672,-2.260456,-0.32085097,0.83560956,0.19708195,1.4917332,2.7774909,1.9955757,-1.8552549,-2.775647,-1.1241505,1.559101,-0.4985361,2.231738,-2.9318855,0.9696674,-0.031411916,0.8484626,-0.011072063,-4.8419733,-0.9058362,3.4448817,-1.4596448,2.1565773,-2.1152775,0.78149027,-0.6737176,-0.87722224,-3.091638,-4.7234836,-2.8715787,1.2089499,0.63656473,2.0541246,0.6398656,-1.0804347,1.6498582,-1.7021643,-0.28461167,-2.7240603,0.15878512,1.5955222
gitlab/cosmograil/PyCS3,-2.5172822,2.4584522,-0.22939885,3.2072875,-1.505738,3.590001,1.7029083,6.315287,2.2432642,-2.7422209,-2.0453134,-2.767027,1.698502,1.9983611,2.5109847,-6.2419553,-5.1654944,-0.80944246,-2.6990843,4.512012,0.20354643,0.6727697,-4.3411827,0.96618956,0.93627346,-4.9146876,-5.025568,-1.4238386,0.9594585,0.18831316,2.085614,1.7023852,-3.2186804,-3.9077003,1.4341886,4.4118624,-1.3906456,-0.6161379,-3.7214859,1.2213302,3.6756833,-2.941026,1.1778104,0.9675936,-3.4336302,-3.3970172,1.1881592,-0.003970467,-1.497274,-3.8267758
gitlab/emd-dev/emd,0.95284164,0.42910662,0.8787421,3.0764194,-5.421605,1.2225757,-1.8616219,-0.7505444,-2.1723437,-0.9568416,-1.2143447,-0.37938023,-0.55953443,1.938057,-0.09893884,-2.5943131,-2.3222196,-3.3959317,-1.114389,0.42423704,3.0575714,2.2130053,-0.45601436,2.2151144,-1.3401673,-0.34908274,-1.8539592,-2.919346,-1.5426719,-0.5843738,0.8876405,2.246819,1.1393591,-1.7928022,0.061520487,-0.6501573,1.232602,-4.4729466,-4.030566,-1.7515147,0.71567494,1.0178494,1.4075335,-1.9137812,-1.4794245,-1.6182457,-0.61068004,-3.1491148,-0.6271641,-2.7261229
gitlab/cracklet/cracklet,2.4198823,-1.3413823,2.9366727,-2.3550563,-1.8124126,-6.2004895,0.46810755,0.23688994,-0.3097672,0.027936358,0.95358956,2.363293,2.3055868,0.3114868,3.4988768,0.804256,-0.6738896,-1.5419571,1.0871911,-0.6914949,-0.11096939,1.8673571,-7.5479255,2.4608822,-1.6711894,3.5566797,-0.35290867,-3.685506,0.88729596,1.1831961,-0.4033879,2.186199,-2.19296,-4.3535194,-1.9521271,-2.0086858,-2.8872917,-1.3472985,-1.1610956,2.4311652,1.3528934,4.5661902,1.6367774,-3.425762,-2.4445672,-2.5872235,2.613648,0.6320075,4.5884957,-0.8721102
gitlab/libreumg/dataquier,2.259207,2.2209957,-1.8739713,-0.10140625,-1.0534027,1.2269686,-0.10770676,0.11112322,2.0386496,2.4002402,2.9119923,0.5108594,-0.5142912,1.0916659,0.60065186,-1.6133991,-1.7435144,2.5144324,-1.8195674,0.8681842,-1.2475668,0.5597266,1.5698063,-2.839786,1.3701397,0.6762098,-1.0102642,-0.69674104,-1.0634452,-0.3722336,-0.47109133,-1.1490064,0.47253996,1.2283216,-2.874898,1.5286036,3.060606,-1.484376,-0.53918016,0.909011,-1.3000388,-1.2549964,-2.555836,-1.1711043,1.1790032,-1.6951506,-1.3309033,-2.0577374,1.0233392,3.6409776
gitlab/metafundev/metafun,0.20113635,-0.58229095,-0.034337834,0.15721816,0.2956855,0.031881843,-2.4438796,2.583319,-2.106068,0.39140928,-0.09851399,0.7585344,0.50821304,-1.4939477,1.0616722,-1.016148,0.96042275,-0.73069257,-0.7590987,-0.82156646,1.3875006,-0.3155309,-1.0879054,0.5517009,0.061832953,-0.37462372,-0.18946865,0.4077858,-1.1613214,0.6788484,1.1805592,0.72665375,-0.3136772,0.69872856,-1.6188788,0.16975138,0.66077244,-0.9873538,0.7340001,0.64017534,0.08332637,-0.4391813,0.43779743,-0.5737773,-0.09209832,-0.10104083,0.39355162,0.7755503,0.43252775,0.35796914
gitlab/ztzou/phydl,-0.069494106,-0.26039726,-0.7816484,1.2021985,0.8229961,0.269776,1.60327,1.7995187,1.1402502,1.6693845,-2.2907617,0.44791135,0.11599933,-1.0884324,0.31143212,-1.5011315,-2.910177,-1.503056,-2.0316281,0.5753492,3.0522423,0.47807395,-1.8552974,1.9444413,-0.011906659,-0.14180036,0.0074065514,-0.3018076,1.2289468,-3.1661432,1.3968999,0.10390645,-3.1030772,-1.2587992,1.3271682,1.039617,1.2872359,-2.2334008,1.5980903,-2.6793437,-1.0844496,-0.62909156,-0.1557054,-2.0726197,0.13794185,0.34556404,2.8007877,0.45138174,-0.33922473,0.18406568
gitlab/BioimageInformaticsGroup/openphi,0.20915015,-4.9979353,-4.5615225,-0.83627385,-3.3918402,-0.12734361,1.9987835,-1.2321156,1.435603,-1.2273426,1.1876549,-0.37933052,2.9248624,4.7087445,-1.5400306,1.7372502,-1.0843718,2.3818953,-2.7410073,-0.9849304,2.0288363,0.07662669,-3.0699522,1.0816233,0.4897767,1.6982819,-3.0808477,-4.5649247,-3.9313579,-3.4723632,1.5885104,1.3052644,-0.32940564,-0.6527124,-1.7233926,-1.0261638,0.80798113,0.83171344,-5.1771045,-0.11908959,-1.8832794,-4.1179757,-0.5017787,-0.98342115,-1.324023,-2.310407,0.59322613,1.7647786,1.5900838,1.13984
gitlab/ffaucher/hawen,4.0495524,-0.14288843,4.317118,0.7007344,-0.6820763,-6.5547895,0.46996358,2.9054606,0.8749181,2.5239775,-0.52470064,-1.565101,6.7104874,1.459908,0.2413406,3.139408,-2.369958,-3.4141028,-1.782704,1.8792933,-1.5819355,0.9269849,-3.824807,-0.9463985,-0.93204474,4.843342,-3.191053,-4.603829,-0.9098271,0.7269955,1.096896,0.41070643,-1.0843272,0.7091103,0.830518,1.3392007,-7.2055035,-3.3333616,-5.711278,2.478847,-2.6907525,-0.47830075,-0.9937169,-2.8593085,-6.666275,-1.0931221,4.682622,0.6401577,1.8547184,1.1309423
gitlab/gims-developers/gims,1.7315482,0.18588305,0.10394081,-1.8094444,0.17658916,-1.5204933,-2.8996134,6.8281765,-1.2294102,-1.5450397,3.9751148,2.3960931,0.19478971,-3.823776,3.1254926,0.20167919,1.8847343,-3.0258968,-2.1690629,-0.36828995,-2.1546464,-0.09575915,0.32223672,-1.4241313,2.232324,-0.9584597,1.8136444,-0.19223993,-2.7011793,-0.5356686,3.7703147,2.776006,1.1105355,2.8843055,3.8064508,-3.2657192,-1.4961479,-0.6730269,-0.484421,2.1270342,0.66838765,0.982735,0.04866091,-3.4198074,-2.727716,-4.509477,2.2636359,0.06823479,1.5422977,1.6185048
gitlab/vibes-developers/vibes,0.34558055,-2.458318,1.5823222,4.8035088,3.5977006,-7.143395,-7.518027,7.917247,1.7982,-2.8181558,3.3713582,1.5097626,-2.702844,-2.9384253,-0.6764387,0.28401878,-4.515927,-6.167927,-0.22840945,-2.7164745,-3.514969,0.048789598,-2.0989401,0.28122216,1.6118178,1.2113881,-0.9568636,-1.8809831,3.167899,-2.1292872,6.8163247,-6.3887534,0.087717466,-0.00011185933,2.7751486,-4.318839,-3.2104747,-2.6031392,-4.483007,0.45400074,2.4087937,6.924937,4.039379,-3.1701117,-2.242986,-1.5711188,-1.7723258,3.8122127,-1.1558931,-2.628143
gitlab/project-dare/dare-platform,0.05279476,-3.3179271,-0.31050685,-7.9438915,-6.75332,-5.175041,-1.4442421,4.083143,-1.075766,-0.7338571,2.773983,0.4410678,1.4626051,0.67239153,-3.1876726,1.4371004,-1.802739,0.018111588,0.24941441,-4.510768,-0.00040396219,-5.894204,0.5987441,6.7111077,1.3196026,-4.7563453,2.143787,-1.0889863,-1.9076134,-0.07226848,1.7822024,0.44787154,0.31725484,3.5650263,1.7677549,0.5817037,-3.7584276,2.7756703,-2.1870368,1.7464277,-3.442027,-1.2174585,2.2355964,-5.051416,1.914614,-1.8651025,3.1523695,0.60657537,2.2635918,-1.1580573
gitlab/magnumpi/magnumpi,0.81732154,-3.3090878,1.2203323,-0.7444494,0.2591183,-2.096817,-3.150845,2.5544844,-3.9358356,-1.9779547,0.57204473,4.631992,3.5940256,-4.1669126,2.120692,-0.6454116,0.4235095,-0.066740334,-0.15784466,-4.0234485,0.39012223,1.0527934,0.779973,-0.4858045,3.7942789,-1.6464956,-1.5077747,-0.52667564,-0.9397687,1.797286,1.391507,3.2076201,-1.4003432,1.8221179,-0.52774847,1.1444817,-3.7035887,0.88705015,-0.27651098,4.6775947,1.0572118,-0.0002425165,-0.29308653,-3.4595006,-3.596491,-1.2260481,2.6574047,2.0656133,-0.4640679,-2.1913502
gitlab/ampere2/metalwalls,3.0705855,0.90384024,2.1722212,0.6743435,0.092148915,-5.1317058,0.2875437,3.898508,-0.64936453,-0.17079371,1.4423416,0.9605511,0.94265866,-2.6722476,-1.2914473,-0.23143345,-2.776477,-3.2633514,-2.766168,-1.8394164,1.4447411,0.9090118,0.89548725,4.1622934,0.53475046,4.3796782,-0.13338658,-2.0757983,2.2704186,-2.3010888,2.3665798,0.9210937,-0.9069031,0.9332418,0.089781396,2.4268703,-2.0381413,-2.8566494,-0.7295419,0.7126432,0.9229081,0.7295611,3.3283129,-1.031896,-0.9331459,-0.10868892,3.3306792,-2.1140428,-1.9303852,-1.6528649
gitlab/remram44/taguette,-3.0060008,-1.9867015,-5.41926,-1.66771,1.0300179,2.4954214,-4.923976,-0.34706777,-6.699566,0.3969753,4.1817193,-0.07756945,0.7967035,-1.5671138,0.05653308,-2.7147996,-0.7244222,-1.5564202,-1.0564616,-1.5510722,0.27116376,-5.62254,0.32801768,-0.34404302,-1.7278626,-7.8937182,1.7114853,-2.6330209,-1.8239748,-5.3667703,0.9958954,2.0371065,2.2359173,1.6021781,-2.1754906,-0.57379,1.4772615,-0.9539062,1.806421,5.3061423,-3.719769,1.2314223,1.4292014,3.5779214,-1.80361,1.3900889,1.1958761,-0.55573505,-1.3720701,0.4035429
gitlab/jason-rumengan/pyarma,1.2486377,-1.9459826,-0.57831293,1.0223018,-2.7163255,-2.9343002,1.6990595,0.42064896,0.9012172,-0.9941739,1.8098382,-1.6874794,2.8480468,0.2624303,0.26402578,0.22490703,0.32238352,0.54726434,1.3170822,-2.0527575,-0.291704,1.9664019,-1.5766642,-0.5544322,-0.4402801,2.2028644,-6.24231,-3.1510599,-0.25071338,-1.205059,-0.6704136,3.315532,0.5984312,0.90617245,-1.4177463,3.0106277,-0.47906864,-0.90033185,-2.3429708,2.7274635,1.9661286,1.1861014,1.5586998,0.4310114,-0.38939902,0.16962233,-1.2631723,-4.166786,-2.1241176,0.43782365
gitlab/fduchate/predihood,-5.2897773,-1.395822,-1.414527,-0.75723875,1.8647757,5.639136,1.5923325,-1.6467069,1.9586862,-2.0553112,0.09002306,3.141655,3.0906985,1.6951501,-0.73263365,-1.9788076,-2.6527958,1.0683223,2.5273702,3.0070255,0.33013698,-0.6086648,-1.5504872,-3.532836,2.162888,-3.5908728,-2.8455837,-3.2551112,0.34473586,0.053043038,1.7712317,0.7817144,-2.387245,1.9349539,-2.161126,-0.47907585,-1.2652661,0.20298953,-1.7911378,0.359145,0.65342104,-1.1158932,1.037335,-1.8371329,-1.5723021,-1.0004458,3.439483,-4.8064046,0.3482372,-1.4850575
gitlab/mainlabwsu/bims,-1.0910888,-1.1037391,-0.20249987,-0.54853153,1.3739624,1.7009424,0.12418351,1.9030905,-0.35702306,-0.70303327,-0.53799886,0.81327355,-0.84325093,0.031927437,-0.49511486,1.0393773,-0.24882,-1.540263,-0.4787013,-0.07101771,2.6310468,-0.72160923,-0.41729882,0.01590933,-1.1022631,-0.8929289,-1.3642097,-0.8288328,-1.534043,-1.3279616,1.2129809,0.60026705,0.29454318,1.7247669,-0.47507718,1.753291,-2.185365,0.1622944,-0.26077577,0.68285245,-0.8020521,1.6490669,0.32552516,-0.99470395,0.4739861,-0.057834588,0.42876026,0.8854195,0.20888266,0.07096754
gitlab/ChemBioHub/tpmap,-4.057828,3.190246,-4.1488447,-0.59623057,4.9727845,3.678707,-0.23967512,-2.2092476,-2.7390738,4.5927176,1.3529546,1.8251127,-1.2212354,-3.6174746,1.365902,0.0979994,-4.501846,-2.8650072,-0.43666396,-0.9454696,0.9322374,-0.2299072,-2.3865764,-1.5619115,2.9747791,-1.706046,1.4921241,-3.339031,0.6079413,-2.746329,2.8332577,3.4966817,-1.906215,2.8977752,7.3479347,2.5123558,-6.931559,-2.3544946,1.4694453,5.641617,0.9120039,-1.7096215,-1.2581804,-5.382709,0.63169175,0.22169705,0.87323207,-6.539963,-2.740815,1.8326367
gitlab/davidtourigny/dynamic-fba,2.0709498,-0.97918475,1.0814091,-1.5750233,-0.18453704,-2.3903303,1.9546343,0.8951538,0.1133058,-0.35187912,0.33615988,2.9638045,1.3233888,1.6334577,2.6641872,2.9033222,-2.7335823,-0.24722013,-0.8988411,1.3051589,2.7941024,1.0457741,-5.7979097,0.51089686,-2.1190815,3.4185805,-3.428132,-3.90764,1.2810433,-0.81115496,-2.9883769,0.35426322,0.72557914,1.0229665,1.1611596,2.6336339,-0.37869912,-1.4687405,0.68235844,2.7719388,-0.37950635,0.977963,-0.69132817,-4.208516,2.7778778,-1.0845442,1.885211,0.35249934,-0.21671025,-0.9617325
gitlab/vincent-sater/umigen,-3.98618,-0.9212123,-3.3244328,2.9348204,0.044944827,-4.0728016,0.2792707,3.4838064,0.35294697,0.0040393868,0.8723218,-2.792194,-4.104876,-1.8421229,11.405776,3.8184447,-6.821823,3.0022242,-5.0375266,2.6345582,5.571717,-0.8274441,-4.6030016,0.7319836,2.4788692,1.5366168,-4.3099365,-4.669939,-3.9157965,-2.6842422,4.3347707,0.2595764,5.412864,0.42572293,1.1833851,3.6754718,3.0637727,-3.1653295,0.18368159,1.3314224,5.9082527,-4.861801,0.19332442,4.661744,1.147725,4.1763935,-4.315453,3.4999278,-1.9831696,-2.9503043
gitlab/geekysquirrel/bigx,-3.4045703,-2.706611,-5.482145,-1.136488,0.29217178,1.3758076,-1.3012803,1.2714086,-5.7959404,-2.9559472,-0.38572395,3.9653397,2.2344766,0.61162895,1.9588693,1.8966253,4.8271,0.5281203,-0.05237575,1.1044763,-2.6099646,-0.38101608,-0.08599926,-3.7559268,0.4962677,-5.7301188,-2.3414786,0.44105452,1.3299226,-1.0268704,3.3435094,0.46661124,-0.28676182,2.83349,-4.7307887,-2.3196332,-3.7598922,0.23256212,-1.5900483,-3.0239387,-0.7735678,-3.1642308,-0.24621493,-1.068846,-1.2984997,-1.1693033,-0.3189917,-1.6108994,0.30168444,3.7105622
github/jiujiezz/tsnad,-2.1509087,-0.78097194,-1.6153797,0.29412648,1.6377993,-0.36908057,0.83129114,-0.04301136,-0.038725268,1.7058455,-3.4072232,-0.573718,-3.2959783,-1.9319685,2.8783062,-1.7177266,-1.0541447,-2.4722311,-2.7969306,0.6981209,5.551497,-2.3409083,-3.0671504,0.6552794,3.328658,-2.184026,-1.5837696,-2.8151195,0.99034494,-2.4221609,3.376685,1.0819876,2.1849246,-0.09746801,-0.62622625,-0.4478461,1.1606573,1.5261865,-3.3927803,-0.9271498,1.0703263,-3.647355,1.0541005,-0.23442973,3.5008767,2.0234437,-1.7808444,0.29373553,0.83395845,2.3948925
github/twopin/CAMP,-0.36449555,-0.7692662,0.6720692,0.09589406,-1.1304241,2.1347504,0.100959726,2.8707528,-0.3046717,0.20393369,-6.6624,-1.1274805,0.2339483,-3.3142996,2.4825504,0.32224533,-0.8874464,-1.9016767,2.0940514,2.2085867,3.6854343,-2.037822,-0.67228085,0.8875457,0.5485453,2.1914463,-2.0054123,-0.00047858834,-0.34422252,-0.6223314,2.9809093,1.1961129,0.490693,2.2227986,0.6381584,0.84266436,-1.7214596,0.020760851,-1.382458,-1.7670053,-1.3109543,-2.7327557,0.8304632,0.0059781196,-0.09144974,1.1063292,-1.1774844,-1.3612995,0.38637584,0.7223902
github/kkjawz/coref-ee,0.8669633,-0.66304374,0.46194196,-0.38296077,1.5986971,0.009518117,0.087193854,-0.5910322,-0.30921996,-1.6492937,-3.0576723,-0.32638124,2.6033213,-1.1770109,0.27764094,-1.215709,-3.3777246,-1.925422,0.56095606,1.6887103,1.9353529,-0.89751285,-1.1430882,1.5660074,0.21450442,0.026857981,-0.090059586,-2.251993,-0.15794912,-2.0027206,1.3742477,-1.1266041,-3.4177618,-1.4444572,-0.039895143,-0.18888406,1.3911635,0.8359814,-0.83024657,0.46882567,-0.84813756,-1.283374,1.1215377,-2.1561058,-1.146646,0.010463309,1.9694787,-0.21955688,0.24366362,1.6360003
github/ekaterinailin/AltaiPony,-0.1698731,-0.64985853,-0.3992535,0.44787654,0.050161187,-0.2644404,0.49960047,1.0897242,-0.816103,0.4164159,0.7167249,-0.10650251,-0.28173465,0.19334285,0.8171534,-0.40120453,-0.41501147,1.6858034,0.22733378,0.2533454,0.18211678,-0.41785145,-1.014317,0.05791625,0.027779788,-0.27611908,-0.7195397,-1.1797663,-0.2746205,-0.5442789,0.5065147,0.16893722,-0.2712218,1.0563742,0.4035,0.75635266,0.22684534,-0.27310872,0.060777962,-0.088777356,0.108058006,0.7968823,0.6429545,-1.597703,-1.0146286,-0.52798206,0.025830338,-0.96555877,0.642223,-0.14244413
github/csbioinfopk/iSumoK-PseAAC,-0.6964253,-0.50894207,0.46329847,-0.10242238,1.0754471,1.1460683,-0.63894767,0.5928928,-0.1676935,-0.86042285,-1.776954,0.91249245,-0.5253643,-2.3232498,2.7346215,0.4383342,-1.3682606,0.41079944,0.52599996,-1.0002241,1.3778293,-1.8925325,-0.32227314,2.5262225,2.2158818,0.18916085,-0.39339033,-3.6142182,-0.5290327,-1.0069875,-0.08204145,0.60754734,-2.4366257,1.7752756,1.2094363,-0.9440514,-0.2803984,-1.9757991,-0.47755635,0.6183125,-0.3386612,1.2007213,-0.12497206,-0.85044384,-0.7723233,-0.3327659,2.2301266,-0.39441255,-0.27920386,-1.9837694
github/wdecoster/nanopack,0.40181077,0.90263826,-0.21969116,1.4813614,-0.3920822,1.4017924,0.46909818,1.6001744,-0.8827588,0.10354987,0.30973583,-0.96583134,-0.67243594,-2.033704,1.8017392,-1.5592302,0.0789151,2.225612,-2.7766483,1.7657926,2.4193952,-0.9144415,-0.96152014,1.1397893,-1.0009577,0.65284157,-1.1607499,-1.2713281,-2.591633,-3.3069139,2.627713,0.5047191,0.6352389,0.9725516,1.056976,-0.7460713,0.7165497,-1.8689944,0.47613242,-0.16543636,1.8528389,-1.1110234,0.8761402,-0.70293665,-0.74691147,0.58977664,-2.7051618,1.7496814,0.14753602,0.41269442
github/upb-lea/openmodelica-microgrid-gym,-1.0290743,-1.5159163,0.5339127,0.1681614,-0.34648508,-2.8653812,-1.3913854,2.36566,-3.1220784,-4.8263774,0.7003831,1.6613734,-2.7333624,1.5560054,1.7790271,1.3120811,-1.4539493,-2.616935,-1.2957599,1.1655641,-1.7261634,3.629783,-0.8721184,4.6393433,1.2398543,2.7454748,-0.88006735,-3.8112085,0.45723245,0.41251397,1.4967569,2.3952043,1.2148914,-2.2965899,-1.7183617,-0.76428264,0.9878602,-3.665487,-0.24251813,1.8574284,-1.4412967,0.51833713,1.0242188,-2.4149973,0.67038876,-4.7529855,5.3465905,1.0483744,-0.019740958,0.19454724
github/upb-lea/gym-electric-motor,2.0252864,-0.59810936,-1.007101,2.6105037,-1.4541267,-4.4854207,-1.8886787,1.3786896,-4.5996375,-3.707936,1.1526277,-0.8029636,-0.15059157,1.5006922,2.121853,2.1669753,-1.8546481,-2.3171442,0.17065336,2.3721602,0.055659134,2.1328716,-2.8114185,1.823443,0.16957201,1.4431093,-1.2360562,-3.1979883,0.0723322,1.7883158,-0.37490746,0.54935265,0.8263149,-1.7731628,-1.4281588,-0.92937994,0.5515746,-3.0273468,1.3022735,0.63482594,-2.69222,3.0363045,1.3646072,-0.6331389,0.8774166,-4.6849413,0.7536114,-0.22844988,1.7243339,-1.2357956
github/cobilab/RFSC,0.83162814,0.01761634,-0.20514274,1.2136704,2.75587,0.97199255,0.5836532,-1.061106,0.51762426,2.3309214,-0.4007333,-1.4135679,0.7868225,-0.7132405,-1.076413,-1.5640591,-0.8451718,2.0900652,-1.0600696,0.9593109,1.6405678,-1.3053882,-0.74815524,2.2634609,-1.2843556,0.8651131,0.4764879,0.0011925461,-1.6372151,-2.7232711,-0.23723455,1.4906598,0.005065846,1.9301758,0.4914645,-1.160638,0.36908114,-0.6248258,-1.6181499,0.7402888,2.0620751,-2.2202232,-0.5797923,-1.3046107,0.6305263,1.2155434,1.5318238,1.7648113,0.1630206,1.3892161
github/hsci-r/finnish-media-scrapers,-1.5608466,4.076749,-0.86610144,-5.198434,0.5570187,-2.0850146,-2.1847208,-0.25392005,-0.39077732,-0.704844,3.2973292,-3.0005746,1.4713455,-2.0947454,-3.0357172,-2.5242987,-1.3331388,4.814258,-0.2871622,-1.1123139,-1.5228235,-1.6287177,-2.7064316,3.172378,-0.03392091,-4.217319,-3.35866,-4.7981215,-3.655648,-2.2420864,-1.6173724,0.71482325,-3.3223531,2.6117184,-1.0468013,0.31507063,-1.8885868,3.3433158,-5.2424164,2.5128038,-1.084824,-0.57758343,-0.2605541,1.08793,2.234622,1.8406018,-0.08834189,2.3429046,0.9484179,0.756995
github/era-urban/wrfpy,-0.112895936,-0.15070942,-0.23906462,-0.3472106,-1.1902891,0.22565486,-0.89891386,0.6284765,-0.6404389,0.3903164,0.040671602,0.12032741,0.49302688,-0.27114037,-0.028145509,-0.17046595,-0.5944653,-0.6881328,-0.6652239,-0.24297589,0.798433,-0.6476478,-1.3182036,-0.20543894,-0.13780242,0.04287479,-0.49288613,-0.426946,0.121280655,-0.21568562,0.7353835,0.11566726,0.055745576,-0.36316937,-0.6098907,0.7732121,0.6172777,-0.49003652,0.024902677,0.6183612,-0.10764034,0.43472868,-0.07739222,-0.29760104,0.29690528,0.45255938,-0.2943923,0.04480931,-0.36077422,0.048217565
github/alvinxhan/Phydelity,-1.0009178,-1.1518039,0.9444319,1.5160391,2.747382,-2.4893725,3.4940841,1.0665984,1.6396543,4.435434,-1.7625331,-2.3513834,-0.6409611,0.36796382,-2.4527817,-2.8453972,-0.61922807,-2.4155736,-1.5052252,0.81187725,1.0211536,-0.658606,-1.8821753,1.4303145,0.36580056,1.6055987,0.77044946,-1.2623408,-2.7774262,-2.2496839,0.31123075,-0.96976405,0.2420262,0.71562403,-2.4984484,1.9822123,1.0028735,-1.5376726,0.7090612,0.97870916,-0.43761927,-2.2071629,1.8504304,-1.2013975,1.005446,4.0589843,0.7866395,0.40782636,-0.72982377,-0.3724022
github/ynop/audiomate,-4.91339,-0.55931395,0.39949125,-0.034100916,1.4171809,2.683848,-0.49212018,1.9952106,-3.2074802,-2.8319652,-1.4132098,0.33659145,1.6952127,-0.8475827,-0.5656272,-3.344013,2.0156064,1.1488734,-0.45878875,3.1985593,2.2812111,1.4491134,-1.7552803,1.779602,-2.0724595,0.21178567,-0.479029,-5.428312,2.5995166,-1.8668059,3.48493,-0.27982524,1.4849669,0.7423649,-2.4111533,-0.7996647,1.9319642,1.8142616,-4.601562,-1.5416161,-1.9303335,-3.005405,4.18974,-0.5331635,-0.0694747,-1.580627,-1.7267604,-3.1200466,-3.3209867,3.0386448
github/adigenova/wengan,1.8316355,0.99676776,-2.3876243,-0.016436603,1.5148968,-2.2160518,1.4542705,0.7926788,-0.37370571,2.5772853,-1.9199339,0.6483364,1.5355384,0.34785324,0.3357647,-3.1792047,2.5383933,-0.21253064,0.7868692,-1.7910582,2.198285,-1.0121351,-3.4788764,1.9455111,1.820547,1.1995624,-0.6810595,-1.1763082,-0.034654424,-1.4837781,3.6558108,0.7846486,-1.1562535,4.4254594,-0.58150506,-0.34451953,2.1982856,-0.1164506,-2.2622254,-0.6785451,3.7367773,-5.4245496,2.6388745,-2.5248044,1.435208,2.2965326,-2.7099485,2.7941537,0.0001680186,2.108383
github/pmoulos/metaseqR2,-1.1022111,2.894897,-0.7396536,-0.7679772,1.3025054,-0.5683812,1.1968182,1.9617438,0.34054247,1.9585896,-0.3131045,-0.6332532,-1.4274025,-2.3571696,-0.71199113,0.8355791,0.06684904,0.73850447,-0.34454653,0.064933784,1.059566,1.4449878,-0.5540585,-0.60966957,1.9471165,-0.13264042,-0.24905749,0.7627298,-0.42152345,-1.7648047,0.10968474,0.14520884,1.2623477,1.6137049,-1.9574493,0.5442566,1.7566975,0.45602912,-2.4035692,0.95401514,1.5869805,-0.015081395,-0.6606619,-1.3156537,3.343529,-0.20189206,-1.3288509,1.1540524,4.075877,0.89288217
github/glotzerlab/coxeter,-0.2830023,-5.937962,0.7497782,-0.6725217,-3.615531,-0.59650755,1.4344968,3.868034,-1.5245674,-0.24420594,-0.3128731,0.25136107,-2.1026504,-0.44113195,-2.911921,0.016576279,3.1569204,-0.12482728,1.8057724,0.51142937,-5.0774426,1.334113,-5.0272613,-1.4734664,1.7116435,1.8043032,-1.5269544,-0.92093104,0.27550304,-0.026575113,-1.0889738,0.5039099,-2.426327,0.03126504,-0.08571778,-0.30951992,0.58606154,-0.8831432,-2.6392667,1.0595292,-0.17620444,0.5463017,0.78669393,-3.15506,-4.29891,-1.9000394,-1.8677278,-2.1718261,-0.3289189,0.65818816
github/scikit-learn/scikit-learn,-1.6146615,-2.4102643,-0.5013545,-0.3429253,0.90833825,0.8494132,-1.1452523,-0.22480708,-1.7041622,0.4847053,-1.1870083,-0.58585423,0.47086832,0.4849181,0.080708854,-3.0434875,-1.2480083,0.5800151,1.812136,0.9485782,-1.9499049,-0.55692816,-0.8439061,0.6423945,-1.2731013,0.69269794,-1.759695,-1.2940239,-1.2235141,-2.6960478,-1.1834004,0.81024945,-1.4602071,1.9051894,-1.0416131,1.6551496,1.308653,0.10257487,-2.0344586,1.1412739,-0.8194638,0.6149719,1.8247947,-0.76041,1.3004049,0.41420013,-0.6195788,-1.9413085,-0.58184195,0.73029125
github/jGetMove/jGetMove,-0.34638923,1.3098664,0.58551174,-0.7778008,-0.28278288,-1.3800325,-0.2947275,2.1137838,-0.7041742,0.6384626,-0.9474528,1.3603427,0.86078465,0.6614327,-4.739652,-2.1797328,-1.6589075,1.1199628,1.1136498,0.47321534,0.16538416,1.3093374,-2.1818278,0.51952165,-2.8227224,-1.4522793,-2.3814209,-2.5475566,-0.9015982,-0.11144507,1.1945213,2.3792753,-1.8298693,4.6796827,0.7016503,-0.9371428,0.74682605,-0.5201534,-1.212667,2.2170584,-1.2914795,0.9199123,-3.013733,0.48352146,-1.6702918,1.2746851,0.60074925,1.6761812,-0.2412777,-2.0078154
github/kinnala/scikit-fem,2.1909268,-4.5823903,3.170198,-1.7018763,-6.411457,-5.650773,-3.2373638,2.0820415,-2.260576,1.444098,1.815492,-1.4705578,1.4875929,-2.6385918,-1.2076467,-2.5784218,1.049535,-1.1195451,1.1961675,-3.3774395,-4.0747247,1.7132305,-5.6005273,-3.7409515,-0.21730702,5.324801,-1.7706244,-1.4874164,-2.0667555,2.1675413,-2.8062708,2.886211,1.8737723,-2.2279563,-2.0660908,0.14173746,-1.1184324,-0.96775717,1.0259746,3.9216995,0.56106085,2.623919,1.0903441,-4.2578015,-0.65949255,-1.04247,-2.2224503,1.3075812,1.0939124,1.4745553
github/IKNL/vantage6,-2.211021,-0.10115194,-1.0008495,-1.6130174,3.6045346,0.0031695375,0.8133318,-0.19776887,-2.788638,-0.16961038,0.26403818,0.38839003,0.24466212,1.9081211,0.8198512,-0.036448527,0.17730056,-0.32712263,2.3095982,-0.9247477,2.439068,-1.4362701,-1.8459457,-0.40193543,-2.223329,-0.18953471,2.196241,-2.0329857,-0.5009348,-1.0282078,4.0433755,-2.179939,0.34783986,1.7740945,-2.092595,0.06578433,0.043771412,-0.81498533,-2.0652547,0.42297086,-0.10259123,1.0993161,1.2416663,-0.4596102,3.4129796,0.45362437,2.1112235,0.5384366,0.6746312,0.5651785
github/aothmane-control/Algebraic-differentiators,0.08082991,0.36917353,1.4467038,0.42824546,-1.4267192,0.1742688,-1.0310993,1.2266357,-2.9695077,-2.1869671,3.6774693,-0.8437989,-0.2745562,-0.1415665,4.4644427,2.1673436,-2.8304114,0.30071566,-0.05470147,5.1240573,-0.3833931,2.8059561,-1.5356504,0.9867873,-0.9161624,1.6100926,-2.8786407,-2.5563953,-2.441342,-0.39373818,-1.1954633,0.9227394,1.8609041,-0.42156845,-0.45246702,-1.0929855,0.13219915,-2.8289447,-2.2716532,2.3347218,3.0856476,-0.7708647,0.8769912,-3.2107046,0.45485175,0.7397215,0.5833727,1.7422265,0.5988675,0.2899692
github/Kuifje02/vrpy,-3.5052636,0.056230787,1.4101325,0.08636194,-1.3125116,-2.665621,-0.08830397,1.2095836,0.9952176,0.24223347,0.49644822,2.1478653,-1.0339216,0.63889444,3.3486717,-5.342756,-1.8365008,0.7591301,1.1225116,0.23102209,2.1323924,-0.68264693,-2.589492,-1.9642986,-4.864461,-0.77882993,-3.7329,-0.7812909,1.591419,1.6427653,-0.63805485,2.7115626,-0.4977462,0.8473488,0.87318414,0.044995323,-2.2523732,-1.1667602,0.77214974,4.7261486,-2.2427185,-1.366807,0.701595,-2.537432,1.3246851,0.01628126,0.6288565,2.420689,-1.1635792,0.9016351
github/nlesc-dirac/sagecal,-1.0511221,-0.20386273,0.97301257,0.88264936,2.2526207,-4.0384326,0.02302794,-0.8539531,-1.6036903,-1.9602803,0.3411386,-1.0213468,0.7386315,-0.43489188,0.8503835,-2.279493,-0.31715137,-1.3744863,-0.13367233,-0.11833953,0.26358148,0.71116894,-2.7805922,1.431314,-2.457431,-0.047554865,-4.9166327,-0.25367343,0.15400498,-0.34500244,0.437616,0.15424713,-1.7108968,-0.5572744,-0.32688928,-0.6806151,-2.1778708,-2.0725667,-1.5223416,0.67430645,0.068594605,-0.7021176,2.4254704,-0.9344613,0.44197857,2.4265702,1.7714678,0.102095835,-1.5318162,-1.3337855
github/tensorflow/tensorflow,1.8264929,-4.7372046,1.0139064,1.757252,-1.0112969,-0.04084546,-0.5361054,-0.38634548,-1.9760734,-2.4518886,-1.8627887,-0.8372347,-1.7901249,-1.0269434,-1.3577456,-3.3629766,-1.2150836,-1.5525073,6.13679,-1.6090703,3.1222587,-2.4858327,-1.6131213,-0.17116804,-1.8061898,2.5356011,1.7573762,-1.2236762,1.8173084,1.5473245,3.330509,-1.846127,1.71585,1.4672058,-2.2894878,3.1407232,2.5424845,0.9311121,-0.7289439,-1.6143758,-3.2632248,-2.610717,5.59126,0.079196736,-2.2008855,-3.1941705,-0.3423808,-2.447109,-1.3768892,3.247401
github/ZhaiLab-SUSTech/FLEPSeq,1.0232236,-0.45391667,-1.8402705,2.5585518,1.9290515,-1.2460072,-1.8270403,0.9995685,-1.7113506,1.6603122,1.2427001,-1.974973,-2.1454136,-1.9040109,1.3560487,-1.0658646,-2.9704828,0.4304919,-2.1199386,2.426691,3.3775084,1.9414325,-2.712023,-1.7815176,3.1144629,-1.5605152,-1.8016489,0.005644596,-2.5165913,-4.1590962,2.4262588,4.786144,1.7705965,7.198908,-0.11858313,-2.1421144,2.3820908,-1.498925,-3.4925017,-1.1441046,3.9683385,-5.977241,1.594039,0.61898303,1.1135671,5.987737,-2.0599182,2.965701,-2.2243617,-2.6546924
github/Filter-Bubble/e2e-Dutch,-0.37662604,-2.334743,2.9723313,0.4707993,0.31310287,1.819532,-2.6681092,2.8862216,-0.2284889,-3.060198,-3.2478106,0.74731404,-0.057700034,-1.0696748,-1.231222,-1.5553482,-2.111885,-2.651813,0.6225814,1.9125737,2.1097326,-0.62179995,0.60623467,3.1532247,2.112076,0.6362335,-3.4907074,-1.0899675,-0.8712643,-0.9293342,1.2374026,-0.62399316,-3.0426335,0.09869497,-2.3078055,1.3717172,0.8838596,0.28043094,0.6635082,-4.359625,-2.958889,-2.2090533,0.050110392,-0.73273003,1.2931287,2.342463,1.0349652,1.8766936,-0.22236423,0.17654644
github/Filter-Bubble/stroll,1.5364361,-2.2024841,0.89074445,-0.04084415,0.3282137,2.1377168,-1.1665674,0.01242523,-0.27611238,0.5105847,-2.8611956,-3.0987034,-0.85229224,0.30442092,-4.7817593,-2.5238454,-1.6593895,-1.7173089,-1.8474208,2.2417343,1.0745891,-0.6770181,2.1550248,1.4760553,-1.3259714,-1.789735,-0.56528395,-4.1221976,3.7590806,0.027690733,0.49607328,0.14866892,-2.8961601,4.0961432,-2.5251575,-1.3711199,1.1593688,-0.32482386,-2.4201312,-1.2043521,-3.0867128,-0.7884525,-1.8500928,-2.4426513,0.22390631,3.615608,1.8148515,0.06282809,-1.2213032,3.2803686
github/tbrown122387/pf,-2.4538257,-1.4995644,0.3624211,2.0194573,-1.3713645,0.031221434,4.2687907,3.0735924,-0.88847846,-0.5516797,1.4998648,-0.30040622,1.195676,-2.4738142,4.6103597,-2.7126548,0.4913553,1.9610798,0.6869846,0.93547696,0.19324231,5.3514547,-3.241228,-0.69523984,-0.14572287,1.385471,-6.3915997,-3.0967457,2.707208,0.10026413,0.19374329,3.5279646,0.44855776,-0.081967294,-0.41929093,-0.549628,-2.28673,-1.751272,0.8143797,-1.4885002,-0.88236105,1.0333557,1.5028342,0.63845736,-0.52987516,1.2562153,3.2361488,-0.64128757,-5.2009263,-3.0386322
github/deezer/spleeter,-2.660811,1.3385057,1.8806002,2.4215028,1.4279724,3.4473624,-1.5467747,-0.36151084,-5.1222887,-0.32362497,-1.4918855,0.4955764,2.5490096,-0.67042625,-1.4149961,-3.2450032,-1.5480583,-0.7930159,2.947922,0.59917635,1.9277825,3.040229,-2.934883,1.7044483,-2.8680563,-0.3209053,-1.3515913,-3.108876,2.5677783,-2.1169229,0.45562837,1.4747692,-2.0750396,0.16537526,-2.8145432,0.31665742,1.7338226,-2.3034742,-3.35907,-2.500469,-2.1401522,-1.2775635,1.7376277,1.3310477,-0.7710916,-2.6392992,-3.7122426,-2.702219,-1.9497159,2.2905388
github/dmey/synthia,0.7418959,-0.7134742,0.85273296,-3.2085698,-2.3542717,-0.51613533,1.7030513,4.259267,-0.7059775,-1.4666672,-1.8241411,-1.0644543,-2.7189617,0.9714623,-0.5163436,-0.14884472,1.5571244,-0.70165735,0.39433512,0.57422876,-0.33742845,2.9082782,-1.3393167,0.92793924,-1.134163,1.2887607,-4.808882,-0.6978192,3.8626027,2.036267,0.51103437,-1.0372947,-3.1387427,1.7215481,-3.0845892,2.5327506,1.7157482,0.015133899,-1.8975649,0.71294576,1.418796,-0.10986355,2.2015498,-4.632152,-1.0727215,0.9825426,-2.8710034,-3.439092,-2.365933,-1.0386368
github/spinicist/riesling,0.016261213,-1.5739079,-2.4011343,2.7229629,2.518439,-3.2255108,2.676774,-0.28504872,-0.01650449,-1.4214826,-2.6350963,-3.2549026,3.5783322,-1.3969318,0.13474116,-1.0869257,0.073681414,0.6197383,-1.7572393,0.46566764,-1.1254228,2.1500995,-4.1464796,1.5539268,-0.8882521,4.660006,-0.32654703,-1.4773786,-0.5685771,-1.4058803,1.9678416,2.6699784,0.91974545,-2.1225655,-0.71870446,1.7930218,-2.1635313,-3.2761688,-3.5954146,0.21105815,0.04508401,0.3837749,2.6682813,-0.56410515,-2.5152712,-1.0572242,-1.3352631,-3.090616,1.5907845,-0.095199734
github/hcdenbakker/sepia,-3.2283726,-0.4530887,-4.2537556,1.7134116,3.380634,-2.067898,-0.6736636,-0.70573366,-0.23323986,1.899554,-2.2333288,-2.2390137,-1.1508749,-2.4463165,1.1758765,-2.6830544,-5.631314,3.6273165,-2.0159805,-2.622377,4.006702,-1.0783556,-0.1937064,-0.6887561,-2.3928192,2.9718745,-2.831065,-2.5265112,-3.4510984,-0.21973027,-0.08441495,2.7363112,1.1653305,2.6387844,-0.650704,3.5825746,2.211106,-1.8640862,-4.8574276,-1.9748544,2.3158062,-4.703716,1.8515711,2.5711713,1.7853451,5.32205,-1.4381555,3.3535452,2.5953,1.0388693
github/onnela-lab/beiwe-backend,-3.0866473,1.5879971,-4.8979692,-4.190223,-0.6531118,3.2176828,0.14389053,-0.32488686,-1.3620272,-4.746212,1.2694176,2.1612256,0.4070284,-1.01182,-0.74987733,2.894529,-0.3483339,-0.47579876,3.069818,1.3186613,2.4065683,0.54609615,-0.66548395,2.283817,-1.2261927,-5.0626903,-0.9386199,-2.2407331,-0.9653666,-3.3827312,5.858179,-1.4947963,-0.5912944,4.1746254,-2.3000345,-0.53382677,-2.1778255,0.9109546,-5.167745,2.6466467,-2.6671143,-1.8858095,2.352543,2.634012,-1.7812822,-2.0045671,2.5774758,-2.4982178,-0.22984463,0.61834997
github/isoverse/isoreader,1.3448211,3.0166404,-2.5570667,0.024263563,3.0006316,1.559572,-1.7175773,5.8393364,-2.8988616,1.0367203,2.452365,-0.9223653,0.137383,-0.70397645,5.029996,0.83353955,4.0134287,1.2562321,-0.6800915,-2.5156212,-0.6144475,2.0171285,-0.90975744,2.271313,-0.7783647,0.46586812,-1.8550993,0.25727266,0.6162773,1.8492914,-0.71642774,2.1234944,3.9766452,2.5555987,-0.42255694,1.6820416,-0.10955085,-3.1806884,-3.8184438,-2.9350643,-1.9954515,-0.7206904,-2.684159,0.12991805,2.2753394,-0.9968435,-2.6460938,-0.47638,0.7463991,1.3284429
github/surf-eds/one-button-compute,-2.1190972,0.7770818,-0.75986755,-2.3814034,-0.25834805,-0.70640934,-0.37292078,3.188231,1.8670776,1.0564716,3.4667006,-0.28155953,1.3337079,-3.6732385,0.37619933,-1.1927391,0.8154577,-1.9892331,0.026170017,-3.5781634,3.233816,-3.9490228,-1.7799283,1.760487,-0.88874716,-1.4811226,2.047854,-1.2989101,-1.4328268,0.09529493,7.07675,-1.8374473,-2.4532652,1.6152985,3.2203264,-0.5187325,-3.5666087,1.3990487,-1.0270578,1.5678632,1.6388377,-1.5644758,-0.037654463,-3.8979142,-4.295101,0.2008268,1.9897254,-1.0171394,1.5354332,1.9873154
github/vprusso/toqito,-0.103106104,-2.8840437,-0.52241504,1.5562245,-1.7263352,-3.080093,-1.8126549,3.2748291,-0.44390646,-0.9459795,0.2089912,-2.4593937,1.7355803,-0.099488996,0.9521288,-0.97535324,0.40898597,-3.9625173,-0.4164833,-0.87515306,-1.3632421,0.41336018,0.9661783,-3.1272326,-3.399063,6.6537375,-0.7309864,-3.8249555,-1.7631851,-0.1280167,-1.3770825,0.35060453,2.41324,-0.9150847,0.6101265,5.073098,-1.5124148,-4.038024,-3.5370417,3.0271103,-2.28306,3.0154047,0.8260882,-2.9294796,0.48251438,-2.5445864,1.0836961,-5.498962,-2.5815883,-2.3390691
github/JSB-UCLA/scPNMF,-0.44259262,-0.3632029,0.16366401,-0.27971798,1.2738085,-2.54715,0.93479407,1.8402147,-1.0430615,1.3351777,-0.93958473,-1.9027014,-2.2954977,-1.02384,1.1136154,1.0451683,0.12251516,-0.43222728,0.39849994,1.5557176,1.2716802,-1.4938805,0.79412365,1.7133358,-0.47325087,0.48118654,-0.732068,-2.7468712,-0.73154,0.30369255,-0.4373033,-0.7744599,-0.113359585,2.2604713,-0.32441387,-1.4193857,1.6195779,-0.856385,1.4162725,1.05721,1.4915103,-0.59285474,-0.49636963,-1.2639314,1.7235556,0.36390603,0.47645262,-0.98681194,1.2435684,0.8440302
github/jbuisine/macop,-2.9400213,-5.5458694,1.9215627,-0.03230395,-5.8412313,-3.1734757,-0.92511,5.4940352,-0.23881058,-1.9330554,0.7391248,-1.3617,1.5480022,2.2879183,0.5707508,-3.96746,-3.4808047,1.2212062,2.7329645,1.0072843,-2.5811937,0.16584174,-3.4228005,-0.5770281,-3.50645,3.0500886,-6.4015527,-4.8242316,0.21030825,2.9866033,-2.7880425,-0.22122589,0.8456399,2.9231184,0.8640996,1.2750988,-4.929059,1.9407195,-0.18591385,3.0416682,0.146596,1.9764146,1.314877,2.6441557,3.737056,-3.884762,3.3627295,3.8002746,-2.386946,0.21404134
github/MrMinimal64/multivar_horner,0.29297945,-2.4703166,0.049214255,-1.0168784,-3.997901,-6.120403,0.421873,4.3784065,2.6633186,-0.17521834,0.8347441,-3.5867527,-0.984431,1.0960467,2.5107782,0.9313398,-2.2968578,3.528618,0.04060537,-0.889434,-4.982247,1.843978,-5.5079546,1.2866743,-0.16930307,5.221631,-2.4869854,-4.611334,-1.9614816,3.2153585,-1.801078,1.7267698,1.083068,4.359778,0.30930668,1.5303043,1.7498826,1.8396626,-4.721679,3.427406,0.9797143,0.94294614,-1.2018158,-2.016279,2.0914297,2.974277,-2.2732499,-1.8789032,0.0060279346,-3.559472
github/thejasvibr/bat_beamshapes,-1.3252131,0.3097412,0.050207052,3.0471573,-1.9796748,-3.4714854,-1.051536,1.0608116,-0.019647634,-1.0688827,0.52345335,-0.8038153,1.608042,-2.3378098,1.3897158,-1.7396058,2.666443,0.83634216,-1.6533945,0.21938449,-2.9080682,5.9384174,-3.9327092,1.0052563,1.3858924,0.22497794,1.1942244,-1.6422224,1.3115196,2.1214077,-0.3163069,0.07611046,-5.4767933,-0.47056004,-0.07170758,1.8450396,0.13714536,0.39857996,-1.3137558,1.5316746,0.95509255,3.446928,-0.87709033,-6.022888,2.2538514,0.9473283,-0.3819275,0.61910367,-3.1401553,-0.8073348
github/atomneb/AtomNeb-py,1.2357458,-1.2709275,-1.5220872,1.6252581,1.8454349,2.1908536,-2.1701486,6.419228,-0.42326415,1.1686395,-2.2605784,1.4888042,-1.4366794,-0.54179525,4.366644,3.5250907,2.2705717,1.6443992,-3.9122555,-4.020295,0.28495154,1.5779376,0.8463039,2.729407,2.460535,4.1321106,-1.6446255,-1.7459015,-0.6213109,-0.969673,0.092872255,3.7552397,2.1796427,1.0271127,0.81516755,4.784448,-1.1122513,0.8178154,-3.1658354,1.7996387,1.7536651,2.391542,-0.16294225,-2.9687915,-0.80763173,0.37847432,-0.9201885,-2.7177758,-0.06779951,-3.8057358
github/eScatter/pyelsepa,-0.47805545,-0.92981005,-0.62807035,0.37490886,-0.20344852,-0.0055698897,-0.40710852,1.1161128,-0.02758609,0.38129514,-0.025261316,-0.06286869,0.34173656,-0.40681493,0.43998817,-0.8400821,-0.1738,0.6488657,-0.5492495,-0.3476542,0.7650879,-0.22737113,-1.4813657,-0.12144839,-0.3272416,-0.15441334,-0.5091956,-0.2422023,-0.4330634,-0.96289897,1.1410071,-0.5148439,-0.6012608,0.8742073,-1.1272557,0.32919866,0.111298166,-0.23236907,-0.4759259,-0.093972,-0.10701068,-0.54069483,-0.3769407,-0.6537046,-0.076221675,-0.37804878,0.9429087,-0.15116364,1.4476608,0.4801005
github/cjbarrie/academictwitteR,2.4234822,1.1299664,-1.0697606,-1.0800648,-4.6954427,-0.22401808,-2.373449,0.60716057,-1.6777713,-2.8127835,3.1811411,-3.229073,-3.1607604,-1.5512725,-1.9893295,1.9185979,-0.27020222,1.3988258,3.7645788,0.18521997,-2.3616333,-2.3123434,1.6675625,4.080191,-1.8892391,-4.042392,0.24670218,-2.1169112,-4.6209297,-2.6560574,2.8201947,-0.8783,0.8657914,2.1952188,-1.4557844,6.363043,0.54264903,3.0715263,-0.80121446,-3.5751815,-4.228127,-4.7580833,-1.4730551,4.224666,-0.32176477,-0.86150837,0.08162434,1.1411213,7.547138,1.9490523
github/amusecode/amuse,-1.1440653,-1.921186,1.0680228,5.1857944,-0.57180303,-4.10503,-1.6399196,0.9406705,0.8932573,-1.4661542,1.8105356,1.3626027,1.1157529,0.64789486,2.298271,-1.1303473,0.6307705,-0.17134541,-2.4370317,-1.4024769,-1.1445303,3.460075,-2.09983,4.1655397,-1.5704919,2.0684454,-3.5321681,-0.019159306,-0.50035286,-1.7907865,-0.6626891,1.560633,-1.3223145,1.0369916,2.0220752,3.8493328,-2.2363586,-1.3592433,-1.6340758,-0.77892107,-0.67697394,-1.5084544,1.637723,-2.8539042,-3.6250815,-1.2088854,2.032472,-2.4029157,-3.3493779,0.66894597
github/ketch/nodepy,-1.0329418,-1.5505524,2.0347264,-1.4893999,-4.0361104,-2.96474,-2.4945247,2.9840953,-0.6490166,0.15640803,-0.532261,1.2737178,0.43421686,1.1101427,1.0024419,-0.5600465,-0.5469171,1.0045668,-1.1980027,2.479331,-0.40428495,2.2623024,-2.07935,0.5658679,-0.6912686,5.992331,-1.5949261,-5.1947546,-0.87415344,-2.5360866,-3.6761775,1.1278741,-1.0916787,2.1395772,-0.33035517,1.4161384,-2.6832058,-1.3317285,-1.8041347,3.4630227,0.399006,0.513243,-1.8897402,-3.376042,-0.11608425,-1.5738705,-1.382029,1.9335616,-2.9385388,-1.947552
github/ketch/RK-Opt,-0.33157745,-0.91191685,2.6855967,0.255376,-5.7391033,-4.78051,-2.7455425,2.6011958,0.94160134,-0.66621274,-0.24513246,-1.160923,0.37956247,4.466792,3.1537178,-2.0050664,-3.2249174,-1.073786,-0.0667269,3.7581527,-3.2447298,-0.08593047,-3.7673979,-0.66954225,-2.6728785,4.6812835,-5.5710764,-5.3746724,-0.15429223,-0.25356343,-3.3830063,2.8859458,-0.4691262,0.9605889,0.6856377,3.3934739,-3.401965,-3.377921,-2.9231668,0.5631083,-0.44109628,0.03581034,-2.0633054,-1.3017342,0.8340401,-2.074132,0.10461556,0.76245713,-1.233571,-1.7186421
github/c3s-magic/c3s-magic-wps,-3.169159,1.7091521,1.2398483,-4.7174273,-1.1043853,-2.775285,-2.731052,0.46990392,0.06203753,-3.276539,-2.2986875,1.3348082,-3.9716172,1.194711,0.37641662,-1.6918551,-2.8618517,-3.4243252,-0.4411867,0.7694427,-0.81708634,1.5720065,2.300421,5.932816,2.075654,0.06914683,-6.3944497,-0.09034335,-3.8539748,6.3820953,5.563702,2.999071,-4.961884,-0.64758325,1.5293591,-0.29768977,1.0252533,-2.2696157,-2.8273168,-2.1094046,-0.53284985,-0.92928475,1.6274965,-7.8959846,4.1550307,-1.6544478,-2.603697,-6.7042756,5.2359996,-3.2715614
github/DedalusProject/eigentools,-0.7686807,-0.70493996,-0.13262251,0.6486322,-1.2212307,-0.8231522,-0.7642975,0.6637651,0.04373852,0.5487246,1.6426376,-1.679003,-0.32675844,-0.6605864,2.1900473,-1.8554292,0.5841614,0.23187506,0.0027530128,1.7238015,0.43082494,0.35090384,-0.38892782,1.8310288,-0.40403178,3.1016088,-2.116737,-2.1911387,-1.2952001,0.5945259,-0.7209173,1.4342622,-1.0664665,0.54379827,0.74137,-0.37675276,-0.9348117,-0.5295423,0.75660807,0.5060315,0.30170462,-0.46142048,1.0568832,-2.6857846,-0.7410635,-0.21718062,-0.5868052,-1.4686699,-2.5389168,0.2634236
github/kadyb/rgugik,-1.1701971,-0.0687267,-0.9152442,-0.48830223,0.44114146,0.41866517,-0.74602693,1.1957425,-1.4176265,0.097792916,-1.0642623,-0.8949342,-0.87081134,0.58914554,-0.08029769,0.24513395,2.7578635,3.3728907,-0.52020454,-0.65547246,-2.8725526,1.2894086,-0.47501162,-1.103484,0.6093667,1.0991724,-3.8944926,0.44752565,-3.1280255,0.30179575,1.7841636,1.6539452,0.849176,0.8470892,-1.9271604,-0.80175143,-0.29164845,0.20330591,-2.2480228,-4.343223,-1.5373418,-0.8294858,-2.1291478,-2.912187,0.72055,0.25893435,2.0296342,-1.7222037,3.4088578,-1.8951931
github/MRCIEU/metaboprep,-1.0947706,3.98387,-6.3130054,-3.479884,3.80667,3.279408,3.827643,1.4206711,-0.48833713,0.9716485,1.7896314,1.4479504,-4.346802,-1.4036543,3.8329635,-1.2850746,-1.9586229,-2.3380456,-5.6994076,1.2377739,0.7965233,0.8748538,0.6293276,-1.5637466,-3.1351779,-1.8550044,-8.156738,0.51144695,-0.49544483,-3.201038,3.187602,-0.9794273,2.24394,2.8896406,-0.53399444,0.053297743,-1.4477595,-4.8600063,-0.99496967,-1.7722677,-0.70232844,-1.546252,1.019925,0.14904211,2.0517144,3.1500103,1.0967041,-2.4746428,-1.5523974,0.53998977
github/entangled/entangled,1.6002297,-5.103582,-2.8994095,0.77858454,1.0808685,-4.765975,-4.6151443,3.7756705,-2.7617664,-1.735438,8.663916,1.2965157,5.77022,-5.9228992,-4.126965,-0.0064148116,0.14998531,4.7193184,-0.16477394,0.68553627,0.7396389,3.3926973,-2.2331707,-3.6146412,-2.6002417,-7.146676,0.02265246,-0.17222686,3.4053466,-0.763039,-0.66735315,3.6698291,-2.290919,7.2992334,1.7204891,1.7931348,-5.1055574,-0.0685179,2.7385726,5.2973275,2.5224912,3.0180833,-2.2117553,-1.0242354,4.272281,1.0587182,-1.6898941,6.9128046,-5.6764665,0.98333144
github/geospace-code/h5fortran,3.4414077,-0.6668177,-3.3396428,3.8762095,4.0818152,-3.2078946,2.6710312,3.3977444,5.1154957,-4.6368747,1.8221029,-0.56486964,1.1763722,-2.048481,0.25491136,-0.3961192,1.9959614,4.784853,2.7338262,-2.9988532,1.2545431,3.005304,1.2100524,-1.8503282,-1.876016,7.4805913,-4.781036,-6.668061,3.7405384,-2.3109148,3.3754127,0.4347825,0.92392033,-0.95594233,-6.181919,2.0975354,0.99096465,1.79131,2.270499,-0.9502905,-1.1094993,1.0635906,6.276059,-0.95250076,-1.1470338,-1.3298105,1.288222,-3.0457718,-0.22967651,1.043819
github/lijing28101/maize_pyrpipe,0.5808518,-0.10431765,-0.34954748,0.16563256,0.2364958,0.10687233,-0.39792937,0.74990547,-0.49880353,0.08371237,0.052254263,0.2009771,-0.4798276,-0.5291461,-0.22902559,-0.56628835,-0.28661716,0.5533609,-0.13467437,0.3381811,0.53687865,-0.112890095,-0.90832585,0.29289877,-0.2883591,-0.30037987,-0.36853665,-0.5168562,-0.72458756,0.024062585,0.20793903,0.0055113425,-0.318419,0.34629267,-0.22757906,0.21023026,0.20041665,-0.669285,-0.45307562,0.42156044,0.28306592,-0.8562491,0.059956253,-1.1234937,0.3189355,0.10665371,0.27236867,-0.079838,0.25530964,-0.26823047
github/OrlandoLam/SAMT,-0.5862092,0.29503593,-1.0869287,-0.40868843,0.98088014,0.6388976,-0.1858686,0.12978412,0.29570612,0.7888735,0.5827956,-0.1915661,-1.5094618,0.017026024,-0.77342963,0.8479745,0.48749736,1.5284836,0.5121956,-0.63737684,0.95464534,1.4736232,-0.9961903,-0.43787977,-1.3188605,0.6727374,0.22589952,-0.3929193,-0.9676824,-1.2238642,0.20848478,-2.3529961e-05,-0.64198244,2.6943681,-0.65673834,1.3852965,0.86244035,-0.9000176,-0.9936719,-2.0125806,0.19901122,0.27510118,-1.3802103,-1.9825963,0.8943339,0.10148971,1.3220779,0.8641546,2.0461311,-0.6451554
github/fAndreuzzi/BisPy,-2.0572982,-1.4941342,-0.4631884,-3.823547,-2.9334495,-3.0027165,0.3482991,2.9377875,2.1368484,2.8744335,-0.29604647,1.0451305,1.0827254,-0.07973006,0.573001,-1.6319269,-4.229502,-2.8540518,0.7122811,2.1794639,-1.4895284,1.7486458,-3.6100395,1.5249411,-2.034388,2.3978755,-0.91940415,-2.828946,1.6836166,2.329755,0.97588235,0.92945755,-3.1396008,2.3028653,-1.2083863,1.2003694,-0.79281723,0.57357806,-2.9818645,3.608247,-1.6268656,3.6460884,2.5381138,-0.5581403,-0.666433,3.0169895,1.2502801,0.2908343,-1.7373695,-0.36310717
github/pavanvidem/chira,-2.3637164,-0.9070912,-3.258012,-0.8284599,1.7443163,-1.1154712,0.037103582,1.7305679,-4.776891,2.8739452,0.067603365,-0.9932433,0.006134105,0.37018877,1.6956475,-0.39058405,-1.3685457,0.5484008,-1.1985021,2.856198,3.0635471,-0.5215951,-1.5905684,-0.50341195,1.115769,0.23465613,0.4793595,-2.1338618,-1.6837968,-3.9771533,2.3630986,2.6950872,1.6848037,1.0222476,1.4540129,-2.0484922,3.3041725,-3.2173002,-1.1913183,-1.1204925,3.517046,-4.198195,0.63667685,-2.3625891,-0.44507766,0.806832,-1.5592701,0.36176595,0.027297646,-0.44973385
github/flintproject/Flint,0.02749044,0.9706445,1.0335542,-0.26338527,0.07849871,-0.5178709,0.06664176,3.6641622,-1.0961052,-0.730747,0.7734196,-1.3884963,-0.08486874,0.21527864,1.689806,0.3033621,-3.466737,-0.7186212,-0.6318874,1.1048845,-1.9580747,2.8167567,-4.359499,0.47342214,-1.6745057,1.7657491,-0.33435076,-3.4728642,1.8963689,-2.4211972,-1.4236181,1.5716752,-2.4955866,0.21798001,3.50838,0.29343337,0.15173085,-0.47576883,1.8417034,4.415333,-3.885634,-2.4069004,2.9857817,-1.94146,1.5899792,-1.7786245,3.781584,0.01269386,0.65717417,0.7662319
github/oschwengers/referenceseeker,-3.9530287,0.45504215,0.15904216,-0.416818,6.3567986,-3.4636767,-0.9349569,-1.9012716,3.0524704,2.177542,0.74808234,1.5370739,-3.9004817,-4.7702217,-2.4183593,-1.7804567,0.27111796,0.47304186,1.3242135,0.6445139,2.179829,-1.6547498,-1.0290266,3.1865256,2.2679603,0.8425041,-0.23098709,0.74486715,-0.028316798,-3.6721213,4.4307413,1.4679918,-0.1480536,5.2591605,0.79536813,1.7411512,-0.11079668,-2.0724728,-2.3574076,0.39600375,3.3650439,-1.0400099,3.598007,-0.6556135,1.6939359,0.99519837,-1.8020633,-1.1556181,-0.32230055,-1.3052998
github/oschwengers/platon,-2.9026513,0.3371531,0.4625884,-0.062155534,5.4576826,-1.495908,-1.9812356,0.42348415,-0.14112332,1.9693433,-2.634591,-0.9403663,-1.0148685,-4.278884,-2.4178693,-2.0726466,-1.3334118,-0.78849614,1.4803033,1.6056781,2.8516402,0.5362535,-1.6247357,1.9273177,1.1382523,0.50466615,-1.587041,1.8174953,-2.8480723,-2.7852712,1.2400172,0.3855445,-1.5477883,3.537334,4.436629,2.5461404,0.3600662,-2.2754428,-2.0525413,0.30679712,1.8246975,-3.4145515,3.8173962,-0.047609705,2.5912855,3.4445057,-0.85482496,-3.521756,1.1456032,2.1865606
github/oschwengers/bakta,-3.5262876,-0.61878633,-0.52758193,1.1316029,6.982082,-3.849994,-2.6293657,-0.8252237,0.6430022,1.0988548,-2.1932578,-0.8926038,-0.98134416,-3.5559018,-3.738491,0.640588,1.0622128,0.53088564,3.0956583,1.7321562,2.714307,-1.29025,-0.5572758,3.3810081,1.4998441,-0.9251825,1.1053859,1.6154951,0.12529309,-4.682461,3.8289075,0.45500475,1.6179146,5.339738,1.0728014,0.46654013,0.7186869,-3.7114627,-4.3474226,0.61215025,3.7911444,-1.4680456,1.5113931,-0.087541014,3.2355654,2.1607907,-2.2368062,-3.1260045,0.8167761,3.5203762
github/hillerlab/GenomeAlignmentTools,4.0602527,0.019034421,1.1768051,6.4837003,-0.028859962,-7.5549746,0.7758967,2.4427757,-2.2524862,2.9650059,-0.42679352,2.8648384,-2.2782516,-2.675194,1.4900471,-3.2659712,1.2488585,3.3552723,-2.2103095,-0.41944805,3.3598647,-7.2916074,-0.9334335,0.74775195,3.6626704,-0.6884473,0.4799946,-3.1750124,3.1309001,0.13368678,3.445759,2.0241072,2.247283,3.5131836,0.31350788,2.3862395,1.2782966,1.0966816,-0.63929594,-3.9430227,6.8398194,-2.468256,1.9344541,2.8521376,1.4036661,3.5215614,1.2441394,2.1810138,-0.3427212,1.4345131
github/AstraZeneca/kallisto,-1.371236,-1.9368963,-1.172543,0.31811097,-0.16411784,-1.7734493,-1.6259731,4.8171444,-1.2911328,-1.9546243,0.016303666,0.4807088,-0.7555905,-3.0122225,0.4926415,0.33421254,0.5814403,-1.312136,-0.76146126,0.8739213,-1.0740975,1.9287987,-1.7338215,1.2470652,0.46875995,4.5373406,0.12585314,0.49373326,0.70624053,-1.0604932,0.6054205,1.6422606,-0.584524,2.4438107,0.38048175,1.6742625,-2.1262722,-1.359983,-1.7175893,1.8100123,1.4252957,1.8927594,0.7041598,1.0576944,-0.37791198,-0.6750655,0.66389054,-2.5306175,-1.6712347,-0.110327646
github/mscroggs/symfem,0.7659903,-4.9092755,0.7255868,-2.1234448,-3.7431529,-8.384129,-2.8677132,2.4518144,-0.2793507,0.19105913,4.2758627,-2.20426,-0.48672238,-2.2277894,1.0254321,2.0962098,1.7592365,-0.69466865,1.3038168,-0.026073316,-1.0663918,1.2851576,-2.465629,-2.908917,-3.469604,4.9287148,-3.0157344,-0.8650957,-5.8279886,0.42716002,0.76965135,1.9458603,0.11844516,1.2260563,-0.34891877,-3.3065906,0.9788767,1.1504713,-0.9379158,2.9128208,0.6752665,2.0287936,-0.7660417,-3.8318233,0.6678767,-2.1506703,-3.4937842,-0.92797005,0.23174721,1.2072979
github/CGAL/cgal,2.2836056,-5.4959736,2.5063589,1.5564319,-7.6793303,-1.4550198,3.7685144,-0.09674951,1.123654,3.9957721,-3.1479383,-6.627613,-0.21096402,-2.0887654,0.2357599,5.6319013,1.723308,5.886551,0.26714802,-1.0525466,-0.8754668,-3.5851188,-8.976625,-7.751794,-3.6385052,2.0650768,-1.1511699,-5.0128293,-3.3940907,7.627022,2.5415921,5.3478117,1.9169649,-2.548874,-2.5010676,1.2374573,1.5986873,-3.5284157,-2.2449577,2.4709995,-1.5099808,1.729187,0.32145244,-1.205562,-3.6604886,-0.40467462,2.8853395,-2.0298858,0.23848276,4.981282
github/VNNikolaidis/nnlib2Rcpp,-1.2668762,-0.5788843,5.5125113,-0.5959888,-1.53203,0.9062744,2.4515953,1.5298163,-2.439956,-0.33258498,-0.1928412,1.115234,-3.877386,-3.3335006,0.51913625,2.155286,-2.2667637,-6.2616277,1.7138052,-2.0483124,-0.6740971,3.9399219,-3.9755397,-0.33379748,-5.430995,1.5441761,-3.2457516,-6.0624113,-0.07420507,1.0575671,-0.3826844,2.4206429,1.0726829,0.02182984,-1.8967035,4.229752,0.77943313,-1.2278122,-5.519919,-1.9673535,-3.0189228,1.2868763,-1.4789748,1.6194526,-0.2862038,1.3658342,2.7274606,1.2943754,3.858442,3.4042428
github/MoreiraLAB/mensadb-open,0.3186652,1.1591989,-0.34085748,-0.55474085,0.32885054,0.51147485,-1.3814179,0.9111418,-1.9434303,2.487826,-2.7852585,-0.33222425,-0.92820036,-3.8727114,2.4944851,1.5868489,-2.1943142,-0.3406949,-2.2136874,0.781322,3.506354,-0.42481127,-0.9729719,0.5799347,3.1520607,2.9373667,-1.1910341,-1.5716634,-2.3279388,-0.0019370277,0.8615894,2.8822935,1.1549408,3.0599332,2.2848318,-0.90246844,-2.3581183,2.4557984,-4.2513013,-1.0594717,1.1109635,0.40218684,-0.39870256,-3.2797787,0.035105813,-0.33717054,0.041532565,-2.0894704,0.8128323,0.34772912
github/MoreiraLAB/or,0.11263876,1.3451632,2.7017567,-0.954378,2.2798672,0.66308385,0.26477978,1.5311358,-1.4523808,0.8246572,-1.8374269,0.019912979,0.06384664,-1.2459799,0.66072243,1.7451385,-3.195761,-1.0692155,1.6136054,0.69838053,0.79643965,-2.1659658,-2.225132,-0.48643202,0.7642483,0.006645656,1.040418,-0.55607957,-2.1957552,0.18027762,-1.5931664,1.3719418,-2.0099084,3.9108968,-0.38320783,0.29286385,-0.566838,-0.6424901,-3.144761,2.7073758,1.880023,-0.4962833,-0.53732264,-3.515995,1.0852735,-1.0382518,3.3509607,-1.3385566,0.74019295,-0.9997802
github/cadop/seg1d,-0.63709503,1.062315,-0.52785105,1.2411864,0.23152801,-0.8852512,1.3470039,0.9314652,-3.3342738,0.11547661,-3.100423,-2.4850264,-2.1562579,-0.49581504,-0.20458408,0.30789152,-0.40659204,-1.5417405,0.33891374,4.7115316,1.9055164,0.9483014,0.15288468,2.4393055,-1.3116076,-1.1502872,-5.6186914,-4.9140787,-2.7329235,0.32827413,1.7672304,2.725251,-0.07829328,3.2735424,-0.14506514,-2.2502825,0.6911125,-0.16685358,-4.518599,0.8423364,-3.2390306,-1.7453699,-1.9361111,-1.355727,-0.6359232,-4.5544834,-1.5009675,-1.9536583,-1.9422116,-5.1507916
github/mdsteiner/EFAtools,-3.287194,4.837411,-1.0311888,1.5079598,-1.9767601,-0.32603168,-2.3397152,1.9576097,0.06762451,-1.4587328,4.8543034,-1.6197879,-5.8923397,-2.0403166,3.199619,-0.5909408,-8.299065,0.14857018,-1.3320224,2.7479162,-4.049766,5.3497024,0.27600384,-3.0121078,-0.7393236,5.0205765,-5.2972784,-3.2362075,-2.05587,2.026779,-0.63598734,-2.393421,-1.6372633,0.4665791,-0.17661129,2.8105783,0.35135943,-2.1622038,-2.5625014,1.1060636,2.3744235,0.12804003,-2.204969,2.0804048,0.8461031,-0.4567795,-0.59142625,-3.415879,1.1199886,2.1017168
github/azizka/IUCNN,-7.1294026,0.9336979,1.3262546,-1.3080206,2.3184853,-3.2215269,-5.908318,-0.25890425,-1.1657265,1.0508509,-8.705246,7.220467,-6.080745,5.3860064,-0.7267771,-3.608244,-6.0936656,-1.8758842,2.9419963,8.531399,0.84445095,2.1212378,-1.8147289,0.08729726,-4.423852,-1.0966465,-3.2316206,-0.18379566,4.325951,4.809606,5.4152045,-4.4325557,1.1058403,5.893226,-1.4264569,8.056588,0.08838823,-3.202808,-0.2468638,-14.973194,-2.9211068,-0.6753349,-2.2408245,-2.8234954,6.025536,2.0920863,-0.72117347,0.057641797,0.9935709,4.140181
github/BioGearsEngine/core,1.8653402,1.6446961,-0.030012295,-4.6679144,3.7032177,3.2863462,2.9211292,-0.082466185,-3.8868074,2.4910264,2.528957,5.4106503,3.7588036,-0.19851881,2.3976488,0.005069803,-2.264027,-1.1230536,2.9733047,-0.107017815,2.4954538,0.13622965,-1.2441366,0.25041085,5.898608,1.7487359,-3.197283,-4.3936596,3.0436397,-1.1906375,0.9354071,5.8061843,-1.0329353,-5.5373087,0.4330701,3.2796607,-2.4335725,-2.0959468,1.4332851,5.2710433,-5.9261017,0.49659646,2.3034995,-0.8748483,3.9510179,-2.8714466,2.274566,-0.55978936,2.997788,0.70676917
github/DrDaveShaw/INCHEM-Py,-2.092038,2.6184626,3.5656447,-0.054602563,2.5836005,1.1245476,-2.1880035,5.5956354,-4.7904406,0.21566135,-0.94992363,4.1471205,3.6205976,1.5321883,3.3686829,-0.09620217,-2.098174,-0.9813209,-0.08471435,2.5307322,-3.7271073,2.869837,-3.935657,0.24223837,2.1095548,0.94635856,1.6692988,-1.6168301,-1.0826952,-2.4037576,-1.6540442,2.2770023,-0.5893989,-3.2718427,0.59815913,2.2628336,-3.4643073,-0.64910656,-0.40728104,-1.1810223,-1.139485,-0.30310097,0.94719684,-1.5454105,2.25788,-2.2843966,2.434223,-3.2143185,2.1610184,-1.8264441
github/bommert/stabm,-2.717851,2.6419733,-0.44714737,-0.30094063,0.051916797,-0.6594414,-0.47053385,-2.6509573,-0.70305926,-0.16508673,1.5755045,0.48253372,-2.949725,-1.7944846,2.0042574,-0.49179482,-2.2454202,-0.16203758,0.66124356,5.970403,-1.021502,0.48319316,-0.9398199,1.4089018,-1.9795461,2.4622924,-3.2303472,-3.17992,-3.744541,1.087213,-0.021740662,1.0193564,-1.3402538,3.290362,0.32655326,2.9783971,-0.16657944,-0.19698891,0.9657575,-0.29976872,0.6024459,-0.036782738,-1.7685997,-3.2814848,-1.2509023,-0.49377298,0.1745971,-3.566344,1.6233734,-0.09767952
github/Yomguithereal/talisman,1.440092,-1.3262147,1.1748791,0.27643013,-2.3618357,-0.80062175,-1.6207801,2.2548358,3.2712042,1.3515548,0.55146563,2.4676795,3.056837,-1.582486,-4.446334,-3.6001222,0.07399032,3.8504052,-0.041081507,1.7720625,0.63545334,0.7285735,2.5370245,0.55331534,-1.7366939,-0.991467,-3.1430466,-3.5710413,-4.3561883,0.9705276,-0.92373717,3.8536198,-1.380136,4.037913,-1.4556018,1.5419934,-1.3183397,1.5152676,-1.8871001,4.158894,2.1654305,-0.501898,0.27522254,3.9358733,1.3000386,1.4400276,2.0415385,0.04451921,-0.56038284,-0.41266394
github/ashleefv/ACEInhibPKPD,-2.0622535,4.2866006,2.0208986,-0.65241367,1.6685814,2.9203033,2.5525036,1.8123598,-2.350752,-1.5767307,4.289966,4.458404,1.3822026,-1.9720976,5.0600085,2.851095,-5.303524,-0.9305763,0.49127907,0.26669347,-0.8504455,3.4509997,-1.9696755,0.8214504,-1.4329982,1.4357612,-0.528908,-5.175714,-2.084466,-2.3617966,0.9424128,0.55456597,-2.6542475,-3.6457794,1.418593,2.4405203,-3.9866536,-2.312589,-0.23226927,1.8245836,-0.1167686,1.1420625,-2.0366898,-1.176348,0.058951776,1.9562173,2.4009743,-3.0219445,2.9243894,-0.60698915
github/mbhall88/rasusa,-3.503586,-2.2694335,-3.70936,2.4904122,3.7238173,-6.974615,0.9709345,-1.7874775,3.055388,1.1574507,0.62558365,0.46254635,-0.41900927,-3.7913492,0.19603343,-1.0833927,0.6687635,2.0772538,-2.6663125,1.1592686,3.9753578,-2.299533,-2.5104659,2.2432241,0.9396065,3.0237536,-0.817243,-2.7876616,1.155782,-2.4690292,4.095656,2.0156634,-0.001196293,0.99718463,-2.5228252,5.231253,2.3619118,0.411901,-5.420276,1.1249259,1.8593322,-3.061715,5.443319,1.7079016,1.8714833,4.1568923,-3.8872027,4.812827,-1.9777143,1.4198501
github/NielsenBerkeleyLab/sconce,2.6353934,2.7305322,-0.12800524,2.2158937,2.6240153,-1.8626146,1.420319,1.2585416,0.009859279,2.1831686,-1.9798677,1.6634727,-0.2924493,-2.1818962,5.2923355,-0.108933315,-3.3732364,-0.2935854,-4.897018,0.8269699,5.7135096,0.8072891,-3.805707,-1.6720134,1.5607477,2.708251,-2.3382018,-2.2695749,0.953489,-3.5286393,3.696889,0.17919685,-1.6990063,-1.4189038,0.45133996,3.0962062,3.6125076,-0.013782217,1.1860751,-3.531315,2.0484347,-4.697877,2.364474,-1.6261499,0.2500664,3.7796059,-0.6823908,0.94766587,-0.37071565,-4.1775475
github/BioMeCIS-Lab/OpenOmics,-2.4832258,-0.7810163,0.9085266,-1.8861115,0.9680915,2.8612165,1.391286,1.5976455,2.171317,-0.9295664,-0.8685457,-0.5999366,-4.0115533,-1.8028378,-0.48744822,-1.4970822,-0.3374137,0.6324378,-0.30612844,-3.0148342,1.5028949,-1.1818229,0.59086585,1.9295123,0.3803487,-2.6502163,0.0014346415,-2.8221922,-0.7516328,-5.3466325,0.28600106,-0.17670941,0.6008228,2.9160602,0.80644804,-0.79930896,1.7693651,2.1018488,-1.3657482,0.08415875,0.4235692,-2.5141788,1.2660756,-3.5463488,5.498489,-1.02375,-0.08317919,-3.0280423,0.47310442,-0.6017332
github/wangjun1996/VisFeature,4.4054346,-1.3408741,-3.2786908,2.3275843,-3.2214842,-1.2190572,-1.0121871,0.36883616,-1.2908144,1.3006169,0.8903277,-2.054981,-4.380723,3.944991,-0.7039515,0.06240447,-0.88656765,2.6032214,-0.714163,2.4757202,-1.0378621,3.2682812,-0.15327011,-5.2397547,0.0021340428,-1.5209097,1.4897072,0.27095416,4.392149,-2.5886772,-1.5949519,1.4783205,1.466878,1.5218042,-2.827377,6.623205,1.476662,0.109170854,3.12184,0.2554399,3.8924243,-0.30017164,-3.7491198,1.9590033,0.31782803,-4.13118,-2.8400183,-3.6955087,2.8378625,4.6114
github/ylab-hi/ScanITD,-0.76848876,-0.124465,-0.6452428,3.0498002,0.90087193,-1.4502891,0.6094204,2.2565763,0.300652,1.8079954,0.015318604,1.3034152,-1.881623,-1.5569605,2.4324625,0.59393275,-1.9400119,3.7460911,-2.212479,0.9503247,5.001165,-0.6290787,-2.1981688,0.70501035,1.269981,1.314609,-2.903037,-0.14119974,-2.1233253,-1.8479753,3.4090066,-0.48353666,1.6621704,1.6814771,-1.3761702,-0.20376553,0.9923831,0.09202177,-2.530678,-0.9483488,3.891038,-3.1273794,0.7917217,-0.4809247,-0.9488101,1.3836809,-2.548586,0.71837157,-3.5284638,0.7054634
github/csinva/imodels,-0.44448408,-2.6687572,0.3415562,-2.060364,-0.22775897,2.0366316,3.0072324,2.7129788,-1.0486408,1.2457888,-1.3276019,-4.35474,-0.46246305,2.4971373,-0.28833485,-4.5096383,-6.4046383,-0.9200897,0.71839947,4.4750805,0.41202325,0.71892345,-1.9066312,2.2280955,-0.20702676,1.8334814,-2.8444448,-3.1092916,4.63473,2.9127545,-5.0235023,-0.29065993,-1.7677382,5.2658243,0.7111396,7.867677,0.3260005,1.6994594,-1.45886,1.7107477,0.045238636,-2.4441087,0.12595926,-1.5554489,-0.20245162,2.646541,1.8297052,-0.3263007,-1.3549483,1.1027993
github/koenderks/jaspAudit,-0.7886295,-1.4773734,-2.4721613,-4.53368,4.7131076,-3.787454,2.5342107,9.093604,5.868871,3.3421612,7.590562,11.242,-12.018974,10.339453,-0.06422957,-3.8496912,-10.128993,-2.5528843,-3.764385,10.720457,-2.7425795,4.061623,-3.3167226,-9.8449545,3.920811,-0.40858626,-3.118565,-0.33566606,-6.9749393,-5.7936697,10.995869,-14.33595,2.6688466,4.527429,-5.13008,5.1904607,-0.3531881,0.8566866,-2.3497205,12.091256,-1.4306769,0.92713547,0.5642601,-5.6815205,2.3886402,1.3999027,-7.728466,5.317647,-4.330908,-3.2412114
github/donaldRwilliams/GGMnonreg,-0.7969426,5.860327,-1.7402381,2.9771612,-0.6023856,-3.3852427,4.62567,3.794189,0.37548217,0.30645967,1.2624812,1.0417968,-4.7366858,0.7408326,1.931234,-3.144244,2.2770374,-2.075034,3.9442005,5.1867294,-0.006702806,2.9918363,-1.1100583,-0.7915143,-0.29107675,-1.2715566,-2.0642793,0.7228914,2.7984474,7.661354,4.1547093,-2.2455747,-6.0705066,4.7264934,-0.96228516,2.7477708,3.9030864,0.088974446,-0.20161466,-2.9830158,4.2488737,-0.16051592,-3.9782367,-1.9872836,-0.42872018,0.12974164,2.18038,-5.0154734,-0.99812865,0.16808875
github/donaldRwilliams/BGGM,-0.56804293,3.9113958,1.8969786,-0.7089847,-0.95958793,-4.1048307,3.8542051,4.6975975,3.15416,-1.4512391,1.8797338,0.9850913,-6.922851,0.8885622,1.2146121,-4.484986,-0.48129222,-3.0227592,3.5995972,6.4125123,-0.86922306,1.8201855,0.13762173,-4.1542645,-2.4250941,2.8891957,-2.4069362,-0.51401967,2.6955135,5.756449,0.039649762,-2.8912911,-4.205537,5.9589467,-6.8072443,7.179983,3.1613972,2.0039527,1.0718133,-1.9213808,6.5944896,1.7106953,-0.9821304,-4.047427,-1.5680752,0.0028528527,1.8256724,-7.241021,-1.7153658,-1.497458
github/mpc-bioinformatics/CalibraCurve,-1.2331768,-0.042933345,1.1948783,0.095550396,0.83924365,-0.02435864,1.7222788,1.9018296,-0.8374674,1.1558561,0.177205,0.15967742,-2.2673001,-0.9749874,0.16298774,-1.3566769,-0.9635891,-0.5237537,0.14902729,2.3103652,-0.6799783,-1.6496445,-0.7244234,2.08033,2.3693864,-1.4791878,-0.068375066,-1.090842,0.36720297,1.0886898,0.7651287,2.1574333,-0.9648563,0.8639611,-0.15419288,0.21069796,-1.4271181,-2.2648022,-1.5670445,2.1307297,0.64172864,-0.98399353,-1.5187039,-0.33647949,1.5357672,-1.1199387,-1.0731297,-0.043337595,0.7391679,-1.2893324
github/neuralgraphs/diman,3.814595,-0.653607,-0.6055048,-3.4151375,-4.0190845,-2.052975,-7.1690974,6.089723,0.13074218,-3.4013317,2.5144098,-1.6823592,1.3668957,-4.7814064,0.63343537,3.623524,-2.9467928,-0.48544154,-2.7469018,-1.4786665,-2.731867,3.8447254,1.0444498,-1.9244415,-1.3663994,4.5052576,-0.25295523,-1.9129559,2.1837988,-1.5641161,-3.117785,1.6849031,-0.49029756,3.3134093,-4.2450037,-0.72162896,-4.135513,-0.96880347,-5.0696626,2.1342075,0.24688613,2.9449148,1.6461345,-5.516747,0.5996853,-1.1105384,0.27945665,-1.0417215,-3.2213686,2.1328864
github/poldracklab/nitransforms,3.057481,-2.6851742,-3.3965423,-2.9371893,1.9212009,0.94063973,3.8185487,1.9488429,-0.4745961,-3.2720332,2.5007257,-4.3519325,1.3508351,1.0196717,-0.123577595,-4.031537,2.137988,1.3666772,-1.4862816,2.891503,-0.9715162,0.9041817,-4.305899,0.21287861,-1.2727821,2.8623207,-1.2038176,-0.9664347,-0.906071,-1.1412145,-0.3612194,2.4691842,2.6766849,1.7304668,-2.6320522,-0.31029093,0.69665563,-1.9744326,-5.6353264,-1.9456457,-0.17399864,-0.5877002,0.5982857,-0.67276615,-1.8546482,-2.9093032,-1.0986674,-1.624373,-0.71459913,-1.5598035
github/omuse-geoscience/omuse,-0.53093815,-0.836665,0.51081055,0.42406172,-0.96494704,-1.1676723,-0.79244417,0.6654034,-0.20280537,-1.6971495,-0.5711695,1.7989292,2.225752,2.3322444,1.8843145,0.5626683,0.34817955,0.65243584,-2.865003,0.6788677,0.3772353,2.0577226,-2.0983918,2.77152,-0.6704161,1.7636566,1.1135204,-0.5831656,-0.2656936,-1.0033681,-0.2428335,1.2548215,-1.8185165,1.5612243,-0.7085542,1.9999119,-0.8062242,-0.20197748,-0.66908836,-1.5422008,0.23754455,-1.0883765,-0.45997673,-2.8332782,1.3659495,-0.3469242,3.6233704,-0.72926754,0.5217272,0.45928875
github/reality/klarigi,-3.97312,-1.1777346,0.6397095,-2.194334,2.684495,0.67831796,-0.2278287,1.6077728,1.0360677,-1.4248556,-0.2992909,-0.20420747,0.76800936,-1.0681822,-0.06690609,-0.84405845,-3.9786325,-0.30550694,1.6263732,0.62793696,3.2895267,-0.16360955,1.523721,-0.9741908,-0.9237491,-5.918803,-0.28325626,-3.5941534,-0.7303338,-0.69191396,2.6929367,-0.7158758,-3.0998278,1.6580693,1.3240559,1.024955,-0.426548,-3.0973687,-2.7361515,-0.16042191,-2.180533,0.1936214,0.9689869,-0.8463327,1.1065139,3.4168603,1.5262494,-0.008476909,0.16284539,-1.5471481
github/Narayana-Rao/SAR-tools,-2.8316224,-1.6265254,0.17134821,-0.075226344,-2.7207193,0.9662192,4.189437,6.4229565,1.1150782,3.020334,2.0403965,-1.6274458,1.1273977,3.1937053,4.9848957,0.29607826,-2.7578802,-2.2026682,0.05445594,-4.7509823,-1.9650786,1.0115598,1.9750134,6.027889,1.6157553,-0.02396354,-1.4837866,-2.3788798,-1.500186,0.7217062,2.6888986,2.7693853,-0.031708155,1.6635876,3.6000628,-1.11575,-7.2335253,-1.8233228,-9.124986,2.5850976,2.5602615,-0.73475033,-2.761859,-8.261076,-0.5701751,-1.3757395,-1.4767586,-4.644413,0.7743126,-2.2213027
github/metaOmics/MetaPath,-0.11031528,0.0403051,-0.66167283,0.44114095,0.029582474,-0.32720062,-0.35821623,0.60665625,-0.7369874,0.7211213,1.0821279,0.06991038,-0.57490283,-1.0626371,0.28134984,0.37135863,-0.31222376,0.46855167,-0.23720926,-0.03232688,0.03777074,-0.53695196,-0.36464995,0.15751328,-0.59226453,-0.17534623,-0.25997087,-0.11035061,-0.6919826,-0.18607628,0.01484357,-0.11283441,-0.30284694,0.8935551,0.12625661,0.12055446,-0.13697784,-0.12850283,0.07872096,-0.17723706,0.08004625,-0.31583357,-0.17782639,-1.2189006,0.18564457,-0.12372042,0.35191724,-0.6693714,-0.053642716,0.13088569
github/Materials-Consortia/optimade-python-tools,-2.4185455,-2.175489,1.605345,0.45762816,-1.6382401,-2.6958377,-2.2100887,4.3803616,-1.0789577,-3.4289057,4.751397,2.3942957,-1.0347888,-1.6434467,-0.34165668,-2.6540177,0.71931165,-1.9590979,3.994611,-4.2721233,1.3822191,-4.648624,-0.3737695,0.38536412,6.3369846,1.4012555,2.6985219,-3.3937595,-2.6714697,0.535665,0.531772,-3.8357897,2.6770942,1.5156925,-1.3591024,-1.4772851,2.597983,-0.7680865,1.0941483,1.9878688,-1.0481051,-1.0627,2.3214319,-2.875724,3.2769365,1.4087507,5.2073793,-0.95185614,-2.6689024,-3.5183005
github/skypyproject/skypy,-0.5997156,-3.4167616,-1.458727,-0.49448204,0.2773114,0.2074312,1.8121699,-0.7593146,1.4052732,-0.9619814,-0.47784895,1.4128982,-2.3492217,-1.6463938,-4.576637,-5.011721,-1.8123443,1.8492151,0.12906046,0.7142219,1.0460837,2.6162312,-3.5037172,-2.2151322,0.58867204,-1.4421341,-4.743108,-0.44627914,3.9581833,-0.24882407,1.3401911,-0.27325588,-1.2004513,-2.3626509,0.4345498,-1.378244,2.6022375,-1.2251575,-3.368328,-2.7599468,0.2191596,-0.46032092,4.007712,-3.2398965,-1.2594488,-5.4630365,0.40475744,2.453791,1.3259126,2.6844087
github/RTIInternational/gobbli,2.7262537,-2.0003989,5.4248915,2.5471117,-0.8758298,6.3565106,-1.3884856,3.9991913,2.0754805,-2.6112134,-1.3098942,2.601136,4.1717167,-0.617826,-2.9109638,-4.122499,2.3549452,2.0344224,0.5111225,3.6643844,8.681723,-0.44606575,-4.6879797,0.9476396,-3.711711,-2.762947,-2.3600726,-3.6849487,4.1904664,0.78598535,1.1803737,-1.8745935,-3.1919522,-1.0474658,-2.2696922,3.1621432,-0.6498305,3.898183,-4.9316936,0.3340726,-5.2853475,-2.6785684,-3.474756,3.810209,4.5695357,-5.703166,-0.56273925,-6.9084435,0.009384804,7.6271462
github/alexander-shen/rtest,-1.201718,2.086284,0.35900307,1.069473,-0.26610374,-0.6222962,-0.20387803,0.14857997,0.8406234,-0.29096624,0.96207637,0.30219436,-1.0262234,-1.2821708,-0.9392915,-1.0863974,0.027986854,-0.2681059,0.0154681,2.0542865,1.2456954,0.49513358,-1.5434227,0.20054628,1.1762832,0.33373302,0.15070786,-0.4100832,0.14406316,-0.05884562,1.1759317,-0.72208637,-0.40437612,0.3714122,0.04670522,1.8352275,0.74298054,-1.1729581,-0.9232257,1.7170314,-0.19222508,-0.85549694,-0.4682562,-0.34125483,-0.8696653,0.17027594,0.033528518,-1.2703887,-0.21976247,0.056312475
github/wvanzeist/riroriro,-0.4096853,-0.21305573,2.4027805,4.8145323,-0.86928606,-2.0830402,-0.27230173,2.898307,-2.0279484,-0.50176036,-0.95440465,1.2352587,-0.6011272,-0.15160768,0.09750209,-1.929429,-1.1007999,-1.4866675,-2.3781865,3.6116436,2.8494132,3.62166,-4.7582197,-0.21587947,1.7001028,-0.7675815,-2.163592,-4.9246187,-1.6568611,-2.4719617,-3.1983497,2.0913708,-2.8304172,-2.726951,0.91808784,0.28974375,1.1533376,-1.9387356,-3.2704647,0.36694345,2.4162152,0.021843387,-0.25730705,0.7248974,1.5751017,-3.881287,-0.8666751,0.92129475,-1.9050016,-3.512732
github/MD-Studio/MDStudio,-0.21568115,-4.275648,-2.0028794,-5.118653,-4.727781,0.11251464,-1.6544468,-0.13396652,-1.3995271,-2.3747504,3.2188377,2.5987914,1.7800325,2.0559547,-1.4482714,-3.90949,1.3910905,-1.8665485,-2.9076302,-2.7544067,1.67525,-0.6935962,-0.24927618,-1.5141467,0.80515605,-5.5075445,-0.57284045,-0.59763676,-1.2022371,-1.3750521,2.1428704,3.9076684,-1.6198655,3.0885952,-2.952499,-0.753631,-3.3083,0.19957252,-0.076354995,3.241606,1.3689715,-0.89657646,-1.425843,-0.25188345,-2.8940523,-2.9118638,5.0690928,1.8741682,-0.6847458,1.8878208
github/MD-Studio/cerulean,-0.18606696,-0.12340229,-0.057747867,0.05846858,0.037339855,-0.13240567,-0.059785284,0.40481788,-0.30538723,-0.07215719,0.13309236,-0.0033913963,0.0016261354,-0.23743244,-0.08187821,-0.17643945,-0.17873672,0.0075495117,-0.15123954,-0.03017061,0.28187555,0.040138435,-0.34322926,0.2843249,-0.072382994,-0.0049510915,-0.37282246,-0.091352224,-0.22088467,-0.10906376,0.33511266,0.009388963,-0.011428906,0.16312689,-0.37184343,0.3019673,-0.012429779,0.107952364,-0.11476179,0.06570043,0.21803294,0.089291185,0.05953021,-0.1670777,0.057995822,0.0488394,0.16206817,-0.08308725,0.16202353,0.060777295
github/MD-Studio/cerise,-0.9414363,-1.0350327,-0.07299191,-1.6516933,-1.907511,-2.5350602,-1.5259266,-0.24722327,0.39009985,-1.5331054,0.081322625,0.29981458,-0.042492326,-0.5182248,0.00045103958,-4.8382072,2.0530903,-1.0863574,-0.24365866,-1.1854179,1.340288,-3.1420958,-2.1490812,2.1142766,0.6696284,-1.263465,-0.70064336,-1.2405345,1.0501992,-1.7448626,3.5461206,0.087264195,-0.97780436,1.3402005,1.6801256,2.3348916,0.62931645,1.5796664,-2.0448658,2.1394565,-0.20619203,0.98780173,1.8301075,-3.7254078,0.5564089,-3.2095706,-0.19999155,2.7759016,-0.001204175,1.1090698
github/climate-machine/Oceananigans.jl,4.210708,-3.7822065,-0.01205135,1.0134262,-4.3243346,-7.5865164,-2.00159,3.4183176,-3.513571,-0.6110792,-0.6442866,-5.3709674,-0.08023434,-0.14326741,3.0059817,0.8637387,1.2708043,-5.418532,-0.1667698,-2.7664342,-5.3457465,7.082621,-4.95167,4.007524,-0.18984902,4.1192384,-3.0918949,-1.5045441,3.9309673,-2.5680687,-1.0894271,-2.2019305,-1.6627395,-5.1001263,0.6069915,2.0866396,-1.1746846,-0.09902436,1.4924529,-1.2017787,-1.4862534,1.7198126,4.273448,-2.9623137,3.029417,0.90680194,1.0477512,0.5809751,4.2938437,0.7075903
github/WGLab/InterVar,-4.255235,2.6919966,-1.9026058,0.70177186,7.0322022,0.711075,2.5562572,-0.11327764,0.5709936,-0.5615524,2.4099002,2.209256,-1.7115815,-4.9758325,3.2223613,-0.3370105,0.8213372,-1.2845273,-1.1073966,4.069702,7.2977376,3.315336,-1.1640414,-0.8356644,-0.26398584,-4.3992915,-0.95807433,0.58949435,-1.529954,-8.601442,2.660907,2.537793,1.6243129,1.5548003,-1.4513701,5.0212502,-3.0309114,0.9616524,-9.29059,-1.236454,-0.7307083,-4.1480055,0.8214335,1.1202374,2.1752188,3.7982259,-5.299916,0.028285438,1.2530742,0.586165
github/nlesc-ave/ave-rest-service,-4.0985913,-1.5585161,-2.0289326,-0.8545223,0.715131,-0.5861081,2.9929106,0.044516407,-0.9434776,1.0923659,0.7906835,-1.8347971,3.7358496,-3.0624325,1.8749026,-2.4166436,5.7390966,1.5325311,2.1906087,1.7573863,6.4711413,-4.2497344,-2.2492595,1.4680707,-3.536234,-3.09879,-0.055670567,-0.9934344,-0.006029861,-0.51466954,5.4667525,2.3975332,1.5855398,4.697517,1.8145357,-2.966734,-2.3828042,0.5498411,-0.37666956,-3.5543065,3.8703365,-5.7493076,0.26578707,-2.172698,2.2973976,0.91787046,0.6567604,-0.18161608,-0.6097921,2.0573642
github/gtayana/CVRMS,-1.3431513,1.2685924,-1.3154092,0.9235334,1.015734,-0.644072,1.5092391,-1.4967611,0.9862508,2.1426837,-1.8000098,-1.2382414,-0.29265776,-1.647616,2.5522468,1.1321638,-3.24409,2.0187216,-1.0305015,3.2079656,2.86474,0.17702635,1.2243404,1.5364782,-1.038627,1.3462298,-1.7841396,-1.4182223,-1.9502126,-3.0098362,1.9482352,0.9418065,-2.778687,1.901508,-0.8298913,-0.21525013,-0.8190092,-0.79612064,0.5397893,-0.37906605,-0.34591225,-2.8069606,-1.071638,-0.41833484,0.30559653,2.1855485,0.007734915,-2.1574342,2.4693894,0.7044018
github/hansenjohnson/WhaleMap,0.34932193,1.1658387,-3.7922566,0.51424503,0.46228415,1.0934336,1.6402428,2.692056,-1.0217447,2.8802323,0.42194426,1.592217,-0.23143607,0.17710482,-1.8892484,1.0876368,3.5030708,-0.019226236,-1.266365,3.218223,-2.5731769,0.40608847,-0.3127602,3.3755674,0.40488642,-2.9934745,0.8705046,2.2304425,-0.95938677,-3.8864725,3.952422,0.22104403,1.9956652,3.3149064,-1.983939,1.8048861,-0.60003936,-2.7495842,-0.3340224,-1.9373891,2.2017956,-0.09975297,0.27410233,0.07506577,2.235763,-3.804884,-1.8535002,1.0119468,0.8550882,1.1968976
github/Sulstice/cocktail-shaker,0.5395278,-2.1842697,-1.184437,-0.5447624,0.60735923,2.0434203,0.775103,2.907832,-2.0903509,1.0059986,-1.9249959,1.6035037,0.44008914,-4.7794333,0.07940924,2.0955114,-1.0190872,2.8751411,1.7648624,-2.1802146,-1.1351558,0.0984187,-2.2911325,0.03704535,2.083738,2.819872,1.7449777,-1.6101043,-0.9249355,-2.0787945,-0.89456,5.7470417,0.084738865,2.6627345,1.2028902,0.040273197,0.3459666,-1.1823845,0.73042774,2.4331431,-2.3930082,-0.6772535,2.1701667,-1.5581301,1.8546704,-1.1151114,0.8388002,-0.14815937,1.9885681,-1.2713467
github/virgesmith/neworder,-0.8069956,-0.5823633,-0.6094273,-1.2948163,-3.6189067,-0.36684287,1.14591,-0.13973896,1.1901058,-2.9075732,2.076464,-0.17966866,0.8228414,-2.3137348,-0.41813698,-2.8300288,-3.049864,2.0251622,1.3032094,-1.3524431,1.0406755,7.7043543,-5.85556,0.17642023,-0.55918735,1.0746806,-0.61375576,-1.2744784,0.7122569,0.88239837,2.3579197,-3.1113172,-2.4318075,-0.34485298,-1.6126858,-0.2955563,1.6600395,-0.53529036,-0.47231993,0.06762488,-1.2039468,0.19425072,4.270536,-3.189904,4.0355134,-4.1730475,0.91074836,3.5657883,-3.988168,-2.1946402
github/rajeshrinet/pystokes,2.1961987,-2.8399692,3.236733,-0.38108212,-3.558389,-4.103142,-3.3776271,3.0782468,-3.920847,-2.4030154,0.18302442,1.130054,0.006940186,-4.5116057,1.5732768,1.5333945,1.0386975,-3.8258176,0.44654706,0.30401236,-3.8460689,3.1717603,-5.7207503,2.2392879,-1.331087,5.8892117,-3.4453878,-0.60989547,-2.225343,-0.5414602,-1.049452,0.95003915,1.6046796,0.64942616,0.664451,-2.0663972,-5.4242883,-0.9410559,-2.5116584,-1.9148957,-0.6726316,3.1616583,0.13415636,-2.2746012,-3.058712,-0.006465319,1.2570196,-1.7752373,1.2307628,-3.298611
github/auranic/ClinTrajan,-0.22809047,4.080984,-2.3329985,-5.733222,6.6706886,-2.7101161,0.874379,2.4659073,1.2523876,3.1485171,-2.7895913,-3.0360563,-0.7310639,4.5518975,1.8728211,-3.1874268,-4.5130806,-0.5278669,0.3026905,-0.5186394,0.43844286,-1.3007135,0.39862004,2.6583498,-1.5238893,0.5742913,-1.9482558,-4.4338555,4.040328,0.7729394,-0.9325493,-1.2140142,-2.4600372,2.4146473,-4.785425,-0.65151024,-1.9172915,-0.9742953,-4.9317837,1.4619089,3.5172672,2.4348989,-1.4159458,-5.969826,1.7854036,1.0612705,-1.054919,-4.771014,-0.19431448,-2.9683502
github/spectrapepper/spectrapepper,-0.8054457,-2.0624049,-1.0560833,1.6489742,0.8005274,1.8641089,1.2141949,1.7276863,-0.3030719,-1.4964967,-1.804116,1.4481583,-0.8355605,-1.065659,3.619815,1.369049,-0.46654168,0.080365434,-1.4587823,4.4833593,1.9852905,1.8283603,0.29003263,1.6287978,-0.29244304,2.4588838,-2.066841,-2.8791823,0.43349087,-2.8885295,0.032490723,3.5871754,-0.013758218,1.2727301,0.08120809,-1.6003582,-1.674506,-2.0562465,-2.7011507,2.0710576,0.66919816,-0.23816462,-0.72448766,-1.1558912,-0.6422442,-2.5692413,-0.074699394,-2.1173084,0.7905337,-0.27601507
github/vavrines/Kinetic.jl,4.12969,-3.109771,1.1917856,-0.096483044,-3.111297,-6.9801855,-2.7434618,4.250831,-0.8227318,-1.125057,-1.9678937,-1.8232316,1.7382041,-0.2879584,-0.09265686,-0.2742101,0.73870194,-2.6064286,-0.8704736,0.9074055,-3.2650278,5.710183,-4.979719,2.188192,-2.0347688,4.44353,-1.5654418,-2.44753,3.054987,-3.2008107,-1.1522654,0.075455725,1.2116752,-2.2496772,0.8594577,-0.86438924,-3.1311502,0.32120773,1.2216794,1.7654746,0.8135259,5.4964485,2.07199,-3.8075285,2.1752036,2.824831,2.9793673,4.4311695,3.5145316,0.68070495
github/ziyewang/MetaBinner,-0.6471534,-1.4831115,1.9258572,-1.2397636,1.247568,-1.3164073,-0.25241825,0.8204223,2.1768317,1.7315154,-2.922486,0.12626044,-3.006066,-1.9994955,-0.06254265,-2.1669967,-2.7437627,-1.9566671,-1.7557843,-0.66070974,2.7692318,-1.8227895,-1.3688513,2.448968,-2.4685423,2.8995554,-0.09997081,-0.16364323,-2.5933387,-3.586056,3.7076259,3.0879178,-0.4724761,0.8826407,1.4484738,3.840369,-0.04112723,-0.7045058,-2.9638002,-0.20159021,4.7955713,-1.6010138,2.7498214,-1.9558712,3.745585,1.7929789,-3.9286854,2.2510443,0.9498542,0.78082937
github/ziyewang/ARG_SHINE,-0.16039245,-1.9581972,0.3765641,0.34925354,1.2461283,-0.18054457,-0.15172252,0.63029474,-1.6637253,1.1267154,-1.2695543,0.82232744,-0.14344491,-1.2321892,0.6414252,-0.21585225,-1.0695215,-0.43965998,-0.217147,1.3078034,1.9164971,-1.1983516,-1.0921685,1.1333675,0.4501902,0.9083474,0.6651678,-1.1387055,-2.3954344,-1.5667114,-0.06623715,0.2687891,-0.021432158,-0.32768074,-1.172048,0.57361615,-0.10857506,-0.6182476,-1.1738487,-0.22674948,0.03428884,0.16719225,-0.7451673,-1.4818788,2.2267988,0.0593535,-0.42677325,0.711624,0.2598216,0.8766385
github/meenakshi-kushwaha/mmaqshiny,-4.085802,3.7703652,-2.3980916,0.6010119,3.2184904,3.8734257,-3.1071384,4.1048565,-4.4053874,-0.8404003,6.0246997,-0.777523,-0.9739973,3.9625747,6.54303,1.0460072,1.294027,2.6017973,-2.6366181,2.60778,-4.2722535,5.096179,-1.2622559,-0.010531009,0.8197224,-0.60123307,-2.9167926,1.4721769,-4.5552473,-3.9148097,2.1948128,1.8981029,4.3828297,-3.3298635,0.6648591,-0.6017465,-4.09165,-3.9270797,-2.063474,-0.26520225,0.98255366,-3.8104208,-1.740512,-1.069361,-3.771396,-3.7380314,0.09706405,-2.993804,0.9738649,-1.301581
github/sibirrer/lenstronomy,-1.4198991,-0.41071174,-0.710268,0.48828524,-0.7327936,-0.11575688,0.6441081,3.7007935,-0.339224,-0.61412334,-0.2573274,-0.8287676,-3.2609906,1.9716249,0.0011992146,-1.817262,2.664044,-1.0651937,-3.1297476,0.45828682,-0.007969797,2.6079838,-2.3672843,2.0185697,-0.45693007,0.41888884,-1.7172029,-1.1884323,1.3367584,-1.6817479,-0.8732281,1.4136404,-0.9338319,-2.226647,-2.5551,-0.15316974,0.26206952,-1.3641901,-4.8826966,0.1720748,2.1940937,-0.15619028,4.3819203,-1.9357841,-1.6113157,-2.001134,1.0425075,-2.4903045,-1.7594327,-2.2112436
github/kuadrat/data_slicer,-2.1202965,-2.3248925,-2.6713605,-1.635212,0.57199216,-1.4549907,-0.293474,4.5633826,-1.6617242,0.62107325,2.1369328,0.7347676,0.7579946,2.9970539,4.1671133,-0.8010896,0.29020327,0.08836629,-0.30856553,-1.4659109,-2.5865726,2.472054,0.10858028,1.1834446,-2.2658272,-0.3396707,-0.37846956,-2.2748506,-0.0010721382,-0.54836804,-0.41888845,2.105476,0.05699923,2.2856781,-0.9870559,-1.8042978,-2.617853,-0.715042,-1.0780737,1.9397056,2.4406521,1.415304,2.2707884,-1.4874824,-0.33329612,-3.2605624,-2.441789,-2.014725,0.03411014,1.3428197
github/mazzalab/pyntacle,-0.98838574,-2.27099,0.20313805,0.1561699,-1.8399945,-1.8713484,0.30735955,-1.5405303,0.76514196,0.63186044,-3.667653,-0.76821446,-0.32805192,-0.14679423,-1.6389743,-3.2555742,-3.9810858,-1.106282,0.4063925,-1.3814676,1.3602031,-2.8310738,-1.9361206,1.3267863,-1.1027282,-1.1702853,1.0147493,-1.9620668,-0.22137156,-2.026497,1.8028228,3.0373912,-1.0917509,0.3709355,0.6784118,2.1793854,0.70051396,-1.478528,0.061483756,2.5259929,-1.1901283,2.5470748,0.38342112,-0.18185666,0.16250692,0.11017209,-0.4812824,-5.4504275,-1.22642,0.8588898
github/rodluger/starry_process,4.884423,-4.7497506,-2.604771,-1.8565422,-6.1185527,-0.7884733,1.8243802,1.4358802,2.513024,0.36205545,-1.641064,-5.7536273,0.58662236,-0.9825809,3.9231403,-0.24596739,-0.738407,-1.0291566,2.3636408,-0.97537756,0.22749458,5.4671135,-3.3137002,-1.0079453,-3.2082553,0.3376447,-4.1237006,-3.3799896,1.5996299,-1.6361516,-3.5685992,-3.1193829,0.65485597,1.1167973,-1.6714838,5.290693,-3.238325,4.5175033,-5.2903466,0.8498235,1.0107274,-3.8657615,6.022925,-1.8813072,-3.759871,-1.4501798,1.2520678,-1.5017666,3.5385985,1.0881311
github/research-software-directory/research-software-directory,-5.13484,-2.4461236,-2.649341,-1.9233645,-1.9489075,0.5501192,-1.442214,3.7633855,-2.5306215,-2.5566244,2.523071,3.855336,5.0032506,2.6537502,-4.025168,-3.7428932,2.4367836,0.692493,3.1820881,-1.2243218,-0.69316584,-4.7810764,0.09722873,-1.4693942,3.5068235,-7.5535345,0.39432845,-0.4830459,1.2482396,-1.1615523,3.7580981,0.011944368,-3.3964434,2.2773156,-4.909758,0.38390166,-6.11873,0.061007045,-2.1675801,1.3794695,0.053888097,1.8257797,2.679065,1.0394843,0.9623427,0.47116277,2.2935374,-1.1335875,-0.764185,-2.7418575
github/tudelft3d/3dfier,-5.3858166,-6.234938,-3.9761136,1.8344318,7.2820525,4.592795,3.8058639,2.7892685,-2.0517712,-1.3912904,-1.9260808,2.950151,4.7160826,-3.142072,0.57291013,-1.8021626,-2.9458451,2.1095245,-1.0639794,-0.45727938,-5.700584,1.33904,-8.789492,-7.7878604,1.3568119,0.9026526,-3.644269,-2.6566908,1.4724258,7.4098682,5.8263755,3.8252676,3.3141346,-0.651965,-1.1042252,-1.3529509,0.69308376,-3.465437,-1.6658617,-4.7548285,-7.380564,-0.6750541,1.0573905,-0.3758109,-4.085245,-0.54370826,2.636187,-1.6838644,2.4385426,2.390557
github/ouyang-lab/PRAS,-6.0879083,-0.9507524,-1.0006539,4.3232465,6.651501,-1.0428976,3.2586195,-1.0526594,1.2503291,0.7059869,0.22501956,2.4772973,-2.1354733,-5.80254,5.7654047,0.30997127,-1.3674676,-3.4860916,-2.4396124,2.4670084,7.1662316,1.0994711,2.3469884,-4.940167,3.0473022,-2.9494991,-1.1410049,-1.3436352,-3.1204221,-1.615983,4.0010624,3.951695,-2.8858087,3.2371533,0.48777145,1.7480044,-1.9384637,-0.2506482,-2.5739856,-0.68695146,3.5758696,-3.6563604,-0.16733463,-4.6633883,3.922047,2.1793556,-2.3031733,1.6107081,2.6385655,0.8548175
github/r-cas/caracas,3.8432531,1.6613019,0.76792663,1.8641424,-0.2546452,-3.4409847,-1.2533531,3.379134,-0.9200848,-2.134703,1.9439434,-1.6556001,-5.2114058,-1.6307923,1.8880626,2.0213082,0.37772495,0.5291178,1.2124918,-0.32126743,-2.5984306,1.8986489,-1.5477375,-3.0591838,-1.7048917,2.907053,-4.115379,-0.19820674,0.17090489,-0.5465325,0.53673816,0.40562186,0.80448747,1.8900493,-0.18822613,0.8900962,-0.05203886,0.34650806,-0.44147456,0.7154159,0.6367948,3.148807,-3.548039,-0.94170505,0.78070456,-0.025400123,-0.37697238,-2.8519325,1.2094381,3.1297824
github/brian-lau/MatlabAUC,0.2871201,0.38420996,-1.5598131,2.0496757,-2.0744178,2.7802007,3.3445032,-1.564319,1.4850122,-2.1385164,1.7417068,0.74242705,-0.27230474,1.1282498,4.897718,-1.7373891,-0.44452006,-1.6087271,-3.9539673,3.162096,0.15158057,4.3386,-1.7449485,-0.10292512,0.10920487,-0.0105573945,-1.2927523,-1.2115791,-0.046540704,0.8965861,3.1783125,0.56723905,-2.8728204,0.58008224,-0.91054016,2.4655235,1.0161489,-1.3668623,1.8744328,-0.143227,3.040674,-1.4059318,-0.32221818,-2.6926005,0.3598115,-1.0417191,1.7906446,-1.4053172,0.15999907,-1.3905574
github/mlpack/mlpack,-0.5889433,-3.8319154,0.86933875,4.303147,-0.8352766,-1.9338403,2.2514222,-3.1868975,-1.2177111,0.46760684,-3.6317208,-0.50968575,0.4124198,-1.0049442,2.4020138,-0.4171701,-1.4606197,-0.3706387,4.3096194,0.6188576,2.1442513,-0.4662855,0.35078448,0.28829792,-3.7767212,3.730772,-4.0158067,-4.4115605,1.4739809,-0.01026689,-1.6767884,0.21697523,2.4778814,-1.0088602,-2.75279,4.72151,1.8522938,-0.6789726,0.8328926,-1.5937147,-1.4230788,1.3835683,1.8453841,-1.554636,1.3480929,1.6596464,3.2899117,-2.8170424,-1.9737942,0.18062277
github/yaml2sbml-dev/yaml2sbml,0.8094489,0.7084623,2.9290414,1.3953525,1.1112906,-1.1845896,-0.5544308,4.4421473,-5.89555,-2.4236188,1.7690114,1.3106816,-0.654919,2.635441,-0.72023463,-1.4357007,-4.113234,-0.5014276,-0.49409,0.32126102,1.3324989,1.8211844,-3.559275,0.14892907,2.2448087,-0.24936616,0.93147326,-2.88945,0.026902309,-0.088897005,-0.24962391,-0.46372846,-2.706916,-0.24958937,1.5759501,-0.873664,0.17252418,-0.2607223,2.187861,0.677452,-2.1700578,0.17134812,-1.6762248,-2.2408955,0.3922379,1.0548611,-0.67557627,-0.21942833,0.5174,-0.57042533
github/qMRLab/qMRLab,1.4257389,0.0034478442,-2.1618662,-0.086554006,-2.285392,2.0190523,2.4723973,0.5300299,-0.9058857,-2.0523734,2.1600704,-0.4703701,2.506329,-0.8721649,2.5732665,1.566954,0.7578795,-0.9442418,-2.6316442,2.5024817,0.1682922,1.2306737,-4.220378,1.329288,0.2510732,1.1139367,-3.3681579,-2.2698603,-0.62601423,-0.27477714,2.5299263,0.110590145,-0.87668735,-3.2196317,0.31281593,0.25932524,-0.45862368,-1.0891861,-3.3587167,1.0523803,-0.2325695,-1.2821412,-0.09241568,0.80271167,-1.9930332,-3.0815043,0.45514482,-1.0630561,-0.30049676,2.3477075
github/Computational-NeuroGenetics/deMeta-beta,-1.1007007,4.5537314,-1.4273485,-2.3045995,1.274012,-0.52084583,2.2306209,2.9599917,2.0299737,2.9008608,0.44832966,3.967002,-2.9939277,-7.198144,4.579254,-0.20057572,-0.63778985,-0.05161,-2.1051245,0.4863391,1.9304582,-0.8392724,-0.1383738,-1.9339457,1.7921244,-0.8341545,-2.997398,2.4404805,0.80427474,-0.59586865,1.4331028,-0.4902061,-4.972696,-1.3577752,-2.430648,5.424706,-0.6744773,-1.5064226,-3.9745004,-0.70872766,1.5588675,-3.429993,0.94033825,-3.2875922,-0.25267306,0.5386402,-3.1111417,-5.187313,-0.5344657,-1.7543124
github/jianghuaijie/scLRTC,2.0149848,2.1647975,-0.86116475,-0.33271092,-0.86051744,1.3334877,-0.87515765,0.4600748,0.6705698,0.9741645,0.26516563,-1.778761,-1.0676819,-1.8051527,4.650922,1.43024,-3.143976,-1.4796596,-1.4692818,-0.9185379,1.6605707,-0.4847336,-0.4430543,0.4199614,0.29152605,1.3857403,-1.5651222,-3.2312324,-1.50474,-1.2039208,-0.89707845,-1.1268814,0.91207176,0.8124721,-1.052607,-0.4804357,0.3087251,0.56122375,-2.316871,-0.57731783,1.2009132,-2.0242538,-0.0481978,-1.71255,-2.1848383,2.2626352,0.9648037,-2.7517848,0.8760565,3.237107
github/bhi-kimlab/StressGenePred,0.19345045,0.7361767,0.4805332,0.2629431,1.9964069,1.611496,1.3208538,1.8125213,1.403349,-0.33416128,-1.5238032,-0.5968292,-0.063033774,-5.3560147,1.813252,0.4773738,-3.2910318,-0.57442117,-1.911275,0.5038998,3.4806361,0.23295508,0.75833964,1.8682148,0.8653925,-0.5285903,0.41969836,-1.8552012,-2.1428497,-1.9406359,1.9245228,0.49789736,1.0726283,1.0890992,-1.2280126,-0.00046362035,0.9325575,-1.0536201,0.11252254,-0.16512491,0.0632151,-3.0042038,-0.5677302,-2.1939769,-0.04643135,2.4612803,0.46471643,-3.5493846,-3.113005,-0.58852744
github/compomics/DeepLC,-5.1924205,-0.012909569,1.9244411,2.3980386,1.9025015,2.026473,-1.7999362,2.325752,-1.589675,0.69458216,-2.3098245,0.17092675,-0.78946227,-2.732777,3.0689144,-1.5359249,-2.7246234,-2.0194428,2.0013678,1.191796,2.2330413,-3.1866312,-2.8279822,1.3185415,-0.07580693,-0.46316046,-0.9729496,-0.376153,2.5869153,-0.73630285,2.8515935,2.2400796,0.07355879,-1.7959383,2.306709,0.367934,-0.27385148,-1.169693,2.1675148,1.2979807,-1.7512037,-2.23906,1.7519016,1.0618695,0.98814225,0.2708766,-1.4379733,-2.5558207,-0.96147954,0.3476683
github/compomics/COSS,-3.828203,-2.557884,-0.31294703,2.0192976,0.2438768,0.8219205,1.9965777,3.8682818,0.83463097,1.6750404,2.2714696,-1.5865889,3.041168,-6.704979,0.73262584,-2.7544866,0.071154624,-1.877383,-0.37427348,-1.727873,1.1699547,-0.7241954,0.43670598,0.7917981,0.8457582,-2.5289207,-1.7254792,-3.7457004,-2.617143,3.060006,1.5902756,8.3073015,0.063473865,1.5819192,2.8906734,-2.153237,-3.5947127,-0.7188365,-1.4782586,2.1587632,-4.3549695,-2.7704945,-1.0640512,-0.40820047,2.8577166,1.106061,-1.890203,-1.4646114,-0.03198931,1.5245582
github/compomics/xilmass,-3.3180854,-0.44195956,0.12810552,0.913706,-0.4644833,-0.13725722,-0.26031226,1.275458,-1.6809958,2.5444798,-0.4224311,0.9862564,-1.2339089,-3.5860128,1.1806142,-2.0629125,-0.9969724,-0.5087557,0.01880959,1.0421606,0.47247612,-1.7845783,-0.8417463,1.4218256,1.0482209,-2.008477,1.3330374,-1.45838,-0.57558244,0.99654305,-0.5287152,5.5817423,-1.4295235,3.059153,1.786951,0.08118993,-2.121386,-1.8340404,-2.44928,1.7607871,-0.6870883,0.62191814,-0.09858945,-1.0197072,0.40839234,1.1276107,0.15447216,-1.2087952,2.0088277,-0.7690888
github/KiranLDA/PAMLr,-2.376994,-1.7099079,-4.349873,2.1524856,1.2992077,4.8339496,-0.99627,-0.048967484,0.8256889,-1.9402041,-1.2940012,-0.8712493,-1.4376943,2.3026567,4.8699756,0.117713064,-4.4978304,-1.5555325,0.6605768,2.3743923,-1.8744072,1.4118259,-2.6832843,1.3620068,-3.3006074,-4.973051,-0.95711845,-1.4997867,-1.9116699,2.1012945,0.40951532,0.58573127,-0.16897771,3.3124418,-0.22600943,-0.22705571,-3.429327,-1.1111699,0.7549593,-5.483577,0.49405223,1.1756911,-1.8586154,-0.7653135,-0.3215629,-2.5599296,-1.5690185,-3.7708733,3.694188,-3.0558257
github/BartoszBartmanski/StoSpa2,-1.131941,-3.0419135,1.3034859,-0.11375735,-3.2675507,-3.2117467,2.56985,3.8688812,-0.81074184,0.42745817,-4.020942,2.3765645,3.7533906,-3.1822767,6.3426437,1.4791319,-2.0406253,0.653761,3.022022,1.7995875,-0.44428027,7.975992,-9.340474,2.0835712,-1.0216448,2.265533,-1.1800268,1.8297307,1.6317494,-1.638205,-0.800143,5.287564,-1.7253617,-2.6660538,4.564125,4.414058,-1.5898197,0.21583416,2.2763703,-3.8852413,1.051288,-0.5079501,-1.0461571,-4.5712004,-1.6232105,-3.4907691,5.1191273,2.2201107,1.3684216,-2.357006
github/wangchao-malab/DeepAc4C,-0.9125651,-0.30635384,-0.35607982,0.35941613,-0.60040385,0.6759821,0.44356847,0.56039095,-0.16414687,-0.785907,-2.6835127,0.53880477,-0.28215677,-0.7847037,-0.444163,-0.5402,0.054248653,-0.5522171,-0.046333507,1.0354229,2.7108002,-1.7838918,-2.0418205,2.0035982,0.38158008,-0.43143776,-0.9778903,-1.32039,-1.1244042,-1.2750602,1.0489246,-0.084797755,-1.7118486,2.646334,-0.0112681035,0.42914742,0.1320724,-0.9140304,0.45962977,0.008133283,-0.42978442,-1.5731155,-0.7741601,-0.6589153,0.29763463,0.85224223,0.34850645,-0.48574132,-0.27195916,-0.27653438
github/sorenwacker/ProteomicsQC,-4.55996,-0.07807484,-3.999384,-2.572482,-0.049784545,2.161122,0.9918802,0.9125794,-5.9442697,-0.3544966,4.7617946,-2.237612,-1.9997758,-4.7991652,1.693236,-1.9294107,2.1794794,1.7873752,-0.25085625,-1.7426322,2.210928,-5.9050155,0.87048525,3.849883,3.573285,-7.4767666,-2.37545,3.1016312,-0.529002,-1.0489811,3.0571747,4.2699223,-1.924559,0.95156807,0.3872733,0.9700151,-4.4029026,-1.9959681,-2.520642,3.3377836,0.07523727,-6.078273,1.8583074,-0.41534778,-3.2435963,-1.7815112,-2.294059,0.83260536,-1.0800602,0.8382443
github/richteague/disksurf,2.4300907,-2.7597663,-0.7660427,1.1776756,0.81391174,0.3282569,-0.8144141,2.9547687,0.17865227,1.3990033,-0.15312028,1.0924578,0.2763661,1.5170832,5.5540147,0.10321619,3.2314596,2.5238285,-0.41984186,1.7909023,-1.5874751,3.1114364,-3.005163,1.8321713,3.764399,1.265151,-3.1963005,-4.2767897,-4.696234,-0.8549881,-1.9275758,2.0327213,-0.001810191,-0.7112191,0.54965407,-0.49370942,-2.604738,1.2227437,-3.2829592,-2.931979,1.5855904,1.6377861,0.15470226,-1.5712218,-2.4490418,0.26321426,-2.7503812,0.33982533,0.8242707,-1.6136681
github/InsightSoftwareConsortium/ITK,3.1139176,-5.0299196,-2.9160383,-3.8164878,1.6742547,2.0355282,2.7426176,-1.438289,0.10826913,-0.9236114,1.7995665,-4.0409107,3.861281,2.6088345,-0.24094415,0.48220283,2.3397324,4.546901,-0.8948123,0.44537532,3.0320055,-1.9443626,-3.1032665,0.26853862,-1.7673665,1.1240251,-5.6445637,-2.856807,1.864007,1.0337701,1.0104984,2.8871748,5.4721947,-0.9103779,-4.0435557,4.2952976,-1.4290761,-1.9591132,-5.138407,1.8527726,-3.118703,2.407702,4.1818376,2.8498836,-1.2212629,0.043425117,2.454775,-3.4470928,-1.3877326,-1.6792057
github/saeyslab/PeacoQC,-0.70692307,0.12362623,-0.74323094,0.24767326,0.28927127,0.66788715,0.11477672,0.23782215,0.06813316,0.15138125,0.18980339,-0.3177053,-1.3128734,-0.65123254,0.8293339,-0.6468683,-1.3698685,1.0463802,-1.1523,0.9647152,0.1750359,0.67174083,-0.6302451,-0.073579825,0.064814046,-0.57809794,-0.6741713,-1.1446253,-1.1443349,-0.00016674935,1.2296214,-0.17515028,-0.0950643,0.5241647,-1.0775449,0.86980975,0.40861547,-1.5102475,-0.47746098,-0.26031098,-0.24090746,-0.3880672,1.2125597,-1.0777376,-0.14012487,-0.6096501,0.25259086,-1.133981,0.56448644,0.44096336
github/saeyslab/nichenetr,0.7620987,1.0091336,2.4563713,2.4822903,4.4601345,-4.0040355,-8.333479,-3.2946887,-2.370512,-2.7834907,-4.158717,-0.83645517,-6.3784313,-2.7709546,3.3762782,-0.069255725,-3.1715505,-5.0395308,-1.4053596,3.047193,-2.2184706,1.8928492,4.606641,-4.997087,2.1408062,-7.189126,1.0214617,-0.6378071,-0.16856436,0.42276922,-3.0837648,-2.408755,-5.05871,11.524454,-12.735087,2.21116,7.091355,-1.775091,-3.7315857,-7.0248117,9.454592,-4.548298,-2.368394,-8.282415,1.2824205,0.16884656,4.870476,2.6746566,2.3284938,1.5560728
github/saeyslab/CytoNorm_Figures,0.36012062,0.25964004,-0.28169772,-0.02137803,-0.21855079,0.25386202,0.07911325,0.1743414,-0.20074597,0.05108771,0.14673784,0.18372615,0.0133113,-0.42789638,0.23121047,-0.24459523,-0.15716788,0.41588458,-0.31896454,-0.028293869,0.51150084,-0.14863211,-0.3595568,0.1895452,-0.19999458,0.04319216,-0.28043637,-0.34598002,-0.45850047,-0.4350829,0.28877398,-0.1025422,-0.66889274,0.47213262,-0.104093134,0.40155122,-0.19964601,-0.34701368,-0.10920036,-0.022295691,-0.076687105,0.124440685,-0.023355786,-0.25728005,-0.13987659,-0.19359699,0.22683267,-0.02993133,0.1953533,0.063805245
github/ZJUFanLab/scTITANS,0.08588641,-0.6318289,-1.3696331,-0.01996245,5.1192636,-3.204956,0.0142751075,3.773593,4.6941357,-1.3595814,0.9330649,-1.5086075,0.69395924,-0.90729797,2.438461,3.47555,-4.2011633,-0.65098274,1.551023,-0.694847,2.0913439,-3.9950986,2.5816097,-1.1700145,-0.26510534,-1.0528183,1.7787863,-3.4163878,-2.4929256,-2.7378016,1.3950931,-1.4112035,-0.8390696,0.94772565,-2.3352916,-0.7715443,2.3161445,-0.82806134,-3.9729736,0.06722532,2.852112,-1.6779162,-1.1596909,-4.681835,1.2865108,1.6559911,-0.3970992,-0.73682034,1.4711009,2.0463078
github/SunilAnandatheertha/PXO,2.4552755,-0.7206291,-1.0130726,-0.6623704,-0.47238204,-0.34115738,-1.0879889,1.9911773,-2.0418794,0.3657516,-0.053457018,1.5679823,1.189421,1.583105,0.5206272,-1.3092278,0.75606483,0.12852627,1.2274921,1.3187772,-1.4313704,0.5715588,-1.4843343,0.9357063,-1.1571678,0.75107324,-3.3637385,-0.6897757,0.8834578,-2.904932,3.2563918,1.8324249,0.69069815,0.5599509,2.3749506,0.9882032,1.2819463,0.549965,-1.9339533,2.626039,0.026893947,3.7024279,0.3360132,0.62599653,-2.8331788,-2.4137588,2.8892097,-0.79568714,3.1212273,0.14203832
github/zarr-developers/zarr-python,-0.943512,-2.1375668,-1.4934921,-0.9598445,-1.246688,0.5471944,-0.8080202,0.6584402,-0.7081186,0.36245596,-0.057833567,-0.6830548,1.2762868,0.7345836,-1.3550206,-1.8628358,-0.3166348,0.68711954,1.3791212,-1.5057913,1.7701367,1.7087404,-1.484248,1.3239173,0.276665,2.2282333,-4.1626167,-0.8593986,-0.24034,-0.37874603,0.8510179,-0.1828315,-0.25746942,1.9312265,1.6126524,1.082508,0.7412607,-0.3992179,-0.045947805,-0.119866125,-0.04000983,-0.91025954,1.4896965,-3.1678112,-0.02763153,-1.8882585,-0.62654793,-1.9616044,0.40876597,0.99808306
github/lrnv/cort,0.17454037,2.490299,1.093387,2.4930248,-3.0277805,0.7049873,2.6809406,1.788111,2.1358917,1.7565413,0.5755238,-0.97616106,-3.9307508,0.5465869,1.747907,-1.0286596,1.3346272,0.19537906,-0.43494108,2.3213408,-0.8159612,1.5840678,-2.83954,-0.8572932,-1.7461761,1.0032953,-2.934912,-1.9097637,2.5130641,2.932989,0.20064493,-0.10607573,0.08922954,1.999118,-0.5444633,3.024307,2.5643578,-2.2615573,1.1120337,-1.3937249,1.1608878,0.07277869,-3.1418061,-1.6401706,-1.5391476,0.27235115,2.3696644,-2.8727021,-3.2920246,0.82617885
github/lydialucchesi/Vizumap,-1.5841618,0.6730536,-3.3389006,0.95843375,3.5590935,4.045324,1.8944622,-1.78676,-2.3538506,0.437428,2.2746696,0.86926603,-2.4865031,5.0288825,2.4713864,-0.771229,1.4514928,0.4814611,-3.9627802,6.678001,-2.8014762,0.96271574,-1.8576066,-0.96578074,-0.71858925,-1.3279742,-5.6679373,-0.16016711,-2.0366795,0.35314238,2.597342,-0.19429596,-0.5524015,-2.3305209,-5.4371276,3.1547258,2.1942353,-4.066045,0.08437396,-6.348931,0.79042906,2.158337,-1.0037743,-4.4426517,-7.9559436,1.850662,1.4500773,-1.8353274,-0.7590922,-4.6946707
github/reproducible-biomedical-modeling/Biosimulations,2.3847885,-0.5426445,1.6981727,-3.0109475,1.0437642,2.2806792,-0.3810545,7.0438943,-3.2529283,3.7456133,3.6507993,7.0126657,3.1427417,0.22178152,-3.9514315,-6.4389973,0.88856834,-1.1167964,0.21741875,2.0186083,1.4577326,-8.099983,1.2314368,4.260078,2.9809167,-1.791296,1.8127358,-1.1513566,-1.0681468,-3.1015737,0.5652355,-0.8112731,4.9855003,0.84224534,2.0966957,3.3497956,-0.40672064,-3.71658,13.944693,0.9378364,-7.7869368,-2.780809,4.514687,-6.2087846,-8.620514,-0.8584572,8.66008,-1.3206282,1.121118,-1.6737717
github/telatin/qax,-0.5438742,-0.18856354,-6.505979,-1.0780207,2.7160463,-3.7429044,0.7854114,5.942675,0.14152154,0.3439124,3.6330118,-4.67852,1.4666145,-2.3848,-3.6385674,0.28845575,-5.650297,-0.2506657,-3.1669762,-2.1750784,4.2934346,-1.6808492,-2.8808546,-0.38306782,-1.2838403,-3.0458646,3.2047617,-3.2619445,-2.5448682,1.1238844,0.008882146,6.579256,0.40252775,7.3784733,-1.5594375,7.596839,-1.9096037,-2.6087153,1.7333755,0.9926074,3.8462372,-0.3567153,1.3716877,2.200309,4.193044,6.5321555,-8.424538,1.8457819,3.2047415,-2.5745354
github/ConorMacBride/mcalf,0.15567212,-1.4641219,0.87969756,0.849906,0.7474747,1.2157613,0.23156306,3.2537189,-0.73934406,0.39243507,-3.4521945,2.226784,-3.251958,1.5031841,1.4978002,-2.3705652,1.4398376,-1.8298018,-2.2848127,1.0057625,-0.20019715,-0.014136661,-2.8600755,4.343971,1.1278766,-1.160179,-5.2291217,-5.956796,-0.6738906,-1.7713054,-1.8309716,3.6364982,-1.5476644,-3.2412705,-0.17362212,-2.1384847,-0.74913704,-2.3131614,-4.151762,-1.995862,-2.056252,0.12629192,0.42140362,-3.214252,-2.6216373,-2.5474255,-2.3811848,-0.6510875,1.3745462,-2.459837
github/NCIP/visda,0.26781493,-0.5475642,-0.40290782,0.6020193,0.4099099,0.45613372,-0.403822,0.9486647,-0.4108679,0.7456872,-0.30214518,0.67380804,-0.46658635,-0.37784043,0.0066222325,-0.6228948,-0.24469215,-0.52907676,0.038962245,0.49515185,0.5716131,-0.5173973,-0.90972096,0.30309707,-0.14626774,0.4418793,-1.2741165,-0.45949963,-0.7257732,-0.7054035,0.9717243,0.6817389,-1.261291,1.440367,-0.85958135,0.40606245,0.5664127,-0.51086617,0.06754491,0.4700605,-0.84202003,0.35356635,-0.29324067,-1.0298402,0.20734584,-0.44678268,0.31349203,-0.39582887,0.2336986,0.7870076
github/SCM-NV/qmflows-namd,-0.6321398,-2.7342942,1.9316106,1.9910129,-0.036793426,-1.3527629,-4.2233386,3.3766925,-1.4350175,0.28605652,0.31614208,2.852809,-0.27761424,-3.9654179,-1.8719211,-2.7589676,0.9418829,0.6150964,-0.20753367,-1.0897326,0.0796171,-2.0862179,-1.4072216,-0.29405972,1.0384321,2.286053,-2.1645916,-0.8239794,1.5870597,-1.9460952,1.9736103,-0.94254,1.3256214,-1.0765306,3.3515992,-0.21345079,-3.1631348,-1.148797,-0.9205571,2.5719156,1.1279184,3.7037902,3.3111343,-1.8734344,-0.458453,-0.6366684,0.13376668,-1.5949581,-3.5027452,1.1775409
github/SCM-NV/qmflows,0.70764506,-1.8134106,1.5183259,2.0271647,-1.8220286,-0.008505764,-5.141618,1.548146,-2.3752027,2.0483568,1.6238903,1.8097141,-1.8111672,-1.5769856,-1.370991,0.7143782,-2.010797,-0.39582467,-1.8552729,-2.3640518,2.5840943,-2.8066823,-0.8632614,-1.5578355,0.023400502,0.70309836,1.3575109,-2.8249037,-1.1208174,1.0694237,1.2954705,-0.225272,1.1723324,-0.41118303,0.7725226,-1.2346134,0.29342136,-0.61739135,-1.7616291,0.48317406,0.28588137,1.7746959,0.94327927,-2.5871186,-1.9116603,-0.7278465,0.4560464,-0.4714603,-1.813852,1.2371594
github/SCM-NV/pyZacros,0.9708666,0.006988642,1.355117,-0.025833989,2.3452995,-1.6972386,-1.7828157,5.599512,-1.1072731,-0.8159767,-1.8428072,2.5030386,-0.19111139,-4.052458,0.56298643,-1.3938397,-1.3263229,-0.4495088,-1.4926292,-0.6583596,0.31730577,4.3066926,-1.7239032,-0.4644064,-0.55555445,0.494267,0.57645965,-0.34625432,1.1945789,-2.3594255,2.2506337,0.31462798,-1.3147167,-0.66434497,2.1888583,0.7240504,0.09279797,-1.4621843,-3.1767144,-1.587532,1.6331688,3.4559097,1.0917588,-0.080658674,1.7977424,-0.37478316,2.3067906,2.7500768,1.3269562,0.55744845
github/Merck/BioPhi,-0.1313467,0.19789262,0.19290575,1.2203918,0.19576204,-0.5486091,0.7792222,0.37149426,-3.151301,-0.87808275,-1.6721598,0.66005665,-0.9717185,-1.5712699,1.1048144,-1.7719883,-0.21584113,-0.7086081,1.7458508,1.2907215,1.2434524,-2.8617754,0.11670966,3.6243114,1.6461425,-2.3324797,-0.6771012,-0.3531255,-2.1652362,-2.5472813,4.026755,-0.33761412,0.04256943,4.327763,0.05899478,0.4212152,0.8897666,1.5018258,-0.69302636,1.1065687,3.4105072,-0.7227248,0.13985047,-0.32974115,1.4176257,0.7360268,1.3901272,0.925526,0.39335,-0.21257995
github/Sydney-Informatics-Hub/OmixLitMiner,1.231136,3.5859532,-3.5616264,-1.3777266,2.6432476,-1.5802983,-2.161458,2.4563863,1.1073864,1.6760218,-0.4232747,-0.0052124206,-0.1304588,-1.030559,-1.5434113,-0.5083704,-4.8682227,1.613077,-0.14857596,4.498489,1.0473591,-0.115970545,-0.15683436,-1.7893991,-0.94369495,-0.38796607,-1.9564602,-2.1148326,-4.152221,-1.3470238,-2.3147182,0.51702935,-0.36950225,3.4972231,2.6506746,-0.31892782,0.05253822,0.80144006,-1.6120356,-2.9352987,0.7316048,0.50861406,-1.9482101,-2.5433285,0.58782345,2.1246207,0.94339204,0.6673519,3.9534879,0.999421
github/stemangiola/tidyHeatmap,0.18923342,1.0405102,-3.88438,1.129797,1.8340067,-1.1273812,-0.24576125,4.3356276,1.7035955,1.5978272,2.272768,2.5743835,-5.9247737,0.5576358,-2.9404328,1.2644994,-0.97977394,0.60962886,-1.2180178,1.1483274,-2.0047207,3.2555933,2.0103164,-3.2879884,-0.42347682,-0.12161798,-0.48336926,-0.0011115439,2.0248091,-2.4673135,0.19416927,0.009420681,1.4321222,2.8895814,-2.4615169,-1.9914466,2.1033437,-3.8338661,1.6919075,-1.5018116,3.980404,-2.5673542,-0.439857,-3.0338917,-2.6154568,-3.8647368,0.53693455,-2.6910248,4.093458,6.5609365
