,0,1,2,3,4,5,6,7,8,9,10,11,12,13,14,15,16,17,18,19,20,21,22,23,24,25,26,27,28,29,30,31,32,33,34,35,36,37,38,39,40,41,42,43,44,45,46,47,48,49
gitlab/chiemotono/mdcontactcom,0.55063343,1.0912669,-4.074059,-2.6326199,-3.7281377,-5.2883577,1.6129509,2.7314994,-2.2935543,0.31373936,0.9045879,2.633045,-1.144323,-2.1369207,0.67724776,3.0147674,-0.7108475,3.56586,-1.1201825,4.403396,-3.970513,3.1113725,-1.4642794,-2.5266945,-2.6098106,-2.163245,-0.4157522,-2.2896547,-3.2789,-4.539277,3.073843,5.898262,-4.930475,0.8297337,-1.1413323,1.5328429,-5.47848,-0.29201186,-4.018025,3.744729,7.3381124,0.83019304,2.708733,-3.7765715,-2.261051,-5.810495,-8.349891,-2.5323882,2.4451835,1.5292351
gitlab/pyFBS/pyFBS,1.8722943,-0.28664535,-0.6904148,-3.102009,-0.2888346,-3.0070684,-0.30734536,2.5426176,0.9697719,0.49278754,0.47000808,1.0737127,0.9241654,3.667966,2.6219375,3.7043424,1.6412565,-1.6161263,2.7734482,2.2472997,-0.5361103,-4.157193,-2.6207476,2.3727665,1.9154692,0.10409656,1.0617125,-3.4379904,-2.5032923,1.9038303,1.0673532,1.7025038,0.57590455,2.3497148,0.8956668,0.84984106,-2.7624185,-2.1447914,0.26164165,2.6665907,2.452516,-0.095051825,0.83101964,-0.21819688,-2.2067199,-3.3460882,1.8147998,-4.690069,-2.543117,-2.267598
gitlab/cosmograil/PyCS3,-1.6196018,1.0719868,-2.7649784,4.2323656,3.2505047,-1.1405145,2.5905821,2.1413884,3.1819408,-3.6423497,3.1706595,4.5896387,-2.0084872,-3.2983623,2.1786973,-0.093204334,-1.22576,1.5430987,1.0110077,-1.2339685,-0.8022406,-0.7617941,-0.457104,4.423624,-0.6327087,-0.9005198,-5.344259,-3.141884,-0.63738036,2.1849566,3.067578,1.3194953,1.9008199,0.31344023,0.12382628,2.5920968,2.7215252,-2.1071336,-0.069085956,0.58667,0.75305146,-7.08049,0.5386367,-5.5184855,-1.5466118,2.3816233,-0.74477816,-3.7272189,-5.888813,-1.9721411
gitlab/emd-dev/emd,-1.5428042,-0.18954167,-0.37436867,1.5281659,-2.210618,-1.8709701,-1.122898,-0.07719199,-0.8962338,-0.74608296,1.6184874,4.5716696,-1.8629245,4.4529457,-1.2218266,0.9093258,0.71606344,0.80834496,-2.4455078,1.3687205,4.070149,1.6025869,-0.33885,3.5169957,0.47456843,3.102356,-1.0432887,-3.4404278,-0.62265337,3.8071318,0.54298216,2.4266517,-0.24073778,-0.72167015,0.7669851,0.3430323,0.29428396,-2.0775993,-2.6668186,-0.6321674,1.2034851,0.8689709,0.054478914,-1.9553152,0.6965888,-0.99250275,1.8440897,-4.7809763,-4.1604795,0.120462485
gitlab/cracklet/cracklet,4.4818277,0.011828914,1.735877,-2.207434,-3.6564124,-4.5642214,0.761757,-0.93718565,-1.8385247,0.20645332,2.2861586,0.9200762,1.7496575,0.10410954,1.8942065,-1.3715459,-1.3595495,-2.3789163,0.45029566,-2.3903196,-2.3478289,-0.37892994,-3.2148364,2.4523418,-1.0652498,2.2626288,2.2370164,-3.2422717,0.2121889,-0.790285,1.6938827,3.4474378,2.240351,5.221649,0.23725301,-1.0981299,-4.1535254,-6.3700314,-1.8641008,-0.23037378,3.172333,0.7091851,3.0989237,-1.8940125,-2.918662,-0.6327912,4.275568,-1.5491177,-0.9840369,-6.302408
gitlab/libreumg/dataquier,0.08065865,0.5761489,1.5916232,1.7365124,-2.3868308,0.69680935,-0.6347855,1.5399297,0.9039719,3.5663877,0.14872754,0.45132142,-1.8931285,-0.030339899,-1.4752498,0.8063773,0.98113793,-0.67183757,-2.4080637,1.5082847,-0.8984485,-0.41587093,-0.32220528,-0.4675462,1.0137454,-1.5655437,-0.45433426,-0.48124263,-1.0192266,-1.2217178,0.00818275,-2.9644945,1.4829373,0.10547939,0.113725804,4.8196135,4.746122,1.0114317,0.788765,1.869003,-1.0447454,1.0150288,-2.2297733,-0.75273496,1.8283986,-2.0309396,-1.3896723,-0.5425467,0.44928467,0.5710654
gitlab/metafundev/metafun,0.05943746,0.64463395,-1.0631957,-0.42945987,-0.7665766,-0.7351963,-0.5096732,1.0934496,-0.5953986,-0.65083396,1.0700738,0.20799588,0.7578421,-0.43852693,-1.2178218,1.1747627,0.8596038,0.09680133,-0.9788941,2.5306382,0.21075565,-1.2703825,0.026857434,0.19798537,-0.019115228,0.011065505,0.8081108,-0.8120741,0.46865574,0.41540062,1.8431631,0.85833323,0.89693165,2.7356513,0.1586503,0.52519345,-0.67390615,-0.15119712,-0.2784041,-1.1201527,1.3680254,0.55937034,0.5692826,-1.3137542,-0.058412276,-0.09074514,0.3075229,0.003535548,0.15316178,0.8583906
gitlab/ztzou/phydl,1.2744292,2.4332008,0.00532284,1.4156845,0.40901867,-0.2922173,-1.4021518,1.3591079,1.3093249,-2.987198,-0.7374643,2.081567,0.5443817,-0.43139833,0.9295542,-0.47893658,-2.3447156,4.3857813,-0.44732562,0.058827434,1.3429232,-0.23853931,0.7134233,-0.27544186,-0.9857957,1.9345467,-0.57572865,-0.78051543,-0.69987696,-1.8711833,2.9933453,1.4021316,-1.1468952,1.2672853,0.28316683,2.427006,1.814345,-1.97661,-0.9380656,-2.2734084,2.6303906,-1.8745048,-1.620696,-1.5193195,0.6654403,-2.232032,-0.06627151,-1.7881099,-0.5123547,1.4484732
gitlab/BioimageInformaticsGroup/openphi,-3.7818928,-2.5360768,3.1041324,-1.876745,-1.1169902,-2.2944338,4.655189,1.3829325,-1.3820888,0.7855543,-0.57051194,0.29654077,-0.57826245,0.038628176,-4.772255,-1.5604331,0.9235598,1.7524184,0.20135446,-0.71638066,0.8109137,-4.883444,-4.111782,-0.69727284,-0.9312509,-0.64918876,-2.8003507,-5.6301246,-2.1132452,1.5765936,-1.4532561,0.30026478,-3.05939,2.8512619,1.3487766,0.5854818,0.250088,-0.91271585,0.95392865,-3.0386674,-1.1089195,-4.776958,-0.8746351,-3.3644817,-0.15461294,-0.5377096,2.7878425,0.9957483,-1.595296,-1.0479704
gitlab/ffaucher/hawen,3.4206164,3.9146316,1.1904484,-0.7950329,-2.579881,-6.6292005,3.7255661,4.7977905,0.97396123,3.2601101,2.234406,3.5661373,2.5177028,2.9386573,-2.2164137,-3.0013096,2.754253,2.4651673,1.3823924,-6.0850353,-0.64148617,-2.04212,-4.1270814,0.34725004,-3.8417683,-0.014584956,-3.1644545,-2.7718666,-5.213811,0.611958,-0.006010977,1.8530885,-1.0938178,3.143155,-4.725365,0.36470097,-4.7941966,-2.8319092,-0.60651976,-1.541595,-0.3076328,1.0384921,6.8581448,-1.4906888,-1.6008216,-0.27250406,2.1363301,0.20585464,-1.1937344,-4.9436765
gitlab/gims-developers/gims,3.9963706,2.2394013,0.24815384,-1.696915,-1.1854134,-0.6242126,-1.1932751,6.0366488,-0.608119,-0.72034633,3.4703498,2.7014222,0.9237772,1.3713765,0.7411164,0.6495462,1.5874851,-1.9265473,-1.8364546,2.0814214,1.1972748,-2.0728376,-1.0521964,-3.6770992,-1.0970627,-2.4576075,-0.1058165,-3.2566626,-0.353686,-2.0520656,1.3418407,0.7091349,0.5158065,4.8823624,2.7006164,-1.9515792,-4.530278,1.6228434,0.1603499,2.7868283,1.2480602,1.967721,0.38182622,-2.000289,2.1837425,1.1946183,2.775513,3.8691034,1.1726956,-0.65811366
gitlab/vibes-developers/vibes,6.066754,2.390394,-3.788352,0.07838219,0.8188404,-5.5330024,-4.3603563,5.755176,-6.3571286,1.6710796,-2.7316906,4.6525145,-0.04644717,1.6231911,3.6029644,4.948236,-3.1552446,0.2642368,-3.3590882,-1.3730717,0.46492577,0.63333446,0.1858775,0.36190724,-3.4546373,-1.7623112,-1.569015,-5.576291,5.610153,-2.5435808,4.37997,-0.8741296,-0.5496928,-2.3733547,-5.8242993,-0.32926163,-6.505688,-3.685312,-0.20782822,1.1820787,1.5614448,1.4833629,4.629633,-5.7406373,-3.9719741,5.52918,-0.53376645,3.8551784,-0.84842914,-2.3595536
gitlab/project-dare/dare-platform,-1.2221471,2.02899,-1.8487433,-2.6385438,-4.199958,1.9964044,-1.691319,7.571687,-3.7602131,-6.434513,1.5177082,-4.6071434,3.8711581,3.9359868,-1.9768288,-0.7500983,-1.2774713,2.1829119,3.2716904,-1.6063007,2.9081352,-6.0588527,-2.1253145,0.3431961,-0.26800412,-3.8211129,1.0275856,-1.6174388,1.118613,1.3551449,3.0480235,-3.3949258,0.44325513,1.757428,4.8206234,-4.663091,-4.1110616,0.55785656,-0.57913196,0.5773934,-4.2635536,1.1741676,-0.6491929,-3.9806595,2.836725,0.7634259,0.8395708,1.4748656,1.2315105,-2.5858514
gitlab/magnumpi/magnumpi,2.0110915,1.4923579,-2.863405,-4.1059694,0.19884732,0.21904343,0.18742894,0.5109426,-3.4603424,-3.3681483,3.2626665,-1.6758605,1.5349917,-0.11183582,-1.3925511,-0.28368986,2.1961448,0.43949392,-0.41183096,1.9399031,-1.9853449,-2.7443933,-0.7055374,-0.39413387,-3.197781,-2.4944777,3.340631,-2.4715264,-0.8244097,-2.3400416,2.734011,4.843244,1.1298957,3.3396688,2.6016703,-0.33308908,-2.334594,0.18973601,0.20618285,2.3181272,1.1149304,1.3233769,2.3293283,-2.3187711,-1.8837044,3.0015597,3.265641,1.0341886,1.7556063,-1.5308601
gitlab/ampere2/metalwalls,1.3134446,4.9635158,-1.5258669,-0.9445743,-1.8968711,-1.3980082,-1.5532086,3.657383,-2.4390223,-2.8279686,1.612266,3.2939157,1.2804815,1.9988935,0.44943663,0.53699297,0.3573761,2.4257371,-2.0973542,-4.725748,0.8845683,-0.35879338,-1.6867228,2.891948,-2.2878044,0.34052578,1.8469644,-1.8454766,-0.83215463,-2.543558,0.06925071,1.3707962,1.1950669,-0.5812756,-2.636537,2.073116,-2.6282814,-3.5613856,-0.7944847,-1.9142786,4.645247,-0.31111702,1.8585548,0.7562439,2.54974,-1.7946014,1.8921765,-1.2294474,0.7289786,-0.929597
gitlab/remram44/taguette,-3.0354505,-0.6089625,-2.1259432,0.0008616002,-1.8090603,-1.2792625,0.38466588,-0.5041073,-7.3121314,-4.2650094,3.7123165,-3.1751723,0.46524292,1.060782,0.5474993,2.8312137,-0.21439417,-3.2063208,-0.20821477,7.5818334,4.6560674,-1.5098783,-0.21924582,0.16726406,0.85325265,-5.248563,1.2453362,4.0683756,0.74622285,-2.9351192,0.11149664,0.47284144,2.5678926,1.0098451,-0.1890971,4.453128,-2.5349605,7.4229136,2.1478202,-3.0929823,-3.6439648,-0.70620626,-0.84068805,-2.3910882,-2.2581127,-3.2859251,1.5026721,-1.8525369,-2.4795854,-0.6699405
gitlab/jason-rumengan/pyarma,0.34381342,-0.66092134,-0.08125038,-1.2328905,-0.97407794,-1.3298899,1.0455147,-0.723274,-2.6404808,1.1471664,1.488778,-0.58710533,3.1110907,0.59400874,-1.3103317,0.17141914,-0.37723395,-1.5351318,-0.87891763,-3.0478258,-1.4948009,-0.26905602,-5.8804097,2.6084645,0.08626474,0.8765912,-1.0930493,-3.0462067,-3.1502337,-1.3301497,-2.1551673,2.8095608,1.190815,-1.3878266,0.005642001,3.7920113,0.8671041,-3.2451618,-0.32116327,-0.110286765,0.21260788,-0.057050303,1.1853098,-0.10210117,0.22580294,2.5072432,1.7095282,-2.271402,-0.90924174,1.796536
gitlab/fduchate/predihood,-1.0859009,-0.15262039,-1.9131755,-0.22748142,2.2879198,2.508775,-0.2918679,-3.4525049,-0.52405584,-1.3494166,-0.94134754,1.8855485,-2.5778165,2.3118236,1.6841631,-2.5790253,1.1661917,2.1991327,0.935554,1.5984635,-0.7749464,-3.0372639,-0.9354019,-1.9762448,2.9681187,-3.6512702,-4.3267927,0.77095634,-1.2802118,-2.4914823,1.8426676,1.1502515,0.10828666,0.36320648,2.4278185,1.8913451,2.152161,-1.4959024,1.9050665,-1.2854863,-1.7895534,-2.7450275,1.6494223,-4.2389736,-1.3961271,-1.7686999,3.724716,-1.6050936,2.0695364,-1.282092
gitlab/mainlabwsu/bims,-1.3016001,0.019827314,-1.6384906,-1.1959591,-0.6426642,0.7716531,-1.4601014,1.1465245,0.044666786,-0.6882541,0.4449501,0.2882788,-1.3113668,-0.1138596,0.20758796,1.9887015,0.48959118,0.21386819,2.4798238,0.4504895,-0.003488499,-0.63886017,-1.3631014,0.15767889,0.75469154,-0.17106137,0.8403296,-0.21721102,-1.239331,-0.65277606,1.4009016,0.8300649,-0.31076792,0.38811162,0.15446736,0.8012265,-1.4911569,0.06817337,-0.6347542,-2.0675428,0.9163963,0.27139792,0.0872175,-2.989422,-1.025177,-0.551248,0.68649524,1.1382042,-1.0019643,1.7118219
gitlab/ChemBioHub/tpmap,-0.75318056,4.8687763,-3.4164112,-0.047442168,-3.4070978,2.6882014,1.2210099,1.1527964,-0.82340485,-0.5535524,2.7175546,4.4568715,-4.155829,1.181011,5.0353026,2.7765057,-2.7737415,5.7537417,-0.004406229,2.5396903,-0.96980226,-3.1790788,-5.4987125,-2.442076,2.4706817,-4.253764,-1.5483768,1.396565,-4.261255,-6.5435495,5.131588,0.749601,-2.5325696,-1.1548369,2.391767,1.0604762,-1.4331653,3.4955275,-1.7785102,4.376283,-0.5707913,-0.13682318,-0.69576895,2.3435092,-0.24372622,-2.7074199,-1.1100576,-4.5639505,0.5606134,1.2064637
gitlab/davidtourigny/dynamic-fba,1.719289,1.3358488,-0.8689731,-4.071636,-0.6312118,-1.9784632,1.9204283,1.7459731,1.2667465,0.067177735,2.577074,0.7445978,1.6745106,1.8512764,0.8752467,1.7626823,-2.8298028,1.5723333,2.636449,-0.47539064,-2.8773246,-1.7148998,-4.5228972,-0.22931951,0.1489251,0.9675929,0.98685783,-1.2511511,-2.2481227,-0.6820924,0.26271272,-0.044414103,-0.16432291,-1.0311526,-0.84562254,1.2747625,2.2454054,-6.202332,-3.098148,-0.08790261,2.2725654,2.4599788,1.0214761,-1.7647132,0.9317714,-1.3628815,3.6402304,-0.15562768,-0.14404611,-1.255617
gitlab/vincent-sater/umigen,-6.358676,-0.67739785,-6.9413404,-3.3067253,2.7129955,-9.519503,5.853777,2.4620795,1.7552993,2.7539005,0.7116266,2.3884466,-0.29836574,-0.48560765,2.1971955,0.69688934,-4.516571,0.17829348,-2.6092627,4.927078,2.6745832,4.1502137,-4.35798,-6.595505,0.4089866,1.8948402,1.0891359,-5.497536,-2.5410159,1.1238613,0.45934713,-2.883109,5.1452284,-0.7863507,-2.1785145,7.251477,-0.47684038,-3.6515749,-1.7451833,0.7665834,1.8226597,-6.8449354,3.160709,-1.741315,0.19571453,0.045065176,-1.0593702,-2.4033751,1.4904083,8.940656
gitlab/geekysquirrel/bigx,-0.47406128,0.84321654,1.013865,-1.1373153,2.6672158,2.4001927,-2.4443994,-1.1510319,-1.1274546,-1.7756423,-1.3998543,-5.7887454,-1.460664,1.1339662,0.68311876,2.441885,6.3126726,-1.7933551,-1.7389541,4.1847434,0.5786328,-1.2906463,-1.9090198,-3.235442,2.2803917,-0.8985,-0.92855203,-0.64939517,-3.1427116,0.32433486,4.4352303,0.014190051,-1.0079597,3.2481098,0.7190074,1.9112474,-3.2699444,3.078966,3.7745166,-0.26515338,0.30835277,-1.9258628,-2.821347,-1.579918,-4.53606,-0.96588784,5.999975,-0.06845164,1.9784923,-0.7538099
github/jiujiezz/tsnad,-2.0615635,2.613212,-4.5510135,0.49974892,3.599584,-1.5468439,0.038040042,0.11783563,0.10735005,-0.56231385,-0.22274783,2.0119624,-1.5120863,-2.315633,-2.1701035,2.500102,-3.1897037,0.2193975,-1.3611562,2.1729817,2.4785404,0.011406939,-2.4377296,-1.7469758,3.5903327,0.28059044,-0.7537753,-2.5573366,-1.1633372,0.36642697,2.7039843,-2.2943995,-1.6699158,0.88040125,-0.5382267,-1.4494236,0.8554206,-2.137907,-0.66117084,0.86577624,-1.639048,-3.954531,-0.2645424,-2.0572324,-0.9937876,-2.477932,0.23739596,-3.198651,3.0440962,4.6179485
github/twopin/CAMP,0.28478217,-1.1504229,-3.5707853,1.4830921,1.1980537,-0.3152873,-1.9613637,1.3001745,4.555999,-3.1088662,-0.6236333,0.7671449,-1.8178655,-1.0570687,-1.1379367,-0.30359137,0.51231605,2.2771103,0.28408802,1.6324226,2.8496668,-0.70838904,-2.7051756,0.30631033,-0.45594344,2.9363878,0.45183763,-2.016669,-3.2808976,0.4379668,0.18083212,0.6653366,-2.0172474,1.7779013,0.15790513,0.39420798,-1.9871514,-0.06725564,-1.5026604,-0.28423712,-0.83867437,-1.7312113,2.5889845,-1.8936102,-1.990884,-1.7028874,-0.8741992,-2.7759671,2.6673,1.3905759
github/kkjawz/coref-ee,-0.6717099,2.3099189,0.37604874,1.5924964,1.0139986,-1.2239628,-0.47779837,0.12582527,1.1506137,-3.1335359,1.7247584,0.15384656,-0.6788506,0.6380986,-0.4768943,-2.8885784,-0.12703018,2.8769643,0.27175295,1.2620244,-0.25365433,-0.2958532,-1.6207299,1.3251805,-1.1100577,-0.9137047,0.08455008,-0.41643667,1.1276517,-2.2829857,0.45083117,-0.39242673,-1.6858809,1.462996,-0.94615054,-1.0327656,1.1559464,-1.1808594,0.17428051,-0.39631236,2.5857027,-1.5997274,0.60486954,-3.4397857,-2.0693152,-1.3887465,-0.027294217,-2.955135,0.22028804,-0.9405092
github/ekaterinailin/AltaiPony,0.5515057,-1.01675,0.6818779,-0.054331265,-0.73591137,0.15942319,-0.250933,0.9619674,-1.2422005,-0.02363998,0.8616792,0.13017778,-0.25540686,0.20385627,0.61841846,0.7282277,-0.53096884,0.48773268,0.110159226,0.3295377,-0.14683555,-0.44081375,-0.43695632,-1.1611781,0.35453105,-0.38336444,-0.29192525,-0.43012995,-0.8729142,0.5776906,0.09810925,0.46042165,-0.24674748,0.9743281,-0.018215343,1.4960469,-0.03543906,-1.0062636,-0.19093321,-0.46881178,-0.6782407,-0.18430388,0.27700815,-1.1269082,-0.4853068,0.8987621,0.5342875,-0.76938266,0.2037128,0.6985556
github/csbioinfopk/iSumoK-PseAAC,-0.21114343,0.78864104,-1.2661659,0.14279303,0.2898738,0.2919817,0.27402115,1.3467982,0.007757017,-1.1848999,0.7981936,0.95625055,-0.16046904,0.92964315,1.3768466,-0.0049080607,-1.0606086,1.4284978,0.6861005,1.9733086,-0.14694756,-2.0749793,0.4023024,-0.93750614,-0.49508545,0.07792168,2.6663132,-0.6374369,-0.014163175,-2.4130507,0.19171305,0.17854516,-0.936728,0.6273535,2.721873,0.47566837,-2.5043259,-2.9759192,-3.0057364,0.6611452,-0.058369584,-1.2931523,0.5683773,-1.4081787,-1.2078485,-0.26104072,1.7408506,-1.0899148,-0.3382419,0.68560314
github/wdecoster/nanopack,-1.5628202,-0.6273471,0.6371309,-0.003948328,0.3806947,-1.1513128,0.16414192,2.7513156,-0.3087345,1.478541,2.685153,1.7751979,-0.5666442,-1.3986574,1.4250057,0.64533454,-1.3761667,-0.037417933,-2.3339517,2.9298608,2.5969548,1.474019,0.019074796,-1.1774069,1.1094803,1.822001,-0.2655366,-1.8845918,-2.1506698,-0.78435475,-0.47061414,-0.0564169,-1.5766679,0.81292886,-1.1396505,1.3933297,-0.5909656,-1.1410996,-1.1209944,-2.0553427,-0.08403904,-0.18961895,1.4243363,-2.7157898,1.8281356,-0.7296313,-0.8877754,-0.19661574,0.69085646,3.1605415
github/upb-lea/openmodelica-microgrid-gym,-0.5310907,0.9304338,2.6030922,-1.2185011,-3.01348,-4.076156,1.9718753,4.013918,-0.2101533,-3.3661819,2.0427895,3.1953015,-1.1387016,3.5868726,-0.14346892,3.7898724,2.577172,-0.25180882,0.34861162,1.1208956,-1.7634456,1.4551058,-0.6242203,2.8123844,-0.9672119,-0.38837528,0.10171539,-1.6562154,1.5527376,2.9629788,0.6012276,0.50231695,0.6436307,-0.29513982,0.014063229,1.7160512,-5.470689,-3.5806477,0.8829151,2.4678254,3.7325947,-1.3493987,-1.0925047,-1.5314541,-1.442976,-1.3321115,5.196177,-1.0779877,0.7180933,-2.0381534
github/upb-lea/gym-electric-motor,0.4973625,-0.229882,2.605124,0.03497876,-2.4284234,-5.265115,-0.91893846,2.0563524,-0.23452254,-1.5634434,0.6496104,2.0943155,1.6197084,2.9352844,2.3139997,3.4413748,0.6408606,-2.6559613,1.1504333,1.1664814,0.73163563,1.0778017,-2.5413485,1.3073215,-1.8568873,1.0752485,0.17970581,-2.7446597,2.8982239,3.6634707,-0.95439917,1.574567,1.6402618,-1.2067665,-1.166389,2.4154248,-2.8865147,-2.046129,-1.0438809,1.1070954,3.1688066,1.9077086,-2.3907905,-2.5782793,-2.4166763,-0.4576844,2.7018406,-3.9329348,-0.07035327,-2.6007254
github/cobilab/RFSC,-0.74951756,0.7561074,-0.28644252,1.3575697,1.3722991,0.07853524,1.3504897,0.41723862,-1.1768299,-1.0532966,0.14454034,0.4617369,-0.43753934,-1.9257586,-0.07949514,-0.52875865,-1.163274,1.7394396,-1.1948955,1.6711091,0.262709,-1.3178647,-0.35858303,-0.50099313,-0.84770054,-0.91323185,-0.15286271,-0.20796265,-3.6374145,-1.5426669,-1.6909128,-1.745679,-0.8948925,2.1292233,-0.62194353,-1.475136,-0.04221705,-1.8875778,-0.7033263,-2.879869,0.76762664,-0.33401826,0.13167018,0.47622246,1.0449085,-0.8424532,-0.66100067,0.21131332,-0.12048516,3.0424564
github/hsci-r/finnish-media-scrapers,-3.6541898,0.86411756,2.5590322,-1.0024105,4.3873825,-3.2706988,2.7040503,3.60882,-5.137116,0.67877674,2.3057256,-3.8986917,-0.47264898,-3.1050715,0.5987525,0.58010364,0.4536927,-1.0351956,3.6437309,-2.0590005,-0.6642964,-3.7427428,-0.7374774,2.6019838,0.43755105,-2.5632174,-3.1968732,-0.8962418,0.5729362,-1.431472,-0.5955973,-0.59692746,2.095824,3.5510547,2.0264826,0.6615028,-1.9055642,1.036458,-3.8386152,-1.7953306,-6.5921016,0.0938926,1.6155233,-3.2094216,1.7696837,-0.19137098,-2.7949848,-1.6624726,-1.4698808,0.8632953
github/era-urban/wrfpy,-0.36173534,0.12311546,-1.2918341,-0.3543566,-0.26891005,-0.4368623,-0.44701368,0.35752386,0.04433191,-0.16784891,0.77429193,0.031546734,0.6815721,0.06506482,-0.8060713,0.9493975,-0.73856413,0.039275397,-0.36976162,0.7071606,0.5292452,-0.31385866,-0.85562146,-0.09912042,0.0770792,0.57717085,-0.19768809,-0.20382865,0.13549578,-0.042138297,0.42492187,0.7728251,0.9435596,0.4059998,-0.88034636,0.9704761,0.036554605,0.21568294,-0.3249923,-0.14632131,-0.4155851,-0.03255216,0.26875806,-1.0055783,0.45121804,-0.38882738,0.19658405,-0.07881624,-0.41836035,-0.2432333
github/alvinxhan/Phydelity,-1.3319368,3.6126957,-3.261374,0.8935994,-3.103723,-0.6172997,1.3485024,-0.16801608,1.1562784,-0.5661229,-1.8496633,0.53085184,1.5654906,-0.563643,-0.078768976,-0.052412096,1.3365796,3.077891,1.1844196,1.645694,0.30197656,1.965441,-0.14434654,-0.6321145,-1.2202804,1.180236,-1.0478421,0.9574442,-1.2312977,-1.7268841,-0.57978433,0.47212848,0.28436983,2.6916785,-4.089806,1.2115995,0.7693587,-2.2954798,-0.29617468,-3.3427784,0.84028924,-1.1548537,0.060269035,-0.23447914,0.71572125,0.37509093,-4.0329742,-2.6772125,-0.52346873,2.3555243
github/ynop/audiomate,-5.7912254,0.15903847,-1.2560918,1.2781614,2.736617,1.9508874,-4.193553,1.6238574,-2.3074496,-2.725143,1.2510142,0.44533625,-2.3955405,1.8456975,-1.1292499,-1.0001478,2.3600945,0.812234,-3.0121107,1.6027873,1.6171124,1.1092608,-4.5422993,1.2895949,2.9429822,-0.6168855,-1.0832319,-2.5319417,3.4247866,-0.70759445,-2.2088227,0.11381476,-3.9637923,2.8971968,-2.5014167,2.4266818,1.4019331,-1.8818151,-0.76541233,-1.113256,-1.080911,-2.4675128,2.4830942,-0.28185064,-1.4746499,0.27268532,5.759963,-3.23782,1.1542827,0.28864434
github/adigenova/wengan,-1.4127482,2.8212361,1.9115117,-1.0615093,2.2574599,-0.033593487,0.29465067,-0.6713335,-0.4671258,-2.0599988,-2.791001,-1.5663329,1.7317332,-0.69410366,-3.1311717,1.8033144,-1.6885915,-0.84986544,-1.9913827,3.4886482,-0.111242644,-0.56975156,-2.056032,-1.4182826,-0.26289812,1.9811503,-0.90229505,-3.2996106,-4.1740227,-1.6308633,1.6373338,-1.5719826,-1.9757833,4.8721657,-2.9132993,-1.3553383,-0.30912393,-1.1361866,-1.9165218,-0.4306907,-1.245541,-0.7531355,2.901745,-1.219864,1.8296795,0.3526525,-1.749103,-2.4833717,1.9102813,4.914553
github/pmoulos/metaseqR2,-0.2607501,1.323207,-1.9876864,0.79206955,-0.46502617,0.25956565,-1.281413,0.22182235,0.24357468,-0.5036851,-0.6230374,-1.0579377,-2.0686355,-0.9109847,-0.10035018,0.63412225,0.8233595,-1.754602,-0.48215902,-0.6045507,0.1551167,0.97322845,-0.6012025,-0.16169421,3.3002725,0.22540697,-1.0906343,-0.8894428,-2.321783,-0.7237296,0.524104,-2.3447793,1.4396455,2.6816351,-0.17629619,0.15739696,1.4248139,-1.1793187,-2.9747746,1.1003898,1.667999,0.9811718,-1.2609192,-0.17050022,1.4063531,0.27068305,-2.3120685,0.31757978,1.7396632,3.0042737
github/glotzerlab/coxeter,3.8346694,-2.0099483,0.54279125,-3.9557478,-2.0875962,2.7944775,-1.6829839,0.89625996,0.057502452,0.44874048,2.1728656,-1.1255914,1.3814886,0.6630518,0.41009,0.55854154,1.9069798,0.5715563,-0.7211844,0.6694404,-1.7139815,-1.0684953,-2.4585361,-0.18617566,-0.5295673,3.1751,-3.4197397,-2.3136969,0.5228862,0.54333127,-2.9801896,1.3455254,-1.2666405,3.771744,-0.4050953,1.2281978,-1.6974499,-3.6329856,1.3166404,1.8042767,-2.8422472,-1.6242789,1.2241563,-0.5437662,-2.2217245,4.1438766,0.84341145,-0.6042175,-0.6352693,-2.2433643
github/scikit-learn/scikit-learn,-0.91166407,-0.1673219,-0.51971835,1.1099118,0.8164428,0.12157801,-0.18170124,-0.20517582,-2.591247,-0.7407034,1.6362839,-1.7921157,-1.085372,2.975038,-0.1631568,1.8639281,0.29535604,1.4621469,0.38583833,1.1966208,-1.5502641,-0.9880653,-2.5995893,0.2914437,0.3285633,0.5161344,-0.86893636,0.85387284,0.7742183,-0.5607884,-2.8794622,-0.8335106,-0.9762841,1.8718966,1.3263218,2.4863849,-1.3157176,-2.0033283,0.030366445,-0.49389035,-0.9827445,-0.5233429,1.2445223,-1.4432074,0.91223586,-1.5522945,-2.3284152,-2.066083,-2.4818125,0.18504804
github/jGetMove/jGetMove,-2.3337846,1.0709319,-0.16003427,-0.88350034,-0.7103839,-0.97246957,-0.9670141,2.2017915,-1.980466,-2.5204768,-2.1770387,-1.1445146,-1.708758,-1.040726,-1.8624574,-0.4712317,0.09518134,0.35630158,2.3675647,1.469339,-1.9044609,1.9520792,-0.44430962,-0.69305897,-0.9167937,-2.7538857,-2.78947,-0.45840508,-0.5831213,-2.2428694,-0.084460534,0.9248402,0.14382772,3.2662373,0.13163632,0.23071209,0.5189551,-3.3792474,-2.8209903,-2.0506444,-0.43739268,2.2489386,-0.52078766,-0.70231366,0.8011285,0.19015843,-1.3072224,0.526379,-3.272273,-2.2748034
github/kinnala/scikit-fem,1.7849635,-0.5527018,-0.42989942,-2.663087,-5.383964,-1.6856892,-1.9035338,0.5860948,-2.2559402,4.353433,5.8704486,-1.5605437,4.8155746,0.68977284,-3.477036,1.0746689,1.7694069,-1.2310917,-0.32175922,-0.2490209,-2.2519176,0.51820475,-4.8749495,-0.2958655,-0.54170233,4.7528048,-2.481629,-4.4944754,3.6275768,-1.9307399,-1.0717744,2.3443687,2.28703,2.8007605,3.7931607,-0.9063127,-1.9502596,-4.00579,1.0390242,0.7771739,0.5550166,5.868265,1.3278475,1.107855,0.85968715,2.3936832,-0.65377796,-3.2386577,-1.4229053,-2.8789709
github/IKNL/vantage6,-2.8264284,0.37195674,-0.47786152,0.18822105,1.0671979,-0.66066617,-0.39708635,0.7356279,-2.6824644,-2.942338,-1.7706153,0.19559273,-1.435211,2.2284186,0.467881,0.26054165,0.54709625,-0.5581329,2.0880623,1.626738,-0.1592368,-1.68212,-1.7541882,-3.002597,2.1764271,-1.1524491,2.358252,2.159852,0.26425806,-0.9513282,2.5900185,-1.4328972,-0.8483789,1.0940102,-4.197542,-0.073066786,-1.9148546,-1.2497473,-1.9021477,-1.7183324,-0.3827136,0.74008864,0.028283115,-0.3768802,-0.5990144,-1.029513,1.0474247,-0.6914556,-0.011139731,1.3347586
github/aothmane-control/Algebraic-differentiators,-1.4532851,0.9739943,1.265334,-1.1679878,0.47735938,-2.1418176,2.0954502,3.354369,0.7898905,1.2031102,4.9240327,1.4153477,-2.2858694,3.0729423,1.5875132,2.1894598,-0.22347647,-0.7268301,0.4748261,3.528927,-1.2403972,3.0731263,-3.95747,0.122523084,0.77327645,0.42584446,-1.0789464,-2.2186904,-2.6790075,1.9670013,-0.0899871,-1.577507,2.8804839,0.74809223,1.2128036,-1.0319208,0.7743183,-5.14719,-0.15435195,0.6441195,3.8033402,-0.054986008,-0.138042,-0.5931194,-2.107845,0.63589007,0.23585449,-0.681142,-0.38343155,0.19961691
github/Kuifje02/vrpy,-1.9663557,3.3402472,-2.7647374,-0.06724238,-2.5477571,-1.164424,-0.5097058,3.6558707,-2.63016,-1.3806585,0.40886283,-0.34470338,0.89598083,-0.38476756,-2.394218,-1.9595674,-1.6814758,-1.6607561,2.703577,3.0843666,-3.5179465,1.9892281,-1.8705128,0.36932835,1.4204956,1.9871248,-1.2091023,2.1324677,-0.6618332,0.2605065,3.7571857,0.7468131,0.37907508,-0.69865596,4.943956,1.2934039,1.0773853,-3.791458,-0.32997054,1.4542807,-1.7018105,1.6926275,1.7150191,-2.9013007,-1.9813107,-3.7489557,0.0887871,-1.7605388,-1.1811957,0.03134149
github/nlesc-dirac/sagecal,-1.5520775,3.6244814,0.37372217,-0.48961776,1.9732436,-2.900984,1.7297746,-0.68110794,-2.327677,-0.8549155,1.368925,1.0299554,0.2553375,0.96670735,-1.0130332,-1.0263288,1.2820429,0.00036711243,0.011722724,0.06113965,-2.0923162,1.6046591,-2.4159195,1.2552451,-1.1915231,0.50798655,-3.0043101,1.9781977,1.0685647,-0.36282307,0.8317657,0.9157028,-1.6317761,-1.6277814,-0.8052342,0.78284556,-2.3195715,-3.1887977,-0.8937502,-1.1962147,2.1313572,0.03777906,1.7756716,-2.6286266,0.13808268,0.32503602,-0.058782876,-3.4467728,1.2843302,0.25247777
github/tensorflow/tensorflow,0.5368787,-0.7312098,-0.55414593,0.39766586,-3.7387464,3.1288452,-4.448104,-1.0350238,-1.2311655,-6.2555985,-1.6061567,-0.25428683,0.66913515,1.0997286,-4.868513,-1.5085076,1.231007,1.8321078,-0.27114907,0.8445683,2.1851623,0.845735,-5.578216,0.31778136,0.28032288,1.7783285,3.807714,-2.095886,3.256915,0.59323037,-0.73012125,-3.193134,-1.7471094,0.04908612,-1.3619833,0.83231866,1.6516061,-0.89316016,3.2911458,0.875513,-0.38712946,1.7623172,2.1695824,-2.5216608,-3.0243618,-0.68846273,1.4114465,-6.4492445,0.991139,1.1074169
github/ZhaiLab-SUSTech/FLEPSeq,-0.81950897,2.7668636,-4.1251593,-1.9774958,5.7466106,-2.1159558,1.84212,1.7494141,-1.7080556,-0.17420882,-0.6460566,2.153716,-1.0606214,1.2721002,0.06969493,3.00429,-0.2724703,0.25871462,-3.7574031,4.455019,2.0007803,5.75551,-4.496002,-3.8391747,-1.1922959,-0.3243386,-3.4609256,-3.159945,-5.3729944,-0.46460378,0.28992894,-1.334427,1.7973558,1.9330447,1.0840842,-0.07720485,0.42735437,-1.8396419,-2.5676863,-2.5108898,-1.5939975,-0.6076077,0.38473156,-0.10700604,1.2887666,-2.6268353,-3.628473,-1.1990613,1.1514854,7.167178
github/Filter-Bubble/e2e-Dutch,-0.70015615,2.4804401,-0.9124007,0.69733626,2.9642398,-0.12973893,-2.529792,-0.63692707,2.9925268,-2.9257638,0.5011237,-0.15295702,-2.2612822,1.8120594,-2.9515295,-0.4381163,1.3882552,4.604091,0.6875876,0.07217759,-0.025020435,-0.510358,0.3110214,1.6472037,-1.7855839,0.2999297,-0.43967316,-2.3320599,2.9423835,0.061073538,-0.81413406,1.388797,0.37209362,0.5571959,-1.3427277,0.70667595,-0.75443786,-4.007128,-0.21038993,-3.235038,1.0377108,-2.016896,-0.6000634,-4.31286,0.7454053,-0.90484715,-1.6185893,0.019768082,3.4269662,0.8849908
github/Filter-Bubble/stroll,-1.2853329,2.2116382,-0.8241013,1.2095286,3.9463608,0.80444545,-4.539171,2.142584,1.0108461,-3.1989312,-1.0839758,-0.45928895,-0.496867,2.890207,-3.3139699,-0.95077485,1.1973917,2.9010365,-0.06254382,2.088119,-1.5165133,-0.5654529,1.91219,1.8049856,-0.051141616,-1.5636,-1.2236445,-0.46244743,-1.0983905,-0.83571845,-2.4908006,1.7711841,-1.7822518,1.38153,-3.849806,-0.07288844,-0.85391295,-3.1484668,3.3877244,-4.629814,-3.7155776,0.89193285,-2.2293243,0.53057486,0.24360208,-2.1908975,-0.62937,-2.1265092,-0.91935843,0.43562496
github/tbrown122387/pf,0.5125407,-1.7541121,-0.6171676,0.77006936,2.8505714,-0.6106204,2.4345841,3.0953994,0.2719402,-1.0302131,3.1739423,1.8662528,1.5112662,-1.8830682,0.4745417,-0.8561443,0.81453437,0.5785206,-0.097203664,-0.9495993,-2.6282868,3.4278195,-2.2499585,0.23423053,-0.48905152,1.8584378,-1.9784551,-0.9051111,-1.887097,0.26544663,0.5746559,4.788337,0.42856446,-2.0447311,1.3119608,5.2744627,-0.1280842,-5.3256936,-1.5083601,-2.841214,0.17239678,-2.1499202,0.9833799,1.5411477,-2.802908,1.3733,5.1131225,-1.7664043,-0.61667246,0.20822968
github/deezer/spleeter,-1.6237824,-0.47974545,0.67196906,4.0053234,1.5958279,1.5036784,-3.540904,-2.3700619,-0.7555735,-3.5126946,0.7202742,-0.04749248,-3.1253028,2.8994539,-0.9503754,1.2708544,1.8197154,0.84234595,-0.61669385,1.3446344,1.5354539,1.8028501,-4.4398656,5.1796284,1.8869643,-0.24550533,-0.20870143,-1.0348309,0.8359993,-0.7003361,0.13358568,2.3289106,-2.329956,2.202729,-3.010261,3.109943,2.6633809,-0.9642747,-3.746764,-0.4884745,1.0645607,-1.42682,1.6797724,-0.2125324,-2.6813893,-2.0260382,1.8622525,-5.457945,-0.98471713,0.1430875
github/dmey/synthia,0.6273602,-0.6845128,-1.4009293,-4.3051662,-0.18174057,3.7375586,-3.4609993,3.3016138,1.3222569,-0.8556882,-0.5561299,-1.2689843,0.4288738,4.5357766,0.31400806,0.36097655,0.32240754,0.38508755,-1.7737463,-1.2038032,-4.301149,1.5520283,-2.2359715,2.7498872,1.290772,3.0943506,-2.0785747,0.043068364,-0.11438793,1.5897694,1.0047895,1.1808447,-0.43850613,0.31140125,-2.5755274,3.296254,1.3382084,-3.482501,0.7919519,0.79464114,-0.3167641,-1.9417583,2.3421988,-1.5084666,0.64436924,1.2904519,-0.08795388,-4.059829,-0.041389197,0.3212766
github/spinicist/riesling,-0.05619295,0.4938824,0.64878577,-0.17105067,-1.5399926,-1.0806789,1.7288303,-0.9190091,-0.80002946,-0.60163575,-0.7835252,0.25460058,0.8830658,-3.5931215,2.4301972,-1.1556048,1.4548,2.0392435,-2.6475818,-2.4232697,1.6851658,-0.19986899,-4.362342,1.4497914,0.27271605,1.841788,-2.1324484,-3.0729349,-1.9595612,0.70807105,0.23833437,1.1343713,-3.077494,2.9353757,-1.4211811,4.2498913,-3.1747694,-2.1014636,-1.1512907,0.49785465,3.2500653,0.49582285,1.7394689,0.98976207,-1.3657779,0.9920052,0.43070817,-2.9136028,-2.0256302,-1.0578971
github/hcdenbakker/sepia,-3.531747,0.03229891,-4.3357506,0.56054103,3.6569946,-2.1099882,-0.04896147,-2.2633219,-3.0897746,-0.9641048,-2.9555705,-2.353924,-2.4520326,-5.4637566,-2.3857856,-1.036156,-1.244455,1.0201138,-2.384821,0.14004913,0.7558976,-1.4636408,-0.15625402,-4.421741,0.18088049,-1.6081345,-0.49209577,-4.2892942,-5.6077776,-0.8016153,-2.755621,-0.38369212,1.7480597,1.2524054,-2.6034124,5.2925115,-2.113177,-4.147885,-1.3146881,-0.88625234,0.86746,-2.7006176,2.431729,-0.25009817,0.103680365,-4.943908,-4.6428943,-1.7317988,-0.15082808,5.747689
github/onnela-lab/beiwe-backend,-4.38939,-2.7490764,-0.24545828,-1.688262,2.7845175,0.37162158,1.5972778,1.7812648,-2.1736104,-4.8505573,-0.39622033,0.42199993,-4.1467113,1.8047658,1.8118492,-1.6514757,1.4317245,-1.8203564,2.6048875,1.7378517,2.393043,-1.3013963,-4.133071,2.8787851,2.1603062,-2.5184803,-0.7065453,1.1887541,-2.0959542,-1.5829092,4.0659757,-4.001479,-1.2492923,0.98544216,1.1983088,1.9096296,-1.0316999,3.0909748,-0.8044966,-1.8765852,-3.4123826,-0.81143624,2.7083411,-2.698554,-0.42307392,-1.7363392,4.7009077,-0.045214515,2.0062299,0.109562695
github/isoverse/isoreader,2.7184494,0.45490414,2.436811,1.6625139,3.2991512,0.26835275,-0.03874723,3.9013572,0.6736446,2.498926,0.51283413,-0.3166473,-2.1385014,0.71137583,-3.0679069,5.091988,2.2302413,-3.057307,-0.5240904,0.8585735,-1.8695315,-0.6554319,-0.5141342,0.84474635,1.6338804,-1.0556997,-0.44663918,-1.1433123,-1.9805377,2.4139662,1.1642122,-0.05838323,0.33257848,2.6463885,-1.7299559,4.602554,-2.130423,2.2783115,-6.2332044,2.5817285,-0.097939245,2.4265845,0.17206033,2.211323,0.8914662,1.0211037,1.9882435,-0.11205749,2.799117,2.2670069
github/surf-eds/one-button-compute,-0.47434202,4.644992,-1.623195,-2.7170632,-1.1011055,1.725967,-1.8015507,3.335653,-2.1417625,-1.573475,0.9396952,2.4379814,0.36041915,0.085667096,-1.1708814,-6.187175,-3.5663126,1.1478919,-2.653095,0.16552922,2.1866386,-4.098885,-1.0681332,-1.4204701,1.2410984,-1.6966875,0.5842586,-0.4761522,-0.09857042,-5.492627,3.333163,-0.46764082,0.8210025,2.8781428,-3.3180647,-1.3337805,-4.2473063,1.4537789,-0.33406058,0.1852938,-2.8947704,0.9867817,1.3814944,-5.140851,0.76683223,1.1893687,0.29536676,0.6466915,3.2281098,-0.041584898
github/vprusso/toqito,1.20189,-0.97561544,-3.3754854,-0.5150125,-3.6190443,-1.6876117,-0.66990703,1.9439951,-3.1187818,0.70038694,4.312726,3.6044538,1.7851552,2.3036835,-1.1602218,1.406957,4.0274773,1.0165387,0.13138618,-2.624164,-2.0535846,-2.4378557,-3.6766138,2.0252168,-2.7154665,2.76953,-1.3401177,-1.9399188,-2.2130806,0.975044,-3.092058,2.5771282,-3.141574,-2.3249183,-1.8529229,4.3380284,-1.84057,-1.6248424,-0.099693224,4.3239255,-0.8743637,1.9398699,-0.11700314,-0.6667665,-0.36599848,1.7805331,1.4754447,-0.30447844,-3.9539022,-2.720267
github/JSB-UCLA/scPNMF,-0.40882298,-0.43603894,-1.3746523,0.9460747,-1.1511263,-0.67306066,-0.92147905,3.789381,0.034537867,0.25173277,-0.5174431,-0.8369426,1.3854483,0.34743395,1.3798232,-0.5702419,-0.96215045,-0.18594202,-0.07608937,0.8725824,-0.997573,-1.240662,-0.16318014,-1.2357033,0.7423999,-0.5148591,0.07951721,0.93941754,-1.7273763,-0.7398284,-1.2851653,-0.7444959,-0.84367996,0.919421,-1.6217083,-0.8468097,-0.5776044,-4.4639006,-0.80814314,0.7676541,-0.37789586,-0.8470761,-2.1974292,0.29129744,-0.16318086,-0.6016681,-0.19194837,-2.0520377,2.5581775,1.9152743
github/jbuisine/macop,-2.3497171,-2.2104123,-0.9090942,0.4771902,0.34293273,-1.4853878,0.25616926,6.141993,-2.3985538,1.4106853,-0.15841691,-0.9461114,5.0832386,-1.705748,-0.44017696,3.1198106,1.3793699,-0.7649042,6.495369,-2.3437247,-4.672461,0.20096657,-5.333239,0.13818438,1.2273029,2.2383475,0.2616675,-2.1454659,1.2351528,-0.47869334,-0.53724885,-1.2564466,2.6151762,-1.5473773,4.901833,0.81606084,-1.3614757,-8.48063,0.64061403,-3.1419566,-1.382486,1.6964769,1.3504136,-3.3018882,-2.238436,-0.18743053,2.6082726,-1.1317955,-2.3552225,-4.046721
github/MrMinimal64/multivar_horner,0.59094393,-0.83782995,-2.7554662,-4.016116,-1.1368182,-3.0343988,0.87908745,3.5671768,-1.794126,2.3485348,-2.9065557,-1.9673245,1.628083,1.0330932,2.0453217,0.05516967,-2.499112,-0.5850063,0.2627278,-2.3753128,-6.065926,0.17445247,-5.5030065,-1.4656104,0.6069183,2.1167853,-1.8151143,-4.676823,-0.2766293,1.474557,-3.4890666,1.7093074,2.8021736,2.3220901,1.7357547,4.1399016,1.031137,-7.6321526,-1.6665075,0.19244552,-2.486681,2.8639054,2.3377638,1.0319774,2.1164515,4.843354,-1.6237359,-2.4331703,-1.4879895,-1.8149707
github/thejasvibr/bat_beamshapes,0.48319143,4.3071346,-1.3430794,-1.3196114,1.0006363,-0.40180245,1.650635,1.0960013,-0.4870592,-1.1524125,1.1229423,-0.20490125,3.9841545,1.2564455,4.3312697,1.5088525,0.01122098,1.2130316,-2.066418,-0.40911862,-6.9950504,0.3550112,0.46397534,2.2922668,1.3917207,2.6864536,1.0460106,-3.132552,1.3777946,1.4052889,2.005038,3.225044,0.1512452,3.2377565,-0.011035015,1.9237719,-0.08932391,-2.4214134,-2.2879279,1.7430636,-0.96765876,2.062156,-3.1880705,-0.2454281,0.48829445,2.6303968,-1.3596526,-0.9298014,-2.4678044,-2.3737793
github/atomneb/AtomNeb-py,4.800897,-2.173672,-4.641124,-2.6248608,-1.5770404,0.6691815,1.6946808,2.6475809,-1.5620584,-0.84789455,0.8293438,1.2848754,-2.140937,1.0952764,1.1832699,4.7980394,0.24723667,2.1438234,-4.759608,0.09687792,-2.3049896,-3.2334564,1.5920886,3.921118,1.1379923,-0.12568666,0.26854217,-4.3859525,-3.2503786,1.496266,0.05115925,3.359976,-1.9253194,0.07454265,-0.6321691,4.603884,-0.35513404,1.8220335,-4.76851,0.9670426,0.55805475,-1.3376393,2.3662024,0.34761032,0.41701016,4.9774404,2.4424715,1.2801007,3.0148456,2.4083495
github/eScatter/pyelsepa,0.10090654,-0.23067588,-0.7222795,0.41536134,-0.51096475,-0.22599927,-0.13639975,0.57348233,-0.518243,-0.43609387,0.26971006,0.013152148,0.18395865,-0.29807016,-0.7593796,-0.048852544,0.17766812,0.18924287,-0.5088164,0.38986728,-0.42325768,-1.0233494,-0.55684185,-0.5687302,0.072827,-0.23169205,-0.50664705,-0.4716753,-0.32850653,0.21948242,1.4524323,-0.70617193,-0.4137804,1.8614854,-0.12906374,1.2185006,-0.17778929,-0.6568184,-0.25845438,-1.279851,0.163247,-0.63463676,-0.26716816,-1.5684466,-0.03722332,-0.052935805,0.17542554,-0.5211036,0.13711092,0.4699633
github/cjbarrie/academictwitteR,-2.0070398,-5.9281535,3.327295,2.2308888,-1.9515928,-1.7106562,-0.9982236,1.985927,-0.041473527,-3.2742345,3.4669282,-3.5775125,-3.703833,-1.0728159,0.062445685,-2.380861,1.9789916,-0.8272576,2.2121875,-2.76276,1.7774892,-3.4336185,-0.5394434,1.1464927,-3.34404,-2.5024116,-0.75506675,-5.3956785,1.77216,5.893837,-1.2548916,-5.1743584,4.217981,2.5788841,-1.2605915,1.1736801,-1.7337823,5.4026346,0.026286136,-2.1661801,-6.247582,-1.4767007,-0.67354655,-2.128886,0.50345784,-1.7234799,-1.2606378,0.28882706,1.6696731,3.9141865
github/amusecode/amuse,0.1265367,4.5383444,1.449343,0.3433588,-2.619649,-0.7498755,-0.10817273,0.30564484,-1.8721063,-1.4891752,2.2750807,1.8008783,2.447592,1.1275073,0.72876036,0.22233422,-1.2225747,1.84858,-3.168811,-3.6030083,-2.7718441,1.1943135,-2.4055417,1.7375966,-4.914384,0.35259598,-0.14338697,-2.9877074,-0.71855986,3.4046085,-1.7846451,1.997779,-1.962061,1.0257641,1.4533424,3.047245,-1.707354,-3.515183,-1.1036814,-0.55774826,1.2076274,-1.6300657,0.4953816,-1.8776499,-2.570408,1.1570866,3.3408122,-0.31668842,-0.6094444,1.9983958
github/ketch/nodepy,-1.2057688,1.6258923,-1.4699459,-2.9162045,-1.2030224,-2.8416169,-0.57591194,2.7011158,0.07956957,-0.19274983,2.5830576,3.5421515,0.4687875,4.2222238,0.0338154,1.7695473,1.6872839,0.25058386,2.3167946,1.0420481,-4.552251,0.86286443,-4.309245,0.5355087,-0.6361445,4.191652,-0.6176791,-3.8889322,-0.04529509,-2.9379086,-2.3781374,1.023077,-0.27808717,1.6943711,1.7265869,1.6813257,0.2492368,-5.453588,-2.77147,2.5573034,-0.82504994,1.2399371,0.19365196,-0.020850196,1.7552812,2.691347,-0.25331706,1.3126779,-0.40754098,-3.0265694
github/ketch/RK-Opt,0.19122185,1.7633729,0.2117733,0.4241678,-1.5567292,-5.0857434,-1.7699593,2.5992744,1.3737619,1.597136,2.511658,3.347635,0.7666793,3.4471776,-0.5405931,3.4751465,1.6274456,0.63068855,3.0825224,-1.1081719,-5.72772,-1.0021911,-6.9241085,0.4899545,-0.7075373,3.630875,-3.0634508,-5.1608386,-0.14782605,0.810996,-0.79823774,0.33677933,1.6684533,-1.1799002,3.5540054,1.6068236,0.7459076,-7.3308983,-1.7510824,2.3564718,-1.461165,0.6925313,1.2434636,-0.48787752,0.3282053,0.2638237,-0.60932875,-0.9612171,-3.5131233,-3.532182
github/c3s-magic/c3s-magic-wps,-0.8741558,2.8286715,0.44217995,-4.7677474,-1.0257921,1.0828139,-3.4310174,0.49774823,-0.21956593,-0.4329288,-0.6195265,-0.6931439,-3.8716211,3.7318912,3.4969769,-3.7113914,1.4616932,1.8843726,-4.6677732,-0.001038736,-0.8046283,-0.671202,-2.3993518,3.055383,4.7901177,-1.5517389,-1.0867119,-0.5809132,-1.2245562,4.6396794,3.5980382,3.1888223,1.1206037,-2.3026855,1.645569,0.55430835,-5.8315706,-5.8077765,-4.1748123,5.12411,1.5909717,0.017733261,0.47752908,-8.474542,6.2439218,-5.168189,-3.4397068,-4.8103023,5.0718317,-1.3146913
github/DedalusProject/eigentools,-0.9348093,-0.61506164,0.2816026,-0.28417978,-0.80054426,-0.7079956,0.81247437,3.248945,-1.163496,1.0384628,1.6267866,2.5527432,0.8328363,1.3246481,0.11280004,0.15640794,-0.15509148,1.5111494,-1.5619096,1.2975194,-1.9305869,0.9471974,-1.5855567,1.4814965,0.34882963,1.4795605,-0.14818113,-0.37848043,-0.77403796,0.04872149,-1.7102245,1.6692839,0.04636828,-0.12807317,1.2578825,1.4156874,-0.71735466,-1.4176661,-0.69735986,0.5504914,-1.7925899,-0.36162722,0.6981496,-0.06958404,-0.3375683,0.6547652,0.21161981,-2.1578727,1.5743188,0.883816
github/kadyb/rgugik,1.9270009,-1.5741925,1.546206,-0.15512815,0.10473217,-1.6514684,-0.96039814,-0.6646657,0.4484087,0.52064425,-0.102119796,-1.1791301,-4.098025,-0.7224828,-1.3400064,0.23210861,3.6856668,0.7814318,-2.105691,-0.99296236,-1.9548823,-1.5655931,0.57999516,-2.9717448,0.8632368,-1.295634,-3.0912602,0.15269198,-2.0617692,2.4284098,0.014407532,1.5108175,0.7003319,1.7700027,-0.17123824,2.0307934,-2.6692095,-0.54799014,-2.5602086,-1.0647564,-0.9357909,-1.299496,-1.4260079,-1.3975883,2.5203953,2.1320772,0.5568395,0.7259118,2.695838,-0.03831983
github/MRCIEU/metaboprep,-1.5019916,1.7850249,0.656393,0.47687048,3.6261206,-0.3674075,-0.57068855,4.2710967,0.52601963,1.7640669,0.0699762,1.494832,-6.0246053,-0.5210067,1.1915082,3.94912,0.5869147,-1.4803555,-1.8198626,2.0633762,1.2910806,1.2419406,-0.5635011,-0.6476277,0.6739807,-0.0081248265,-3.397043,4.103626,-8.6741495,-2.7424903,4.443933,-0.07800604,1.7816402,-3.048432,-0.60477257,5.578578,-0.5940143,0.41476807,0.72489476,-0.82963985,1.5191762,-2.5752285,0.57534933,-2.4755988,3.3380003,-4.843307,0.5541578,-2.966782,0.1304209,3.563503
github/entangled/entangled,0.58183485,0.21546316,-3.078397,-6.401193,6.521538,-0.09249448,-0.3942506,1.6529913,-6.931767,-3.3300207,2.7870507,-4.194279,7.6519866,-1.798834,0.2560924,2.8727775,0.20995653,-4.147146,2.626763,3.3895252,-1.699409,4.3542705,-2.1137128,-2.1494608,-4.8470526,-4.2483354,2.15341,-2.7534,-1.4492577,-4.677817,0.014140407,1.0437665,3.027539,1.6376928,-0.66006655,3.1236806,-2.7979808,-1.7814057,2.825811,-3.109173,-0.09452699,5.474482,-5.745623,-1.2935652,-0.20720834,1.2544516,-0.7057371,4.244226,-0.71277785,-0.37501028
github/geospace-code/h5fortran,1.3874891,-2.8509235,-0.78736347,-1.5358508,-2.3943715,-0.5256116,0.8926667,2.3739147,-3.8284445,0.046627536,-2.4660833,-2.1430159,2.3363435,0.54262286,-2.3339114,-3.7338517,2.2348156,0.36578053,-3.3454943,-3.9639688,-3.9145553,5.5643306,-0.24255896,1.9568902,1.3731894,3.8582952,0.6208259,-4.26545,-0.032310158,-1.036293,-1.3204283,-3.3029158,-2.4918997,-4.7662797,-4.5027943,9.177199,-1.0514692,-2.1723957,0.73747265,-4.8207006,2.0080602,-0.0034175022,1.3609385,-3.0294425,-1.8068181,-1.0289706,6.5419507,-1.5368106,3.6957524,3.8083293
github/lijing28101/maize_pyrpipe,0.074274056,0.1743394,-0.18512656,-0.19728576,-0.13980122,-0.16329621,0.082563125,0.773579,-0.5825567,-0.32317382,0.5367524,0.27355057,-0.5405318,-0.22650073,-0.18822591,0.06887599,-0.18730015,0.47405913,0.16062559,0.70190406,-0.31413785,-0.5033413,-0.14808401,0.11258764,-0.34972706,-0.11670235,-0.5569491,-0.32167754,-0.49810955,0.19242464,0.21988712,-0.44342843,0.005325426,0.99086845,-0.2964785,0.52224535,-0.15992738,-0.68437296,-0.2307235,-0.33669028,0.01349189,0.2080709,-0.056126513,-0.87033254,0.5018235,-0.1689588,-0.08456261,-0.778423,0.095338285,0.49304515
github/OrlandoLam/SAMT,0.64682716,-2.0926132,0.9325139,-0.818604,-0.8355877,0.046103574,-0.46205896,-0.71681076,0.07075275,-1.0373532,-0.66129583,0.42906877,-2.0403385,0.3583509,-0.30139396,0.78717756,0.64191973,0.29002723,0.57118315,-0.4364922,-1.4757462,-0.46463087,0.64965445,-1.6006923,0.12533116,-0.013243201,-0.1657824,-0.27716658,-2.3866332,-0.5267129,1.379528,-0.6786035,0.56998944,1.7201523,-0.21048124,1.3996009,-0.05990752,-1.466834,-2.0616958,-0.95811397,-0.23568228,0.3352619,-1.4437127,-0.6758783,0.45329073,-0.21068634,-0.74931455,0.8266297,-0.14541368,1.4267038
github/fAndreuzzi/BisPy,-0.037290793,3.3950865,-2.19386,-1.4871794,0.89968973,2.4381137,-1.0918549,2.6030052,-2.5070019,-1.7368293,-0.79296035,1.6212139,1.9975882,1.1635002,0.7295666,0.2824618,-2.2027779,-0.8578618,3.1966493,-1.0088446,-3.8994682,2.093305,-3.313846,2.4514732,-0.4513851,2.6573427,0.37533408,-0.23441692,-1.2820568,-2.6312215,1.514823,1.7097839,2.4275286,2.966468,0.87923515,3.1724346,-0.12145427,-3.5186071,0.4322084,-0.18660584,-1.8634976,-0.17343554,4.6313653,-1.4653623,-0.41981626,-2.4351535,-1.3685746,-1.3724494,-1.3235937,-5.053131
github/pavanvidem/chira,-1.666876,0.36115906,-0.6276495,-1.6691978,1.9838359,-2.601294,1.0800724,1.2989509,-2.9140942,-0.65745014,1.6698751,1.7492044,-0.4390555,2.7367399,-0.31941378,0.9305017,-0.24820657,1.634349,-2.1111746,4.845098,3.240581,1.7990031,-2.0310833,-4.4319253,2.2248206,0.6301747,-2.5352635,-1.156826,-3.6720328,-0.3885816,0.44734946,-0.36717314,-0.7846173,3.8658082,-1.7913092,-0.6415222,-0.8873546,-0.3908873,-1.8814554,1.534247,0.9698871,-3.5350454,0.048894685,-0.5129636,0.96012205,-1.7127477,-0.39379758,-2.084427,0.7989739,3.2365818
github/flintproject/Flint,1.8922337,0.62642825,-0.4607622,1.1101385,-3.1488845,-2.5927923,1.226804,4.6397266,1.7366872,-4.8931947,3.4846864,0.050277993,1.7497742,1.110364,2.4809628,-0.852246,-0.8989626,-0.0021942318,2.2739244,1.5422572,-3.3611856,-0.63696927,-4.2515435,1.0816813,-1.7896192,-2.5993104,-4.319119,-0.9995724,1.6303325,-0.5550469,0.12084352,0.9273518,-0.85551393,-0.86838835,0.8183151,1.8210161,-0.46128935,-3.1688154,-1.2063016,-1.0638933,1.2283624,-0.4990457,1.9399736,1.4100819,0.15607089,-1.2339106,0.27229902,-0.76610196,0.59705305,-2.1782193
github/oschwengers/referenceseeker,-1.8214328,1.2361044,-1.6997945,-0.7502767,0.80179584,0.51860607,-2.1001196,-2.1854558,-5.8005238,-2.998035,-2.2646143,4.074648,-0.34981456,-3.3312392,2.1532447,2.3436139,-0.24390985,2.3796778,-0.9667798,0.3743764,0.08070372,1.7341441,-1.9089788,0.0074801045,-0.16437328,-1.9511633,0.06588565,0.2574483,-3.1177914,-1.9345969,1.313194,-2.805928,-0.48237753,2.7574937,0.05502282,-0.22175063,-2.7986345,-2.3851259,-3.8030481,2.9500914,-1.6815543,-2.0247767,3.3077555,-0.38882488,0.7267721,-0.35768512,-3.4241061,0.6063747,2.3245983,6.159663
github/oschwengers/platon,-1.8557492,2.4033825,-2.367392,0.52662057,0.6682532,-0.29215774,-3.841626,-1.2638131,-1.8023386,-1.861984,0.09328795,1.3274304,0.58429724,-1.482756,2.0111601,0.18796755,-0.435734,2.8785875,1.4172462,2.0141249,1.2641037,1.8341361,-3.2779322,0.70741194,-1.8007816,-1.610751,-1.7004955,1.5459101,-4.1960425,-1.1764722,-1.0862589,-2.4217198,-1.1154963,2.668043,0.70616573,1.1057924,-2.4945016,-0.93336797,-3.6251588,2.013105,1.1696275,-1.0924515,3.0461364,-0.36613417,-0.23774783,-0.60006714,-4.696955,-2.9209683,3.9851043,7.0803733
github/oschwengers/bakta,-2.3996072,1.1115284,-2.2179375,0.14705467,0.8559967,-1.5757306,-3.8857698,-1.6478028,-4.8658104,-1.7742745,-3.1572244,0.42120475,0.013880785,-0.45599738,2.2091935,2.5241382,-0.21124697,2.9889295,-0.87511736,1.9453006,2.4985693,1.5892926,-2.3608263,1.365814,1.7333202,-1.8477533,-0.98829865,1.677811,-3.4464018,-0.80581194,0.21578398,-5.6743793,-2.5353017,4.519122,-1.8479719,-0.55129933,-3.085896,-0.44033292,-2.7453244,2.077662,-0.14027014,-0.31123182,1.4950434,1.5119241,-1.2406067,-0.8154979,-2.323331,-0.7624623,3.2568142,7.967087
github/hillerlab/GenomeAlignmentTools,1.6114632,3.7261407,-3.3348303,-1.186283,0.8001711,-3.3911538,-1.3683572,2.082558,-4.0693817,-2.0849178,0.15088892,0.55824196,5.815738,-5.3310313,-2.3345914,4.4908595,-2.5421455,-1.0601165,-2.555396,-1.1335702,0.11445766,-0.4176097,4.0315785,-5.0867214,0.45026806,1.4135683,3.1212823,-3.8605912,-2.818422,3.7227576,-1.068988,-4.742795,0.39826623,1.8943826,-4.9699955,-1.626538,0.64644545,-0.79884946,0.5616862,-3.8833947,-2.4283903,-1.8675749,2.2005262,1.402297,-0.4882047,-1.243604,-1.1323392,-4.425928,2.9132223,7.396714
github/AstraZeneca/kallisto,1.7654214,0.14323516,-3.5094926,-2.3288193,-0.16002272,0.1943798,-1.692631,2.4244227,-1.3748163,-2.5182092,0.91929877,2.5274642,0.38094753,-0.17791061,1.5926514,2.739256,1.1782684,-0.18138646,-1.1626692,-1.296869,-0.7889098,-0.45733967,-2.2958775,2.5366445,-1.6574425,1.8567085,0.3896619,-1.5528873,-0.40289372,-0.64134765,-1.228066,-0.5703863,-0.40747288,2.0839996,0.5528638,3.1085448,-3.4418385,-0.7244669,-0.8612169,0.468944,2.5150485,-0.38523495,1.0580924,1.1341447,-1.460214,0.6251425,-0.056529026,-0.32860827,-0.3481646,0.1127654
github/mscroggs/symfem,2.2176454,-1.8702381,0.7123506,-4.528994,-2.490285,-3.7136943,-3.2048485,2.712761,-4.522611,5.0644937,2.682999,-1.7992998,2.897074,1.4361038,0.19603492,-1.641495,0.414277,-1.4244012,-3.3054185,-1.9605055,-1.7452612,-1.0859097,-7.574172,-0.34191442,-0.14628822,4.444977,-0.91180754,-2.8047667,0.2650049,-0.228203,-2.6849267,3.475101,0.31487852,1.9144871,1.3698727,-1.2932034,-1.2066817,-4.8942823,0.6313727,1.3873938,-2.194968,3.8313856,-1.395731,-2.7275894,1.8087825,1.6667778,-1.4309697,-0.09844202,1.03164,-0.32128572
github/CGAL/cgal,5.0080366,-2.3095376,-0.4280319,-1.2403803,-7.717108,-0.9162009,-1.1646466,-3.2025776,4.2423544,3.8804884,2.2031524,-2.6940806,4.457099,-8.735229,-3.1512198,-4.022963,0.05568369,1.290976,1.5468537,0.010272448,1.0819739,-1.8261873,-6.491274,-5.6323853,4.675998,1.3702208,-1.121065,-3.9303012,-2.724221,1.1223947,-1.6432321,2.465248,2.8653786,4.3126717,-0.88102186,1.5535194,-0.85631704,-8.373922,2.9728541,-1.3617368,-3.5104015,2.2458103,2.0395265,1.9900912,-0.10972363,1.0640496,2.6112595,-1.9560003,-3.1419878,-3.4823446
github/VNNikolaidis/nnlib2Rcpp,1.9918056,-0.6333591,-1.61914,-1.1314567,-0.80054545,1.6454529,1.8487512,-1.579268,0.88243973,-1.1609021,5.3265915,1.0889595,-5.185324,2.379269,-4.5574203,3.6223748,1.0825799,-3.9257455,3.833631,-5.1744018,-2.348264,1.4914405,0.38617945,2.6490176,0.0655645,0.511586,-1.2178792,-3.7866824,-1.5945306,-1.4688132,1.1847018,2.6325655,-0.03715241,1.1374227,-4.165235,1.5573815,-1.2566344,-5.640303,-1.1587858,-1.047624,-2.2315567,-0.75882703,2.4182086,-1.2840965,-0.15628426,-3.466488,-0.9173902,-1.9237288,-0.9603732,-2.0285852
github/MoreiraLAB/mensadb-open,2.4112918,0.08994424,-4.6979017,-0.5891112,1.4604638,-0.4919677,1.4257833,2.2257986,1.8413968,-1.0275936,2.4951313,2.3614135,-1.904903,-0.91617376,0.84423935,2.7493033,-1.232464,2.7346044,-1.4928238,-1.0385805,1.2352608,-1.1876898,-1.6798421,-2.170923,0.65288836,-0.24832204,0.95873517,-2.5789454,-4.319812,0.17770389,-1.8335818,1.0461656,-0.833252,2.7984567,0.8904298,-0.9020816,-3.317021,0.06981619,-2.6848416,1.0485758,-0.44471788,-0.34497514,1.4869319,-1.7928659,0.35825244,-1.5712938,-1.9165936,-0.73557496,2.3688366,0.4158498
github/MoreiraLAB/or,2.2823718,1.233756,-3.5348437,0.06303633,-0.15187927,1.3847377,1.0017318,1.5472516,0.6513423,-2.148798,1.4670027,0.28384596,-0.68972874,1.0382534,1.8506001,0.750958,0.22071831,0.92044866,1.8465264,0.24225056,-1.2872347,-2.9632182,-1.5428367,-1.0972081,-0.5078922,-1.786248,-1.109778,1.3274109,-1.1563704,-1.0654854,-0.71145767,-0.66646135,0.5951815,3.332176,-0.436017,-2.710729,0.118087076,-3.5227432,-3.2147024,1.6666209,0.17766988,0.53282756,1.3382066,-1.7535473,0.432035,-0.566522,-0.08848863,-0.4011562,-0.0711759,1.0071969
github/cadop/seg1d,-1.9635774,-1.9343636,-1.8547748,1.1027726,0.82945544,-1.62841,0.013430556,4.735216,0.061415855,-2.1032128,-1.3930082,1.9238102,-2.7705638,-1.4414961,0.42181453,-0.022723095,3.604816,0.6828398,0.24156809,3.3161952,-0.2175692,2.807501,-3.9564793,-0.7207598,-0.45384768,-0.6290926,-2.1139634,-1.3586051,-1.9331552,3.373445,-3.6962345,3.1390314,-1.793758,0.49479935,-0.27825227,-0.12318955,-1.3776283,-2.7905076,-6.2880135,1.2193325,-2.6292903,-2.4790661,-1.3479738,-3.7848346,-1.3000673,0.0026354848,2.3192213,-3.8026676,-1.8321875,-0.45259812
github/mdsteiner/EFAtools,-1.9700059,-0.07969534,-1.5821253,0.015663749,-1.3531144,-3.1443338,-0.6023099,6.096059,-0.21227472,7.416263,2.5663743,3.2458706,-4.2921286,0.88853914,3.6534824,-0.5477924,-0.12286896,-1.5378916,-3.0787027,-2.5914989,-4.6171293,-0.7219556,-1.8053993,-0.50507295,0.80051947,0.30272368,-2.4671934,-2.184436,0.94695526,0.09604319,-1.6438891,-3.0704668,8.083084,-3.3047507,0.75278634,6.670769,0.6988557,-3.8439736,-0.9178467,3.526558,1.4797609,-0.24669467,0.9040176,0.038503163,0.19123249,-4.863099,-2.0925584,-2.4732428,-0.47880298,0.8951022
github/azizka/IUCNN,-0.7749316,-1.5318432,0.42732045,1.5657159,5.2201357,-3.2436125,-11.342361,-4.7151084,2.509206,-5.773396,-5.5759406,-1.3522696,-4.8359814,1.2457907,0.68697065,8.246968,0.76736385,6.0117803,3.9279628,-1.8763684,-5.8152647,3.2324624,4.7344975,-1.0072863,-1.2385896,-2.167932,1.455699,-1.0807431,-4.7307267,7.481485,2.8115237,1.69764,1.4755169,2.442763,-7.281692,4.4587245,0.26108205,-4.801262,1.1645344,2.5987976,-5.3868732,-2.0929613,2.0112665,-5.9578457,0.27749696,-7.2077394,-2.2521958,-2.6263802,5.861969,-0.53027046
github/BioGearsEngine/core,4.8289266,2.0098839,0.44099998,-0.22639586,-1.8127995,1.5179012,3.6930416,0.58849263,0.309183,-3.9242437,5.3459344,-0.05992299,-1.1147302,-1.6567389,-3.1911454,-1.3481903,2.0212665,-0.71593153,4.261854,3.9139194,0.6568645,-5.9987364,-5.6454887,0.7793906,2.6966045,-5.6228538,1.6870904,-0.58934563,1.7826604,-0.3185964,3.7490582,3.5777001,2.577309,-3.3602417,0.49399558,4.606121,0.23056078,1.2856194,-3.9185746,1.9909569,4.5921144,-1.9365405,4.1843576,2.2942302,-1.6727519,-3.7482762,2.9742317,-1.9170233,3.4566872,-1.2134639
github/DrDaveShaw/INCHEM-Py,3.3238578,4.2576175,-1.9599371,1.418135,0.29895034,-1.5250943,0.7023111,-0.46581548,1.5522447,0.5568093,5.533737,-0.09728184,-3.1235254,3.9564636,3.933874,2.3983533,2.6813254,0.036528364,2.2641525,-0.45902655,-1.2613217,-2.271701,-1.163468,-1.2302371,-1.4659221,-1.6982851,-2.854675,-1.4230309,3.973197,2.5825517,1.1922588,1.7642866,0.28909174,3.7694755,-0.21522442,1.2131552,-1.1152118,0.67311347,-3.6439471,0.5613589,4.780557,-2.1069481,1.4990298,-0.11146515,2.0067387,-0.17013936,2.8264832,-0.8323775,1.7933526,-2.431726
github/bommert/stabm,-2.7837272,-0.9255847,0.92014056,-0.5384152,-1.3183392,0.3738405,-0.5140704,1.0421126,-0.22870965,0.715811,3.0277362,3.4047737,-3.7884088,1.433055,4.3494725,0.3699048,-0.0838999,2.1449594,0.15017016,-1.026654,-3.7813418,0.032796223,-0.7349654,-0.6320706,0.17765507,0.098808765,-1.5686287,-0.7933237,-3.616284,0.3891155,-2.348148,-0.04899986,2.7289643,1.6511524,2.073268,2.154206,-0.8865924,-2.7060208,-1.5715492,2.576166,-1.7562484,0.73330283,0.59312797,-3.0925148,0.6348817,-3.630836,-1.539996,-3.1072068,2.2167695,-0.52878124
github/Yomguithereal/talisman,-2.1211715,1.3216373,-3.2449853,-0.8542876,-0.05054006,1.5090913,-0.23244546,0.84508085,-5.0283093,0.07982375,0.3986033,0.8909464,1.6706607,-2.3305936,-3.1049254,-3.287983,3.3803675,-2.0109777,2.632356,0.7617726,-2.3877614,0.6651433,-0.31953976,3.5709493,-0.482024,-2.099643,0.9635389,-3.6011643,-3.1164289,-0.9221584,-5.3224044,0.05214086,4.11281,2.4742217,2.5322754,0.65054977,0.8128607,-1.8208194,0.4379429,-4.3158674,-1.2758815,-0.44259912,2.1681383,-1.0652858,3.3427553,-0.13160397,-1.4916822,0.47247535,-0.19945098,0.40614647
github/ashleefv/ACEInhibPKPD,-1.5824751,1.8523377,0.15394366,-0.69377995,-0.80258924,0.08386886,4.464331,1.891332,1.5033458,0.58211505,7.1462264,1.7913555,-6.2290106,3.1271832,3.4583504,-2.0410056,-1.8265758,-1.1589903,3.5217288,-1.1033745,-1.6802367,-4.1414533,-0.97321725,-0.019903159,-1.1044396,-0.7362089,-0.9632514,-2.5403838,0.8975548,-1.6797742,4.1842527,2.3740728,1.7176067,-0.97435814,0.17154104,3.1526268,-0.4454989,-0.51702774,-3.5551262,0.4630415,3.580863,-1.1290337,0.9899855,1.2432091,-0.03112611,-1.7606109,1.2004098,-1.9245244,1.716033,-0.52206594
github/BioMeCIS-Lab/OpenOmics,-3.5466082,0.56577635,-3.219681,0.09142091,-1.0068926,3.2638893,-2.188348,3.2240405,-1.1473589,-2.4629014,1.3169606,-1.7105211,-2.7230768,1.4906138,0.13807905,1.5825448,-0.9781266,0.40588248,0.5222893,0.72584313,-0.42307484,-0.33562124,-1.9354559,0.5350082,2.4979336,-1.0580845,0.4966814,-0.8261458,-0.1616722,-2.088976,1.047797,-3.4272184,-2.4060204,0.00095881784,5.862985,-2.0837054,1.0905863,-1.4809726,-2.776468,-1.3587177,-2.119142,-3.392428,-2.7317836,-1.8224068,2.378702,-0.41331652,-0.5920696,-1.8122637,-0.3917469,4.726236
github/wangjun1996/VisFeature,2.3980875,-3.1597605,0.648578,0.08308998,-3.1663961,-1.4589298,-5.1680784,-1.1160043,1.4361871,1.8853955,0.95490247,1.0848498,0.647962,2.0328236,-1.7229708,1.0957096,-1.7449915,-5.142811,-0.29510164,-1.628192,-3.1367762,2.2630806,-2.9064708,-4.5177703,0.39712495,-0.6232216,-1.5616059,-3.1739872,0.33481172,2.411833,-2.9178433,-4.478253,2.3118763,1.6352663,-2.5744793,5.0032415,3.3460476,2.8933938,6.926996,2.2679791,1.098909,0.23253748,-5.8336205,2.00774,1.2013967,-1.4417144,0.39126465,-3.1211917,-1.3457215,2.7643921
github/ylab-hi/ScanITD,-1.3660096,0.94272923,-2.8851948,-1.492168,0.77349854,-1.5972626,1.0442603,2.9452958,-1.2881991,2.2103353,-1.9455013,0.7729642,-1.4378123,-2.0520756,-0.7016815,2.5270913,-2.7270257,2.9216244,-2.677754,2.20296,2.4652715,1.0599355,-2.7973037,-1.750704,-0.042797033,2.7085943,0.9870754,-1.7696961,-1.8088626,1.0291579,0.5179909,-1.4962205,0.35762522,2.3003294,-1.1259121,1.3475683,2.9872935,-2.2895598,-0.3950916,-0.6793267,0.8347221,-2.8550718,1.0015596,-2.4740314,0.33150965,0.6085888,-0.16852978,-0.1589334,0.463879,6.596473
github/csinva/imodels,-1.6124997,0.7541744,-2.5695088,-1.0679214,2.6051116,4.072614,-0.67929286,5.4643784,1.1568594,-2.246161,-0.10368352,0.30990767,2.643265,2.377035,-1.7072958,1.5234021,-1.7390106,4.946817,3.2720602,-3.8342776,-4.6299214,-1.654564,-2.4738925,1.1245475,2.2696834,-1.2583431,-1.9409798,0.78293866,-1.5235971,3.00944,-2.630691,-1.2264848,1.8160545,1.5056671,0.085596815,2.8628292,3.8888483,-4.864743,2.3654377,-1.3857642,-1.8236841,-0.053239275,1.980535,0.90989745,-1.4126239,-3.571061,-3.6068194,-7.3082023,-2.2892036,-0.23601459
github/koenderks/jaspAudit,-4.548655,2.5619938,-1.3121587,-6.66442,1.9414192,-4.010135,-1.2016288,6.1510205,-7.080577,8.171784,-4.1272454,10.102593,-12.6170025,5.856211,2.5676255,6.745176,3.6099985,-1.9660763,4.5494423,4.1629677,-5.1244392,-1.9958107,-5.355904,-6.7692013,-3.4739385,-3.224331,-1.0388498,1.7408193,1.3303938,-1.4906174,3.624677,1.0584973,3.9120798,-1.2814121,-8.569699,7.777921,10.2542515,-4.777668,15.178268,1.8963592,-2.0630126,-1.610945,6.0247054,-10.314824,9.374751,11.315137,-3.929749,2.2379572,2.374828,3.580901
github/donaldRwilliams/GGMnonreg,0.3574425,2.1682296,1.0810068,-1.692409,1.2499869,4.243569,-0.7229686,4.460892,3.4088004,-1.2811744,-3.7829719,5.5053325,0.19628116,1.2208205,1.6403127,-3.335979,0.9431557,-2.2875397,0.4490805,-1.1937543,-8.031537,1.917394,1.5261596,-2.5812695,0.68274003,2.009008,-4.7734127,2.5459557,-1.9410224,4.7455893,3.5431428,-2.2915955,2.7419126,4.455901,-4.1030765,3.1549656,4.138786,-0.5941961,-1.510521,5.2195134,-2.707546,1.2626866,-2.5963893,-2.2153544,-1.4548001,-0.7958305,-0.46996748,-4.9598713,2.1446838,1.1351389
github/donaldRwilliams/BGGM,0.22295527,-1.0249943,-3.3226917,-4.652516,-0.16136838,5.3649526,-4.8837304,5.5689774,1.318744,0.9912613,-2.079762,6.2515845,-0.35126877,3.977361,1.7666001,-2.9917283,2.340233,-1.7007868,0.52353716,-5.10544,-10.467536,3.7299893,0.46064237,-2.2146163,-0.6314998,2.9111235,-5.259036,3.9222195,0.79169333,3.5265057,-0.66138494,-2.123102,4.1826386,2.0411031,-5.752806,4.690408,4.1739054,-3.4079561,2.2153153,5.238666,-2.7017183,2.8326707,0.66044754,-4.6643305,0.0011893557,-1.7438709,-0.07341173,-4.8884034,0.7609047,2.441447
github/mpc-bioinformatics/CalibraCurve,-0.11687616,1.5650032,-1.6586773,0.30466813,0.13883172,1.0499414,1.5037589,1.7585713,-0.18503395,0.34634718,0.542405,1.880675,-0.7103735,-0.85545725,-0.077244386,1.1020434,1.1705225,-0.7417392,1.8995093,1.7658174,0.30268094,-1.7314456,-0.7619131,0.0065674833,1.0772052,-1.0001073,-1.9220215,-0.4824026,0.71658385,0.86634713,1.0419625,-0.6411399,0.31661814,1.9198071,0.05376884,-0.18200926,-0.8083681,-2.2650368,-1.8546623,2.3391087,-0.3277698,-0.988889,0.24296343,0.905004,0.8152907,-0.4748248,-1.7684981,-2.0188353,0.5964364,0.54016644
github/neuralgraphs/diman,4.851472,-0.04371622,-3.6620932,-3.2043927,2.236754,-1.4553274,-4.720403,7.4605,-1.3981502,1.3811871,1.4579793,-0.08686054,1.2916803,3.4324546,-0.3265244,6.337298,2.5104988,0.3074819,-2.26136,-2.2752457,-2.1366615,-0.81726503,-2.7798731,5.2255344,-1.1477219,2.0654225,-2.0341728,-4.57048,-0.27867243,-3.160294,1.0574478,-1.4584981,1.3224596,1.3235756,3.0238056,2.1286364,-2.8465924,-1.3723137,3.6913548,0.28882608,0.9945411,3.510804,1.4496157,1.3374441,1.7112856,-0.45789364,1.5059042,3.22466,-1.1620202,-1.9172974
github/poldracklab/nitransforms,0.14526823,-1.4921167,2.6989393,-3.8918576,3.2932115,1.3188993,2.0226898,2.5181284,0.05913242,0.43658996,-0.6634364,1.383235,-2.3856578,0.72053707,-2.0888686,0.11604275,4.6565933,-0.43991894,-2.8391354,-0.14150801,1.8206124,0.5354294,-4.184005,-0.08713459,1.8666377,-0.2031554,-2.8713396,-1.6566303,0.25802675,1.2167591,-2.6018233,-3.279486,-1.8090596,4.030237,0.46103966,3.7806182,-1.532,-0.9888052,0.13800916,-2.0629694,0.5662096,1.0573735,-0.286316,-1.8171915,1.2545774,0.57736635,0.57761234,-2.754069,-5.2970395,-1.1137134
github/omuse-geoscience/omuse,-0.8704904,1.878541,0.17887565,-0.6939188,-0.6068484,-1.3350949,0.5080919,-0.25472742,1.1868755,-1.9362485,1.9312599,1.3451022,0.326623,2.449991,0.8351941,0.463205,-0.1380199,1.3804325,-1.1275611,-1.1605339,-3.6097975,-1.1172451,-0.5177128,-0.62370604,-0.9771373,0.28832406,0.8683671,-1.4657991,-0.7437526,1.6518165,-0.22592096,-0.29058206,-0.98638886,3.16969,0.67618895,0.5625694,-0.56936115,-1.663027,-0.8811857,-1.889271,1.8679891,-0.9285833,-0.82682717,-0.9179076,0.54674906,-1.8861765,3.059017,1.173545,0.62432593,-0.13073094
github/reality/klarigi,-2.4482245,2.2115335,-3.4749117,0.8341853,3.652387,-0.6082476,-3.648714,1.6088244,-1.8407959,-3.4465394,0.99924165,-0.04193056,-1.3401363,2.1333358,0.22778241,-3.9733927,0.47047585,1.3505028,3.6684518,0.977194,-0.041271564,-1.298862,0.30125126,-0.8146196,0.6629171,-5.7068114,0.70114166,0.6289231,-1.5656068,-0.4561849,2.2744584,2.718278,-0.117244706,-0.952971,-1.1412028,2.2577345,-1.6802858,-2.7324972,-0.8742361,0.6239441,-1.9701539,-2.2049818,-0.032745965,-1.8910377,-1.2922705,0.4926163,-1.5667928,0.28669044,-1.1961703,2.923972
github/Narayana-Rao/SAR-tools,3.048167,5.115064,-0.41520455,-0.4181443,-3.538264,1.8522494,4.3710985,5.318718,1.5013199,0.97750735,-2.8514829,0.15397531,-5.2558584,6.1102257,-1.3970994,1.8895319,-2.687235,0.5633639,-1.1154342,0.61091703,1.8267608,-4.752028,-3.46865,1.4265504,3.3331027,-2.0464573,-0.9202543,-3.745477,-4.077498,-1.4646562,5.2942343,1.7008548,1.3699994,1.7597914,1.4944963,-0.8721735,-3.7293193,-1.8578001,-2.7511349,4.4713583,0.094864115,-2.2419753,-1.3513374,-3.5898218,-0.6553033,5.1129317,-3.8233607,-3.008918,-0.64238566,-2.6822982
github/metaOmics/MetaPath,-0.012168189,0.025680108,-0.41200137,0.04830526,-0.26219288,0.56643254,-0.23632175,0.7246997,-0.73537654,0.31104225,0.46569228,0.03025807,-0.24688633,0.09697925,0.67313725,0.10489676,0.01911422,0.39915448,-0.24568366,-0.031737126,-0.02402254,-0.56647015,-0.5792365,-0.76450604,-0.7478813,-0.073661126,-0.08180955,-0.3311742,-0.63348454,-0.06406096,0.2382307,-0.1468896,0.48211268,0.3934362,0.012447391,0.45200488,-0.1871738,-0.3643423,-0.04026022,-0.46212572,-0.17968337,0.57112175,-0.89220786,-0.4242098,0.21645264,-0.046570476,0.24943343,-0.44352165,0.81280714,0.7689932
github/Materials-Consortia/optimade-python-tools,-0.96288043,0.29834014,-5.8877015,-5.048204,-2.0956063,-2.507164,4.91881,3.2088199,-4.663565,-1.8580706,0.23040915,-0.87832093,2.423895,4.740749,-2.2411926,2.8707433,3.8299253,1.7258924,0.6861297,2.1421735,3.4042819,-5.476093,2.3390424,-1.177419,-0.6646887,1.7849417,4.7267866,-0.5098199,5.031138,-0.834727,1.8820156,-3.1077828,3.3740046,0.095768556,3.4209769,0.17564285,-0.90018904,-3.1905994,-0.7153288,-2.6367404,-4.237323,1.7452103,-0.0792716,-0.5929611,-0.66619927,2.3602123,3.57225,-1.2370862,3.8986325,0.89977604
github/skypyproject/skypy,2.4200394,-2.7595134,2.8973432,-0.14101018,0.8242329,1.9634703,-1.0922307,-0.5539523,-0.5769253,-4.205695,-0.572947,1.2643619,-0.4457104,-3.4645965,-5.067565,-2.1624653,0.44651622,0.59083533,-0.25219283,1.6277126,1.5670726,2.52107,0.5450987,-0.2774776,-0.81601435,-0.95797795,-5.3442225,-2.2347596,1.0278814,-0.24723722,1.1364578,-0.7430477,-2.1863687,-0.8172972,0.056976497,2.3112335,0.7975186,-4.2497716,2.9011118,1.3556776,0.18183711,-2.576168,0.5920511,-5.629499,-1.6333603,1.0401493,0.2965387,-2.2604673,-0.31419075,-1.2531801
github/RTIInternational/gobbli,1.5926789,1.0293922,-6.416964,2.0553777,2.7622612,2.103446,-6.329784,1.0895706,2.7846086,1.5584556,4.655038,1.4936867,0.34451824,-1.5511467,-5.797159,-7.248799,0.656407,-1.0940568,0.80275714,0.112243466,0.060669255,-4.0871534,-4.59213,6.7412734,0.73728764,-2.4557242,2.9318545,-1.4579048,4.8481445,5.070349,-4.6976433,-3.9197297,-6.032679,2.6985292,-2.578134,3.1498349,3.1802475,-0.12975533,-2.412896,-6.460888,-3.239104,-1.037935,-1.1617752,-5.35879,-2.1476784,-5.4058495,8.045758,0.081590466,3.7121046,0.88666314
github/alexander-shen/rtest,-1.0912997,1.306083,-0.3263604,-0.9134581,-1.113176,-0.116376884,-0.057126682,0.46830708,-0.025055915,-0.7641304,0.61952686,2.5824072,-0.4381451,-0.6489092,1.1320632,-0.7574328,-0.0038619763,0.76754504,-0.69452643,-0.19952826,0.0066360706,0.36221063,-0.3810556,0.85923934,-0.5343875,0.33132562,-0.65000427,0.021386601,-0.8190353,0.12712105,0.50371665,-0.8926298,0.71660525,1.2304655,-0.60217077,2.1463852,1.7844986,-0.9419471,-0.54415995,1.3535885,-1.4583638,0.6059566,0.6072253,-0.12754321,-0.8061296,-0.26806003,-0.046000887,-0.24384713,0.9627013,0.6820827
github/wvanzeist/riroriro,2.4731,-0.331221,-3.0628293,-1.8107595,1.523634,-4.806291,1.8360283,0.58984417,-1.3363872,-0.9581132,3.3950274,5.289364,-0.3078539,0.74106693,1.8034048,1.5054379,2.1353624,-1.0805472,0.6674967,0.9198244,0.47888988,0.5744644,-0.7608696,3.4899864,-1.0124125,0.58429056,-1.7201705,-3.7951093,0.8318842,2.1229448,-2.8966882,4.020578,-0.434466,0.99715763,-1.0061237,1.0554973,3.5996628,-3.065549,-4.868276,0.10755096,0.6371736,-4.545157,-0.24114226,-3.0869207,-1.4365861,1.7775964,2.2464433,-3.2194443,-1.9748126,1.4574484
github/MD-Studio/MDStudio,-0.86043763,1.3757362,1.3769953,-4.891227,-1.8525428,-0.06243688,0.005849822,0.55672854,-1.8727111,-3.7068655,0.8582572,2.064896,2.6051528,0.8245569,-3.9132707,0.4529805,2.2472584,-3.3853464,-0.89972913,2.1203184,0.07537669,-2.1515324,-0.47431788,0.044617556,-0.061395742,-3.8164577,-0.24017811,-0.3296371,-0.88120085,-4.342779,4.083138,1.2021195,1.6512202,2.9224966,2.312014,-1.1976378,-1.598574,2.3611655,5.0177083,-2.5209599,-1.8965603,-0.5775105,-1.5265559,-4.650645,0.5900369,-1.1207972,3.5015926,0.29621807,-1.5992833,-1.533461
github/MD-Studio/cerulean,-0.2565681,0.007751538,-0.28382143,-0.12565537,-0.05058581,-0.035810728,-0.17244592,0.38993683,-0.27347097,-0.3572221,0.23259506,0.09182011,0.059896294,-0.087951906,0.0195113,0.10376864,-0.06652905,0.095451206,-0.14229941,-0.013234148,-0.017744396,-0.056224864,-0.19249192,0.08851175,0.10935656,-0.15906246,-0.09801549,-0.18971527,-0.060502704,0.081473224,0.21597585,-0.040362652,0.25086063,0.35136592,-0.19801413,0.31957024,-0.088745065,-0.2099018,-0.13105828,-0.18740077,0.19685374,-0.012415797,0.015536762,-0.50113344,-0.076631874,0.20537782,0.036773905,-0.35075805,0.19878908,0.27439082
github/MD-Studio/cerise,-1.1794146,2.6122172,1.2991751,-1.6021914,-0.5621882,-0.14818484,-0.98472106,0.71694046,-2.7784758,-5.4472737,1.4766799,1.5033798,1.9789003,-1.1228265,-1.799248,1.105455,-0.4709284,0.2243296,-1.7987467,0.8810502,0.15530191,-1.915493,-1.0286936,-0.18529035,2.4673865,0.14691556,0.64006525,-1.8585488,1.6858596,-1.4134957,1.8257778,-1.8114231,-1.4362664,1.746057,0.5589537,-0.22090942,-0.46313897,-1.3393103,0.39276516,1.1964735,-2.6462533,0.6749469,1.5035713,-5.3708096,1.4759346,2.0175278,-1.4208399,0.15669946,-0.4434062,-0.68419516
github/climate-machine/Oceananigans.jl,4.710843,0.32400873,1.841486,0.6857066,-1.3381519,-4.661435,-0.18345381,0.9550113,0.80535686,-2.8494143,3.1095715,-4.4110503,5.3506074,2.949447,3.020852,1.8746146,1.3018546,0.29429546,-3.5658264,-4.6902847,-2.9493113,0.759282,-4.1839347,5.1361504,-1.2327806,4.5721216,-0.76007575,-4.584379,1.2779763,2.417802,3.170113,0.6340632,-0.26476464,-1.7145238,-2.7448053,2.3216224,-6.5396357,-4.8279696,1.32664,-3.4328017,3.431762,0.6385165,-1.7171085,0.4330139,-0.25892454,4.8451643,-1.5822545,-4.465434,0.49658278,-5.686785
github/WGLab/InterVar,-4.944084,6.1467338,-2.8962953,-1.5687447,5.6863365,-0.28634894,-1.0576805,-1.6852547,-2.8396025,-1.8609774,1.0940554,1.418491,-8.332032,-0.17586578,-0.28879565,-0.7903999,2.6315193,-1.472432,-0.39146364,-0.137831,5.07776,3.2093625,-4.6065273,1.0474397,0.8535361,-0.5384619,-0.29163858,-1.7829522,-3.8196144,1.2186,2.5252013,-2.9644182,-0.4883559,3.082539,0.7013084,3.7060602,2.3260174,2.1819584,-5.2896743,-0.5285886,0.21130563,-2.3854566,-0.2928617,-1.8453735,-1.9474912,-3.7587767,-3.6174483,-0.98246866,-0.3088386,9.66725
github/nlesc-ave/ave-rest-service,-3.9452207,0.531769,-0.6309389,-2.0116591,2.8354876,3.530481,-3.8047323,1.757808,-0.9255187,-4.109931,-1.512076,-1.0648761,3.2662706,-2.2759383,-2.2106588,-3.961787,-0.30616024,0.68124336,-2.5765595,3.6352494,3.693374,1.2824674,-3.3692975,-4.273672,3.226269,0.3889895,-1.095654,1.0843191,-4.6694484,0.3166932,3.3040242,-2.574442,-3.346061,2.5380428,-0.6058579,-3.6979933,-1.6902333,0.2867613,-3.5169623,-3.5610776,-2.7931805,-0.8043244,-1.7378564,-1.7253429,-1.2180191,1.4190519,2.6493618,-3.9985325,3.6667519,5.697663
github/gtayana/CVRMS,-2.6915786,-0.6293994,-0.73042387,2.8482795,0.49772084,-2.9974525,-0.17287715,1.5144707,1.0657935,0.804785,0.08762236,0.5385726,-2.3549335,-0.022100387,1.4358404,-2.7958078,-0.03758477,1.1020353,-0.41969538,0.41843912,-0.87179947,-0.77048874,-2.0122368,-1.1276834,-1.200389,0.99464643,-0.2607608,0.18187091,-3.6022346,-0.5404923,0.8687396,0.43080676,-1.4290416,1.094044,0.2755453,1.5430977,-0.03661683,-2.1853986,-0.4612061,-1.4672183,0.198328,-2.2902389,-0.27997813,0.08919483,0.37347555,-2.347479,-2.3616025,-1.5429187,3.3231704,3.7943444
github/hansenjohnson/WhaleMap,-1.6706786,-1.2012876,2.932544,2.4514701,-1.0919904,1.1290466,1.2105492,3.1665618,-0.93403506,0.39623916,-0.98007315,0.0789086,0.8116869,-0.35251343,1.8428173,4.3078094,2.751434,-1.3420175,0.42028096,2.8290143,1.2583025,-0.6685652,-1.3089156,-0.4873366,1.1396663,0.5968635,-1.6607854,-0.9690259,-2.6125093,2.115592,1.746224,-3.8915422,0.25769672,3.8443522,-1.6404312,0.47524148,-1.4949756,3.2572532,-1.1891128,0.36155224,0.6719228,-1.5270325,-0.6151302,-0.2446674,3.7408943,0.4204299,-0.31617206,1.7369831,0.08371902,3.1433704
github/Sulstice/cocktail-shaker,3.3172479,-1.144666,-3.1327868,-0.8903558,-3.1069078,0.56992537,0.9522081,1.6537312,-0.5789415,-4.0435705,1.5762234,-2.9913323,0.6951984,-0.9030932,-0.0642432,0.92985,0.10387591,0.16647941,1.2211037,3.4907014,-0.32876244,-2.6641161,-1.3224932,-3.0390124,-2.5523236,-0.33870482,-0.6230097,-3.8550391,1.9868422,-0.4115108,-2.024678,1.8066149,-0.89729625,2.536377,2.6111255,1.9443144,-2.5832407,-0.86836207,-2.8917818,-0.014985647,0.0054376028,-1.3310803,1.6800435,2.2365694,1.2139747,-1.3795897,0.08607232,0.7128612,1.2678041,1.9669372
github/virgesmith/neworder,-1.3958883,-0.19257462,1.284301,-0.48027056,3.5875545,2.1175246,0.9637774,0.27556083,0.50132984,-5.399537,-1.3186668,2.035397,0.943612,0.9818431,-0.4288128,-0.33226612,-0.5256073,-0.08932202,0.8770891,0.550325,-1.7680951,4.154367,-2.5917816,0.33373648,-2.7997184,0.7645958,0.98924077,-2.5904715,3.7232509,-3.8607454,3.52425,-0.22514696,1.6705303,-1.055128,0.7946824,3.3567858,1.1466186,-6.586402,0.43274528,0.36469105,0.5335992,1.1463981,-1.7053711,-4.2475243,3.877144,3.366237,2.0642712,-1.0947347,0.28980222,-3.1576326
github/rajeshrinet/pystokes,4.02473,-0.17008483,-0.91029173,-3.3341193,-0.98482823,-3.939298,-2.38452,2.5812242,-0.49839735,-0.4860912,5.221562,-0.33132076,-0.2632022,1.2039889,1.4642376,3.9426725,0.81663066,-1.1827949,-1.5542974,-2.1368968,-1.6394817,0.8571406,-2.551811,2.9059963,-5.900144,3.0277941,-0.47195515,-3.9698389,-0.62016565,3.1064677,-1.1969712,3.038872,-0.34120172,2.2514102,0.6245751,-1.5424764,-7.7253757,-3.7845943,-3.3533664,-0.6846783,0.3399476,2.4643133,1.2671694,-1.4405932,-2.2915623,2.5065706,0.17682931,0.6502749,-0.6356082,-4.5908966
github/auranic/ClinTrajan,-1.3770489,2.312647,-3.521047,-0.75689715,1.8338826,0.62254685,-4.187368,4.4629197,-0.6365294,2.367755,-5.3686943,-1.5176767,-4.150725,3.366762,3.3118017,1.5335718,-1.316695,1.3675283,0.119823426,0.009140071,-4.5222898,-0.13337195,-2.2357757,1.0950994,3.3696945,-0.021289807,-0.6084566,4.9131064,-4.083589,-2.8351698,3.2121897,-0.29500934,0.40970373,1.7299918,-0.87082106,1.8161999,-1.9375919,-1.1582416,-3.2487984,1.5796523,0.7407637,-0.5463844,1.0391779,-2.25471,0.12192428,-1.5104203,0.058661304,-8.273712,-4.107611,-0.2665703
github/spectrapepper/spectrapepper,1.5318847,-1.191611,-1.4538411,0.42403454,-0.32498822,0.023917003,0.28006184,2.3086472,0.2442329,-0.89146686,0.45048222,2.8037899,-4.0439897,1.2687609,1.2037545,-0.038272932,1.4384253,-0.048881102,-2.5732336,2.7689815,0.7697753,-0.43263164,-3.7770574,0.05136726,2.0289762,0.24843757,0.09564817,-2.7448456,-2.825519,0.081234634,-1.4801232,0.6657325,-1.9587804,0.6529021,2.3046794,1.3011742,-0.16643113,-4.4686656,-1.2496102,0.21221796,3.540253,-2.342886,-0.67483926,0.16629633,-1.3042564,-0.18337443,2.4522607,-0.9017284,0.59392834,0.21783765
github/vavrines/Kinetic.jl,3.4059134,-0.24188389,0.37526006,-0.7682654,-1.5585425,-4.8016744,-1.4752301,3.7162488,-1.3788995,0.11776536,3.1118753,-0.80146205,4.5575128,0.7846417,2.5763838,2.5819263,-0.14636979,-0.2013454,-0.32828534,-2.8708086,-4.864346,3.719828,-1.2076634,4.707559,0.90364426,5.2705946,-2.0995383,-4.097546,0.15925321,-0.036941186,2.980232,-0.88925743,-0.5155061,0.53698146,-0.5805733,-0.3358938,-4.299499,-4.913501,0.7927276,-5.9891677,3.9683702,4.3291903,2.4161465,0.29730365,0.3004748,2.9489129,1.038047,0.53580403,-0.29043052,-5.1710954
github/ziyewang/MetaBinner,-1.4893471,-0.14299196,-1.7431533,-1.6126107,-0.99418396,0.2645903,-4.3004975,0.58680606,-2.1253123,-3.0078442,0.15217336,2.0722399,-1.3202353,-2.7085943,-0.6734322,1.179129,-3.2171438,1.5316311,-2.1122417,0.86994934,-0.6259346,-0.48801747,-1.3950036,1.0375141,-0.17385352,1.7906564,0.81558985,-3.4645455,-2.9419396,-2.0981421,0.8591799,0.90612596,-0.37408584,0.978479,-0.4539422,-1.3094091,-1.0365559,-2.1121156,-2.010327,1.0943837,1.4886646,-2.6128943,4.701226,-2.3250544,2.8062057,-2.3604674,-5.7399263,-2.1769438,-0.33637735,6.800758
github/ziyewang/ARG_SHINE,0.2829314,0.41844395,-1.0231289,0.56680614,0.15371391,-0.059303097,0.07429527,0.0004944102,-0.59333724,-0.4600327,0.9092428,0.17322786,-0.5183615,-0.29728064,0.6091869,1.6094494,0.23921764,1.3562629,0.96299833,2.1631012,0.61474943,-1.1770942,-0.5004652,0.27000567,-0.21361184,0.70936185,1.5150853,-0.94875807,-0.6471251,-0.008535504,-0.47752562,-0.28348887,-0.49554712,2.2713556,-0.63238496,0.0025744452,-0.21305028,-1.490635,-1.8735499,0.37694636,1.0367396,-0.32290855,-0.7955098,-1.4757699,-0.9369146,-1.5483826,-0.8146025,-0.81084543,0.24726012,2.1020012
github/meenakshi-kushwaha/mmaqshiny,-1.1895967,1.953482,2.1440947,0.8520401,-1.1223985,-2.424458,4.039051,2.568483,0.2071198,6.018931,6.179072,2.774792,-8.057523,4.5451117,1.7632879,1.0150435,2.8073556,-0.87040997,-2.4245317,2.5270178,1.5245278,0.06097606,-3.9011974,-1.6450769,1.1945072,-1.6321945,-5.8700643,-1.2148321,0.8115698,3.9133475,3.1894934,-1.8354915,1.0198858,1.2973458,2.9648669,3.1694536,-2.6291118,3.2492566,-2.9557083,1.9045688,4.1137257,-2.5585153,-0.6748767,0.26017863,1.4675575,3.840109,3.1187153,1.9307721,-0.2917796,0.15979156
github/sibirrer/lenstronomy,1.5729799,1.6268166,-1.0285473,-1.4460261,-0.7540159,1.3886806,0.70640147,0.30586886,-1.7658074,-2.2934797,-0.49213994,3.5473201,-1.9951295,1.6229769,0.9156117,1.9384502,1.9311441,-0.63856,-2.6627266,-0.8036808,0.5482917,0.9961366,-0.38033718,3.8049283,2.3342147,2.3073118,-3.40929,-0.7903771,-0.011230224,1.9581001,0.26098755,0.72082573,-0.59791374,1.354164,-1.1721203,2.3051252,-0.9597377,-3.140186,-0.37835813,-1.3985782,1.5752305,-4.006288,-0.08653179,-0.976241,0.45035076,2.0787756,2.1870651,-2.6496522,-3.7234383,-0.6435963
github/kuadrat/data_slicer,0.11507151,-1.6985942,0.8218965,0.9107408,-0.9722946,1.2387817,0.10647478,3.1717017,-4.625786,1.7890979,-0.3152141,-0.48556963,0.37509507,4.200133,1.508369,3.0541308,0.08152809,-4.3962283,0.08989408,0.60601276,-1.7531306,-0.36864966,-3.3371167,0.97342956,1.9070421,-0.7618982,-0.8959088,-2.2482653,-1.4755896,-0.6470327,1.2393985,1.4768924,-1.4396558,3.0934784,2.396498,0.9558992,-1.6940857,0.46556398,1.4510053,2.195374,1.6656199,-2.564539,0.3828682,-0.8176507,-0.35766888,1.4798247,1.9590921,-1.5785172,-1.4860429,0.019593496
github/mazzalab/pyntacle,-0.23811166,0.24398807,-3.4548814,1.6796298,-3.5153017,-2.8957858,-2.62045,-1.1225349,-1.1673958,-3.2106085,1.7329667,0.85255253,2.3607187,-0.82984924,0.38528797,-0.47087115,-3.8139539,1.3352363,1.3811038,0.37372154,0.20338406,-0.6433456,-2.004879,1.9484271,-0.9529422,-0.252918,-0.38736752,0.43933016,-0.7674574,-1.1344444,-1.268712,3.0584528,-2.5548868,2.218277,-0.067427136,1.4585639,0.96654326,-0.08673871,0.9663174,2.320522,-2.7103384,-0.24694109,-0.14894971,-1.3353733,1.6192895,-2.2705142,0.16143332,-2.878246,-2.4113345,0.9134504
github/rodluger/starry_process,4.627898,-2.7442112,-1.5482837,0.14461184,-0.7382508,1.7703662,-0.5445429,1.568731,1.070729,-1.7288402,1.8586489,-3.1784093,0.58181715,3.3111262,-2.435713,-5.7332172,-0.26678008,-1.7629968,-1.0590274,-6.781453,-1.4525834,-1.5096669,-6.8467817,3.1447175,-1.2475389,0.47104958,0.21139231,-7.174708,-4.5035076,1.6863751,-0.34157047,-2.8871284,-0.077737786,-1.0636461,0.97937816,2.0109346,-0.45644647,-2.3169885,4.5638967,-1.8750124,-1.8128855,-1.5307248,1.9268962,-4.567502,-1.3304634,3.018001,0.31468132,-5.7375913,-2.8154693,-2.6539335
github/research-software-directory/research-software-directory,-0.8275663,2.676888,-1.6219813,-1.3078208,2.3633826,0.5760499,-1.0933657,-0.8926714,-7.0128155,-3.3065505,0.15352558,0.22741179,2.125646,2.355265,1.3022753,2.4912736,1.8317637,-1.8898469,5.5248857,1.7860262,-0.91386193,-5.429315,1.0202397,-0.19032393,2.5464513,-1.3278209,-2.6464097,1.0807627,3.093193,-2.5180573,6.6880703,0.39228898,-0.48843765,0.8795497,-0.20124719,0.06759637,-0.23843999,3.8242688,1.5222069,-3.7882373,-3.7707727,-1.5910923,1.1820617,-3.3875558,-2.1051908,1.8355596,2.809475,1.7251756,3.5353146,-1.6757959
github/tudelft3d/3dfier,2.5417016,-0.26573476,0.18072963,-0.23555112,4.86674,2.2545507,2.5789309,-3.7356062,0.78233147,2.2766106,-0.5564475,-2.990641,-1.0628599,-4.4280143,-0.4575714,-0.8688811,4.8450174,3.8261302,-2.5703056,1.0955386,0.70353,2.1263425,-1.08588,-7.2560644,2.22141,-5.507816,-5.825237,-2.5018682,0.4051449,-0.22199456,3.3541641,4.9181986,-3.5865386,3.5173917,-5.5429826,8.186387,-4.244454,-4.439378,1.2657346,-1.10924,0.42616326,1.4254323,3.5335221,-2.4897552,-3.2261062,-5.380703,6.0418005,0.19750237,2.8487813,-6.106829
github/ouyang-lab/PRAS,-1.8106842,3.3426318,-6.601507,0.30954897,2.5245726,-0.20885785,1.2547148,0.4547517,-0.7752679,-1.6597236,0.32807633,4.0132737,-2.4908485,-1.2812644,-0.13057645,-2.3139772,1.5905496,-1.4546524,-2.055683,3.588399,-1.8609064,0.41495082,-0.7857318,-4.836895,2.5977352,-3.1434686,0.28180242,-2.6621513,-4.5460978,-1.2266327,3.286882,3.299611,-0.9976977,0.44605705,-2.308738,-0.585922,1.5061697,-2.1383698,-1.8812319,4.855466,3.433638,-4.622188,-2.3459277,-4.9769974,-3.1671193,-3.3634477,-5.3653345,0.01443768,4.1415644,9.478124
github/r-cas/caracas,4.536814,-0.16621266,0.95928246,-2.2752333,-2.0228567,-3.6154883,-2.6978033,2.7308762,1.130738,2.811745,2.2420058,-1.1118978,-1.4546517,-0.13882062,0.16697657,1.9141262,-1.050621,-3.585827,-0.83357185,-2.377768,-4.4054503,0.92993855,-2.3634665,-0.2168648,-0.6448248,0.19841322,-2.0347128,-0.42063886,0.105119914,0.3430419,-1.9706156,-1.5186803,3.1665342,0.018996043,-1.9467103,2.9189084,-1.5883709,-1.7015051,0.18495756,1.3900352,-0.23590565,2.7119987,-1.6811689,-1.143479,0.18800253,0.49787617,-1.2668114,-0.7457031,-0.21615301,1.892812
github/brian-lau/MatlabAUC,-0.96025175,-1.4925698,2.4899805,0.4416363,-0.91999805,2.0196807,2.4636362,0.15404664,3.277278,-2.0485795,1.3677989,5.65023,-1.4092845,-0.460677,2.8728335,-0.36253792,0.65336484,-0.22157483,-3.5226383,1.2391969,-4.068173,0.9653585,-0.6685676,0.029740885,-0.19338976,-0.45811036,-0.23516399,-1.4769216,-3.533427,0.7275793,3.610656,1.2333062,0.15075928,-0.00085845735,-0.83196956,2.6638722,2.990763,-1.7912753,2.0914478,-0.35480043,1.0843644,-1.2655447,-2.0247805,-1.2330296,-0.29231432,0.33994249,0.57085043,-1.8960726,0.31807852,-0.28690127
github/mlpack/mlpack,0.6682965,-0.9521116,-2.9493327,2.590508,-2.0091712,0.35397166,0.57303494,-3.194634,-1.5483385,-1.2590734,1.3803486,-2.0933733,2.363546,1.7545003,-1.6049634,-2.0367005,0.742163,3.970416,-0.49777895,-2.0703814,-1.8262045,-0.061471738,-2.127644,-0.36474907,1.9259574,3.8323653,1.7914609,-0.71378803,-0.87872314,1.6609563,-2.3571038,0.34452924,-0.411002,-3.180546,-2.0389771,2.5280936,2.3419278,-6.497093,0.90188867,-0.9177662,0.31440628,1.2952987,-0.2994343,-1.0394989,-1.4426013,-3.250372,3.0614145,-4.695606,0.29711887,0.68240803
github/yaml2sbml-dev/yaml2sbml,0.1526203,1.9834114,0.26101935,-2.5130603,-0.010711834,-2.7964196,0.051287405,3.7844973,0.20249087,-0.048827127,2.9774132,1.6635162,-0.8431395,3.8312743,0.94086325,2.237369,-2.2563667,0.5346757,3.1798315,1.4494656,-1.574928,-1.7310404,-0.54755205,-1.416211,-1.2849567,-2.4081812,-2.5426145,-1.0536474,5.651522,0.5962747,1.1685952,3.5661225,-1.6983322,1.0115281,-1.6944863,1.3539824,1.6643401,-0.89049387,-2.1982064,-0.7803883,1.561895,1.9346633,-0.2029995,-0.113984466,-1.0152347,0.29483995,-0.04956677,-2.4735277,2.90265,-0.40097234
github/qMRLab/qMRLab,-1.4136394,-0.014423174,2.5578763,0.042622954,1.1074225,0.96542424,3.0866544,1.9051359,2.2872927,1.0300115,4.463543,2.4353037,-0.108348854,-2.826107,0.51363385,-1.4593123,0.66787386,0.2662289,-1.3069841,-0.14306438,0.96185386,-1.6628712,-4.699822,2.1192424,0.0017304542,0.8090808,-1.635555,-2.7407353,-1.8053783,0.41151744,1.2915572,-0.2879884,-1.0692701,0.37351283,0.23417,2.4297328,-0.90091556,-1.2382389,-0.7625168,-0.064015456,2.0891433,-1.8417735,0.076242745,-0.4256973,-1.7817508,0.287392,2.8856523,-0.7902315,-1.4015002,-2.2868774
github/Computational-NeuroGenetics/deMeta-beta,1.5654081,3.4753485,-4.220435,-1.6956587,2.8690896,1.7241626,-3.1756637,2.5302627,2.0155714,1.0217105,1.252072,1.1707664,-2.9451444,-1.1741726,1.5349883,-3.1965952,1.1867387,-0.34260663,-1.3635066,-1.025683,2.334275,-4.5634937,-2.3466496,-0.6601978,-2.3848803,3.8892043,-0.2243324,0.4900134,-2.8900354,0.59018373,4.8527484,-1.1121535,3.0920515,1.8039354,-1.1946678,5.4179783,1.9810137,-0.82445836,-0.97886324,4.6762357,1.2995944,-2.5514424,0.9299653,0.01601093,2.7816577,-1.1469734,-1.3914521,-1.0485839,0.66237384,3.4849753
github/bhi-kimlab/StressGenePred,-1.8600473,1.9964662,-4.3186054,0.2120912,1.7048762,0.8875098,0.61072177,2.7812839,1.6000366,-0.21723677,1.8973095,0.33044824,-1.2626017,1.0614817,1.1898117,-2.2494373,-0.8032635,4.545099,-1.8924686,0.3792548,2.2943215,0.8236409,-0.5788534,1.1953961,-2.7920108,-0.6662455,0.20320465,-0.8156336,-1.0755432,-2.0369275,0.6176295,1.7599511,-1.6418666,0.6690269,-0.25544992,1.2440093,0.7002412,-2.1386137,-0.1744161,0.52074534,-1.0995651,-0.1888454,-1.2669538,-0.8683193,2.3610675,-1.140949,2.190655,-2.04391,2.3736932,4.636665
github/compomics/DeepLC,-0.54555196,2.0864387,-4.8694067,1.4611679,-1.1593956,0.6448253,-0.5418574,-0.5159617,-0.28921366,-1.5545919,1.4696687,0.7381094,-0.88417345,-0.010518605,0.44350377,-0.30314183,-2.8437204,1.9933676,-1.1616703,3.9262125,3.2417686,0.55865765,-3.2068083,-0.32916087,2.0257938,0.49101055,-1.5793153,1.3977536,4.543085,0.35449782,1.9693929,0.67836,-1.8259193,-1.232149,0.32148546,2.268636,-1.4905668,-0.64247847,-2.202346,0.73752284,-0.5471336,-2.960629,2.3392632,-1.2355067,-2.216361,-3.9793675,-0.2649038,-3.0530553,2.7765257,1.4333383
github/compomics/COSS,-2.6253707,2.4425707,-4.2747107,3.0492554,-0.19961692,0.23421596,1.7293006,4.9954896,-1.9600444,-0.50616264,3.1673303,0.40107605,1.7526665,-3.0785913,-2.9204638,-0.91034555,2.6869826,0.7782131,1.5834787,3.726053,-0.16249545,-1.3612684,-3.6268644,1.9874154,2.8667078,-4.1327252,-1.2150784,-4.8748717,-2.4542549,-0.46857595,1.4440826,5.548036,-2.035547,1.568941,4.7551594,-0.66439277,-1.0774026,0.4776901,-2.7679088,-1.124411,-0.7758866,-0.38870332,-0.77747095,3.354604,-3.2534058,-2.7756305,-2.00197,-0.6628875,1.1332315,1.9339837
github/compomics/xilmass,-0.09501832,1.6530399,-4.7113867,0.753346,-1.2448616,-0.07537671,0.099995606,1.1239992,-2.6538815,-1.9193766,1.7251441,2.2150733,-1.0307323,0.4728661,1.7122087,0.7556039,0.58069885,-0.5633633,0.045337178,2.5300512,0.36824876,-1.7853541,-0.059232283,-0.18577623,1.6339171,-1.2019348,-1.59662,-1.7609501,-1.5583577,-0.32765883,0.36344138,2.3788323,-0.900435,3.322634,2.8150976,0.45825943,-1.4029046,-0.9602477,-2.9959023,0.050418314,-2.087934,0.63800925,1.1951389,2.3622386,-1.2045542,-2.8945765,-1.6454357,-1.4928643,0.40637955,0.3949003
github/KiranLDA/PAMLr,-0.44507974,-5.313693,-1.5111281,4.227862,3.0588727,2.8423104,0.6095348,-2.349695,2.5801525,0.7292991,-1.4370257,0.92161703,-4.928945,1.5206364,5.429219,0.6479162,-0.6070009,0.027088271,0.6809083,-0.10089447,-1.935903,-1.9381429,-0.85910916,-2.586436,-0.56156754,-5.02971,-3.6585515,-3.1628413,-1.9644498,3.7270205,2.411307,1.3912332,-1.8445506,0.5385201,1.3104373,2.2512438,-3.9106646,-0.06327692,-0.010352234,1.2799767,-0.79698706,0.38229135,-3.013041,-3.7824183,-0.55391484,-1.4115281,0.16207957,-1.9223113,-1.6481743,-0.26159433
github/BartoszBartmanski/StoSpa2,6.5284567,-0.61345345,-0.2947934,-1.0884391,1.0867594,-2.3001344,4.082123,0.35922012,4.031449,-5.9262457,7.4116054,-0.16581574,2.4419618,1.3227859,1.1387987,-4.740818,-2.1446662,2.0317795,1.3180623,-4.369354,-5.344466,3.4408278,-0.45332795,-3.3931537,-5.8732653,3.8710961,-2.4169855,-5.6411853,-1.1149096,2.835747,2.607275,2.5336654,1.812503,4.0577416,4.292726,2.567168,-4.5309553,-3.4510841,-4.5193906,1.8399433,5.0898285,-2.2917855,0.6450631,-2.6736631,1.0089735,0.53043145,5.0082545,0.62897485,2.0233154,-1.5298007
github/wangchao-malab/DeepAc4C,-1.4399222,0.3330493,-0.84019816,-0.87081766,0.37663078,-0.6725082,-0.27333683,-0.10381108,0.88641393,-2.4866874,-0.26891845,0.7519425,-0.07208474,-0.21804267,0.5108948,-0.05462163,-0.9654864,1.5731903,0.4702885,1.8554574,-0.027719667,-2.7509234,-0.6654091,0.34203273,-0.117057025,0.70506066,-0.21072938,-0.22766127,-0.28797188,-1.2552061,-0.07510654,0.4678925,-1.1017954,1.606528,-0.8143293,0.12917188,0.30365086,-1.9896477,-1.0372695,-1.4262744,-1.3345631,-0.70798635,-0.19499262,-1.8006852,0.7408845,-0.8466339,0.1748582,-1.2528927,1.1538113,1.8353738
github/sorenwacker/ProteomicsQC,-4.8259335,2.045226,3.0475204,-1.6168194,0.7687118,4.700936,0.67261297,3.4164639,-4.0675907,-3.9070585,1.8918445,-0.9158234,-1.23108,-5.7870603,-1.2155391,1.5677096,1.6181146,-0.51304847,1.6395333,5.240099,6.2027793,-2.7871587,-1.9432247,-1.628019,2.1388552,-1.354751,-1.2074118,2.9040105,-0.4422503,-0.51889765,5.332027,-0.159283,2.6668017,2.673718,5.060588,1.5591229,-4.1967406,3.50377,0.0948816,1.1735753,-2.8654015,-3.1096218,0.51328224,-0.16547084,-3.331821,-0.31739235,-1.839602,-3.8424747,2.0397038,4.4452906
github/richteague/disksurf,3.321494,0.9058275,1.7529147,-1.1209995,0.94613755,-0.3500123,2.0194135,1.0766443,0.017576821,5.918923,1.4849724,-0.077102944,-1.0907074,1.0217463,2.603878,0.82151324,0.9734111,1.8338159,-0.9356482,0.7522615,-0.9002185,-0.26516473,-0.78115106,0.30840433,0.85758805,0.5873449,0.15206908,-7.046326,-0.96177167,3.3062449,-2.4331481,1.3806815,-0.6584511,2.691056,3.0319467,2.3529649,-2.53536,-1.3093008,-3.5520115,-1.2781388,0.5370992,-1.9444829,0.870896,-1.9502134,-2.501405,2.995996,1.3374181,-0.677684,-1.7274171,1.1999767
github/InsightSoftwareConsortium/ITK,-0.3422751,-1.8164064,2.187773,-2.581674,1.4134722,1.8722978,1.1924154,-2.9316049,-2.3277714,0.45170504,0.43704024,1.1573752,2.3696258,-3.2989373,-4.2336435,-0.35415506,1.4956712,2.0221317,1.8892729,-1.9306169,2.5927465,-1.6006365,-5.811539,0.42484993,3.8316019,-3.2765388,-0.287773,0.69189405,-1.658262,2.901586,-2.3901806,-0.9460554,0.49083874,0.05797428,-0.9728286,6.914691,-1.6671913,-1.726493,1.3868315,-4.972332,0.74618435,0.31689498,3.2820115,0.15421908,0.9086237,0.4845508,3.7724104,-1.7995585,-4.4763927,-2.8461335
github/saeyslab/PeacoQC,-0.5990968,-0.6551758,-0.11798946,1.0861661,-0.45052052,0.51752716,0.014936241,1.0035939,-0.39881778,0.11194982,0.5761506,1.0778264,-1.3641846,0.09034209,0.9725664,-0.014833313,0.6842086,0.7079741,-0.482994,0.939309,-0.018444413,-0.21409333,-0.3658125,-0.65108633,0.4931676,-0.75887865,-0.6741173,-0.8895478,-0.84571856,0.48071367,1.0519611,-0.3150321,0.10209639,0.41212362,0.04267674,1.6477911,-0.02887917,-1.1270888,0.5656552,-0.20038289,0.2505819,-0.3572236,0.24743827,-0.71015614,0.47354606,-0.4052197,0.7425149,-1.444286,-0.16421793,1.4748399
github/saeyslab/nichenetr,1.5458909,-0.9181259,-4.4624753,3.898428,7.258767,-3.4786718,-6.5998836,-3.3702016,1.4704167,-4.984946,-1.2401618,-1.0554903,-2.668788,4.349489,2.601727,5.113015,7.993586,-2.0094447,-6.498475,0.6613764,-9.971659,-1.4349035,5.6366205,-3.7138152,-4.4347796,-5.925152,-3.1411104,-1.5093476,-2.1348155,0.4294974,3.4312334,-0.94077843,3.4999807,6.3534245,-6.424094,-6.4452686,3.6485486,-9.899018,5.6923604,7.3296556,-2.9794638,1.1962568,-6.8506308,-3.6032176,-0.3528734,0.01502197,-1.5200149,-2.52338,1.1710953,8.705211
github/saeyslab/CytoNorm_Figures,-0.14384387,0.21914545,0.36420548,0.11990998,-0.24106096,0.1765116,-0.13407907,0.37376165,0.012992976,-0.15597901,0.51681685,0.22298996,-0.15500398,-0.15916045,0.028238792,-0.15742639,-0.046086427,-0.0008692583,0.29251075,0.19015601,0.006407152,-0.32271525,-0.2133378,-0.36400825,-0.44448826,0.02213425,0.19091967,-0.31833014,-0.2909457,-0.2163901,0.23620893,-0.33391738,-0.07226854,0.38719338,0.15998401,0.8735193,0.032739095,-0.082017444,-0.4756083,-0.46609294,0.05566323,0.14865497,-0.10574616,-0.5954598,0.15071665,-0.2642943,-0.051753502,-0.24956927,-0.07947995,0.25065812
github/SunilAnandatheertha/PXO,1.9160951,-0.37640408,0.891643,0.30262735,-2.2682757,-2.1435423,-0.737643,1.592331,-2.5850873,-1.9162899,2.5695775,0.22147258,-0.8298004,1.3066719,0.0012321039,-1.2219819,-0.7637485,-0.2867266,-1.6051245,0.37760606,-0.6565983,-1.4544302,-2.6094038,0.22060882,1.5262824,-0.46414357,-0.5129008,-0.28746286,-2.015558,0.4330649,-0.555688,-2.6751218,0.92395717,1.8285191,1.7452677,0.92739403,-0.36610138,-0.0114222765,-2.0133338,-1.9818583,2.7409518,0.10497105,3.0365446,-1.5591694,-0.15718746,0.8160185,1.3779626,-0.5567111,-2.2921808,-1.5490541
github/zarr-developers/zarr-python,-1.3886515,-2.396607,1.4754548,0.26429498,-0.3612977,1.1341983,-1.0396847,0.043934286,-1.7488476,-0.096672535,0.80956614,0.04537746,1.2407762,2.0573628,-3.2073457,0.744904,-1.5039318,2.3476453,-0.26872241,-0.28350636,-0.68423575,-0.88123345,-2.9740334,0.7683113,0.6217246,-0.114739865,-0.7993055,-1.8454808,-2.4453917,-0.850359,-0.046137128,0.14779815,-1.4498669,0.067525305,1.9113181,2.189803,-0.6129334,-2.1029575,-1.103494,0.5873321,0.32391036,-0.13839927,0.7374276,-2.589918,0.95815027,0.9668323,0.13794373,-1.850047,1.6262808,-0.06911031
github/lrnv/cort,1.1153098,1.924521,0.116984054,-0.40198147,-2.3952963,2.734393,-1.2296995,1.9903489,3.848259,1.5721267,0.06461919,2.7369025,0.17165133,0.9853584,0.030421767,0.08695408,-1.5461636,0.33336923,-1.4912542,-1.4872289,-4.462923,3.2280967,0.2947546,-0.93995726,1.1489549,1.3340745,-1.5788941,0.7078705,-1.4349532,0.8635804,-0.6294187,-1.3387123,2.7920158,-0.018417006,-1.4598339,3.1138086,2.8730838,-4.046469,-0.5902505,0.1460361,-3.4138484,-0.09130915,-1.5196396,-1.1747231,1.0312166,-0.5406833,2.3716135,-2.6791239,-0.88621384,0.5405443
github/lydialucchesi/Vizumap,-0.44197047,-0.29298797,3.9320903,-2.5855954,-0.7022966,1.3996141,0.08242264,-1.8680851,1.0985628,1.6256701,1.203432,2.4188204,-7.547117,3.4686272,2.4965029,-0.31523874,3.9397464,3.6193411,-5.32543,3.858081,-1.4482398,1.152169,2.623815,-2.4898145,2.497697,-0.14088489,-2.4798546,2.5949886,-2.871966,4.6137877,1.6166517,3.0966291,5.379774,0.4462993,-2.8406057,5.85758,0.7120028,0.7226899,0.7333658,-1.9193052,2.6170173,-2.749641,0.24490678,-5.007276,-2.0064242,0.8505616,2.126904,-2.0360901,-4.7196727,-0.10814442
github/reproducible-biomedical-modeling/Biosimulations,-1.9418632,0.12837747,2.3975353,0.7374371,-13.197365,0.98142093,-2.3197823,8.886122,-1.4051839,-5.199695,5.291791,1.3053406,2.8424718,1.7791888,-1.6063743,0.37593848,3.9310246,10.252227,3.5495992,7.434621,6.249784,-5.575994,4.9032364,1.1084213,-3.8569214,-3.7501552,-0.64164317,3.9442158,-0.74595517,-0.43449515,5.3013973,0.18022472,-0.7174076,1.4824135,4.0298195,0.6015292,4.8596516,3.6142175,0.6331291,-6.5573697,1.7746233,2.017903,4.35177,0.5009965,-2.8640325,1.9351007,6.684113,-2.816584,2.5358145,-0.7777842
github/telatin/qax,-7.1556344,-1.5939343,-5.3896403,-5.14086,1.7076651,0.4558609,0.88465613,1.231211,-5.052104,0.6762237,-2.5713375,-2.0610235,3.9543943,-1.3249575,4.13867,1.474883,0.031372003,-2.6393368,3.1875768,-0.79294795,3.5488138,-1.4971352,-1.4461253,-0.36255178,0.7558105,-2.0177991,-3.6558495,-6.561575,-3.0339384,-2.0366347,4.06086,3.2430587,2.0843353,4.928051,-5.207658,4.9189606,-0.6757331,0.20538212,-1.8191136,-1.6718074,1.2655884,4.398519,-2.4266686,1.910525,2.8888836,-5.168811,-7.3332787,-1.6991806,-4.731201,7.8557615
github/ConorMacBride/mcalf,1.1285269,0.8421711,0.026676396,0.74456525,-1.5871332,-0.7441517,-0.49259055,1.4133673,-0.4949442,1.4219953,1.5160329,2.0416708,-4.878027,1.117729,-0.28427103,2.2284522,1.3544652,0.8739287,-1.6893978,2.5234203,0.4899632,-2.5260935,0.7114565,3.6011264,0.8263897,0.42109844,-4.692567,-4.5364017,1.14612,2.363937,0.13842008,4.3146605,-3.9726567,0.68838924,2.203922,0.31248096,-1.6014661,-3.9727252,-3.6322997,0.27328372,-0.712899,-4.704879,0.97357434,-2.9995394,-1.2218846,2.0133848,2.3587825,-3.3516963,-1.9290577,0.0029546563
github/NCIP/visda,0.36872253,0.18675645,-0.3396601,0.573559,-0.8653799,0.5691747,-0.54494035,0.76476735,-0.21461737,-0.59153795,0.5065422,0.33536187,-0.30092993,0.035061464,-0.5687299,0.5953155,0.31371102,0.45291787,-0.3725542,1.409038,-0.9978394,-0.8046451,-1.055522,-0.20647585,-0.05848359,-0.13925776,-0.28183568,0.19260864,-0.5871694,-0.33041188,0.022423219,0.061060328,-0.34068412,1.4012482,-0.45416847,1.2176946,-0.12988868,-1.0332788,-0.27258542,-0.6845391,0.3676421,0.26353902,-0.5198917,-1.4147476,0.40165913,-0.880263,-0.24504368,-0.24527124,0.33801898,0.5115653
github/SCM-NV/qmflows-namd,2.0074632,2.7118964,-2.8729737,-0.5489631,-1.1356583,-0.34800303,-3.4782517,1.0823135,-4.9537706,0.027817547,4.921152,3.075227,1.5799539,-1.7541691,-1.0233814,3.9741724,-2.252429,1.5209043,-0.110123344,0.96077764,0.72959536,0.030735778,-1.3321651,0.69785756,-0.78981215,0.9979023,-0.96187407,-0.6230395,1.1419934,-2.218776,-0.6987429,-0.94868916,-3.5503347,-1.2086602,0.5276936,0.59863865,-2.1200716,-1.4181422,0.26684332,0.5143438,0.09919072,0.19670248,2.6766155,-1.6093266,-0.2677665,3.6250463,1.0935024,0.8902696,0.9569359,-0.26295128
github/SCM-NV/qmflows,1.8614829,0.42665717,-3.642931,-0.6153962,-2.7935915,-0.3585142,-3.4003108,1.7793751,-2.9627142,1.0759796,1.5244567,1.7197261,0.31893885,-0.56967354,-1.2635025,2.3613179,-2.159225,2.6382284,-2.3260536,1.7715808,2.564694,-4.346538,-0.70282334,-1.0500513,-0.28326458,-1.7654756,0.5200469,-2.468654,2.562543,-0.8582841,-0.2002234,2.6460886,0.4456286,-0.6023691,-1.214839,-1.0832015,-0.2548359,-2.2284389,0.09286103,-0.39762238,-1.6034919,1.5853969,0.6755541,0.5330545,-0.5395855,1.1114216,1.7873459,0.7472379,-0.35228965,-0.153107
github/SCM-NV/pyZacros,4.2977843,1.5267438,-1.639074,0.4188615,1.9772804,-1.7222493,-1.4217443,2.9588568,-2.182828,-1.8884536,2.8105874,1.2426587,0.85856193,-1.561888,0.4549618,1.0827013,0.44767863,0.6999718,0.010533212,-1.0769511,-0.8080096,1.3295127,1.9889363,0.7308935,-0.6303361,-0.7887435,-0.870135,-2.52462,0.9945186,-0.85368586,3.206837,-0.4831553,-1.6412883,2.1771548,-1.3696911,1.7641871,-2.9615688,-1.9638972,-3.909114,0.86042184,5.242426,0.59665245,2.1071758,-0.4992828,1.0840819,-0.6001923,-0.62129724,1.403371,-1.5694376,0.48190007
github/Merck/BioPhi,-2.1536193,1.0657443,-1.0004476,0.7163943,1.1316541,-0.21210611,0.4615671,2.073146,-0.32439584,-4.618099,1.7403314,0.17937493,0.32069626,-0.019086245,0.92961097,0.5927875,-1.1336854,0.37768635,-0.4454905,2.0059345,-0.6257173,-0.9722273,0.11174385,-1.6231165,-0.69964105,-0.95367545,1.4429609,0.2094241,-0.33197558,0.5778165,-0.066569515,-2.314483,-0.46197826,1.7734691,-1.5005589,-2.1496463,-1.8577021,0.13297465,-0.7347521,-1.6175749,-1.2464278,0.059661373,1.0563328,-2.9412787,0.83844036,0.8104958,-0.8674404,-2.3649473,3.1357226,3.9449732
github/Sydney-Informatics-Hub/OmixLitMiner,-0.59488463,-0.2929864,-0.82532996,0.8013336,1.8305352,-3.2850347,-1.5926633,4.055541,-0.6161734,1.1767713,-0.067470394,-0.45655653,-2.1369972,1.1397753,1.8315561,-1.1137313,0.122838736,2.476754,2.124933,0.7267998,-1.7171167,-1.2897768,2.268604,-2.1562588,-1.4628569,-2.726437,-5.486458,-1.7732728,-3.764854,-2.071681,-1.5864811,-1.9779307,1.2437974,2.1515474,1.1218761,0.03792597,0.28097367,0.1218888,-2.619187,0.16153856,0.9838953,3.4128761,-0.2520421,-2.789489,0.80810696,-2.7347436,-3.3519614,-0.7909623,-0.17149343,2.3006346
github/stemangiola/tidyHeatmap,2.7395785,-1.3938591,0.47517332,0.55870456,-4.410791,1.3880268,-4.007753,3.5109632,-1.7918711,1.1945418,-3.2784622,0.42528793,-3.8704,4.024896,-0.2681559,2.3523734,0.1674411,-1.6115936,-2.7128592,0.94473314,-0.26481453,0.47092438,2.232553,-1.6608988,0.28122088,-2.6843657,-5.4218836,-1.6421682,-3.3715434,-1.0947511,1.0568218,-2.6196692,1.5626105,2.148614,-1.380016,2.0542195,0.56343,-1.0399266,4.823793,3.4304423,2.4040935,-1.3560637,-4.2460704,1.9098326,0.5471073,-1.2580501,1.6788551,-0.48638713,2.2768826,4.342673
github/bihealth/sodar_core,-1.243725,1.4006876,2.36327,1.4839826,-2.586618,1.7087743,0.30990258,1.3271859,-4.149997,-1.7937905,1.6114786,0.0647372,-1.1781282,4.28746,1.0900508,1.7033043,-0.21491617,-0.6099381,4.163509,1.8841608,0.083368436,-2.5804057,-0.2072931,-1.5981635,3.743715,-0.449571,-0.92281085,0.6513492,-1.7816844,-4.084352,2.6647065,-1.6428369,-0.14027588,2.429136,0.46783826,0.58010024,-2.6469936,0.7940798,-0.848711,-1.1214834,-3.1020777,-0.57769644,0.9088064,0.55478376,4.920152,-1.2408717,4.051026,0.8008541,-1.2002199,0.6031854
github/curl/curl,-2.7519505,2.2167175,1.6423205,-2.8146143,1.3856122,-1.6079504,0.69820523,-1.3567766,-6.714223,-4.0323415,4.9722233,-3.6015768,5.193545,-4.971845,-1.3898287,-2.26129,4.1190734,-5.287753,1.3092186,-0.5325484,-0.94879204,2.0110729,-5.4255733,-0.42810374,2.9843132,-0.20375615,3.3874753,0.6286613,-2.2598567,0.32228878,2.0420213,-0.45564932,1.6587702,3.60246,-3.2538345,5.169036,-4.803521,4.673523,-0.4343195,-0.9622978,-4.633974,1.7428143,-0.7775796,3.6767948,-1.320901,-4.4558043,2.136517,1.3238806,0.48169854,1.303111
github/EOSC-LOFAR/lofar-ld,-0.43389955,0.51489824,0.88513285,-0.603432,-0.3533699,1.6316957,-0.025126355,0.9266089,-0.439524,-0.85507643,0.3754004,-0.021436382,-0.6789183,-0.07085374,0.66364783,0.09750413,0.4281963,1.537113,0.30317077,0.6960748,-0.67851025,-1.8616859,0.47663847,0.35410467,-0.13105729,-1.060533,-1.2215176,-0.16763633,0.1969149,-0.1402159,0.14106113,-0.94914085,-0.7725102,-0.02609783,0.2654954,-0.48606107,-1.1085796,0.065821566,-0.65262365,-1.4594901,-1.4496529,0.69888103,-0.16383858,-1.2444636,0.35528022,1.3364774,0.26393723,0.80875045,1.6882668,0.7692164
github/pandas-dev/pandas,-0.4177327,-3.315201,-1.0849508,1.7964092,0.03201968,3.5301135,-1.445603,1.3610013,-1.1263453,-0.52381396,-0.100529805,-2.5244377,0.85478175,4.5903406,-0.7345598,-1.5234711,-1.1464039,-1.478041,-0.63658464,3.7711942,-3.4320824,-0.07094538,-4.804341,-0.38099772,1.7994249,1.3017585,-1.5379189,-3.0545926,1.9706236,-1.0582323,-1.476228,-1.8287846,-2.8343427,0.34881556,1.0480925,1.2230694,1.9750448,0.46165085,0.31718376,1.5738688,0.09638806,-1.0966272,-1.547045,-3.1050024,1.3810134,0.988019,1.6719849,0.45531568,-0.56249106,1.5355984
