,0,1,2,3,4,5,6,7,8,9,10,11,12,13,14,15,16,17,18,19,20,21,22,23,24,25,26,27,28,29,30,31,32,33,34,35,36,37,38,39,40,41,42,43,44,45,46,47,48,49
gitlab/chiemotono/mdcontactcom,-1.639782,-2.7326636,-0.8958858,4.429393,-0.5829767,-0.6309119,-1.818646,-0.18419854,-0.35650554,5.169175,-1.8967429,0.90542203,5.707109,1.9681938,1.650139,-4.558873,1.543186,5.1629033,-4.0196085,-3.0812361,-1.364302,-4.804147,0.3804882,0.6487649,0.44289163,-3.1075323,-4.4632883,2.6627946,4.8269186,-7.4917874,-3.736106,-1.5860164,-7.032048,-6.3123198,2.1807117,2.0406184,-4.1187963,1.7687618,0.9621941,1.3754512,0.0063823676,2.702758,-0.60985184,1.3267792,-0.45950538,2.7134438,-0.515796,-2.232097,5.2229433,2.7146964
gitlab/pyFBS/pyFBS,4.565115,-1.6742345,0.64371425,0.13205354,4.847053,-3.131725,2.6279292,-3.4279566,7.07046,-2.6495957,2.4161694,-1.3723071,-3.6396716,-2.3332062,-5.428422,2.6672733,1.466361,-3.6574066,0.20667577,-10.181096,-2.439899,-0.03166158,-3.5831752,-8.759388,-5.9550977,-0.5244805,-7.178139,-0.348544,6.3685355,-1.9999264,-0.35905987,5.2492275,-1.8019525,-8.136857,6.942075,1.9330705,-4.282467,0.47926885,10.385106,1.38634,-3.2361596,0.61581993,-4.744529,-1.2786139,-11.624035,3.9957297,-9.3163,-2.4376009,2.6462052,0.59169525
gitlab/cosmograil/PyCS3,0.76871914,-1.580836,1.4371904,-1.1207317,-8.112697,-0.76167387,-2.569559,3.9507442,-0.32479683,1.8638753,5.2891016,3.3463688,1.3363607,2.3051462,-5.7813106,0.5039547,-4.9205995,0.8403854,-1.6109982,-9.355679,2.4092202,6.711524,-3.185478,-2.9343824,-5.29292,-2.533342,-0.033387005,3.4972026,-1.4093546,-4.821641,3.1026626,1.8969767,0.20924948,3.285569,0.6988651,5.5650687,1.7713299,-2.044633,-1.4688046,-0.67504656,-1.5425309,-1.8318464,-3.597572,-2.2434618,-2.436833,3.0749161,3.8219159,0.50073117,-1.0834872,-4.4944344
gitlab/emd-dev/emd,2.6239495,-1.1595607,0.09066763,-1.4415586,-1.5100527,-1.2916427,-3.1743784,2.2712226,-0.10693438,2.1125226,2.596885,-3.2971027,-0.8755217,0.30308086,-1.8854889,3.2772467,-2.5988898,-2.25218,-3.7760983,-5.6627307,-1.9988933,-0.73996234,0.32761344,-4.8753295,-2.6016736,-2.413185,-1.6266809,0.29641175,1.960659,-8.5992775,-0.8831893,-3.0310388,-0.042002756,-2.9054852,5.107887,3.7796173,-0.16401272,0.29915854,4.287477,-2.5535743,3.2500374,-2.220602,-4.1412687,2.4426441,-0.79626495,1.6010196,-2.0558574,-0.53590876,4.4148993,2.3477418
gitlab/cracklet/cracklet,2.9784405,-0.7122713,-0.04389541,0.1790986,-0.74946517,-3.7532938,-1.4515697,-3.6225471,1.5053074,1.5859069,-2.6062946,-0.44174019,-2.6579292,0.19306909,1.8311505,-0.37503415,3.3620977,-1.55973,-0.81759804,-9.473839,-4.5187664,-0.36470005,-4.875704,0.115689695,0.047166772,0.3400968,1.1034766,2.802455,0.28332293,-0.102070145,2.3197186,4.3491497,1.6591535,-3.8151352,5.809655,0.20734636,1.6288289,0.30634707,4.1715436,-1.8196478,-4.332256,3.4097242,-3.0274425,0.62548333,-4.0669036,3.439675,-3.7229974,2.4416816,6.5321894,-5.7977138
gitlab/libreumg/dataquier,-3.1064694,0.59578454,-1.828094,3.8444386,-1.2819915,1.7974089,0.60595006,0.77778727,-1.0672073,-1.0401814,1.7949511,3.3259156,0.31199908,-0.5979163,-3.6517396,0.56735486,2.615849,-1.8373138,-3.5145926,2.3546183,-3.1406949,0.08818977,2.0678117,-3.4228797,3.5053844,3.132758,-3.2004528,-5.7573104,-6.4503284,-3.4538233,1.0105017,-0.62534523,1.5790411,-3.8058271,2.8514802,-0.31609714,-0.43265507,2.7484095,1.4500397,-0.3651205,-2.7300713,-2.5547457,-0.45827955,-3.500309,-0.647645,-3.8101246,3.198206,-3.3492062,-1.1097724,3.6883745
gitlab/metafundev/metafun,-2.235342,-1.1870174,0.09156149,-0.98269814,0.20410565,-0.19547929,-0.5315573,-0.54868734,0.0024143555,-0.5352793,0.13384281,-0.8053044,1.2686453,-0.6412818,0.26301563,-0.32691592,0.58150417,0.53876865,-1.2889576,-1.9018579,-0.52151126,-0.020905795,-1.3335755,-1.4887938,-0.0028199644,0.072914265,0.49823216,-0.40177485,1.2640435,-1.2016283,-0.25956532,0.620625,0.43998855,-1.1055795,0.07710463,-0.08138657,-1.914189,-1.5921032,1.1415982,0.99705666,-0.09779968,-0.7571679,0.8746707,-0.22278763,1.4525237,-0.23158363,0.46548125,0.7723935,2.4815953,-0.09617837
gitlab/ztzou/phydl,-1.7587812,0.27938285,-0.54244626,1.7190341,-1.0097271,1.5665704,1.3299385,0.11054245,-1.1648781,-0.04282582,0.1222109,1.8684558,2.4649124,2.0560203,2.2274835,-0.5157868,-1.149577,0.8994754,-1.2062285,0.81136394,-0.26640868,1.6575363,-1.789124,-0.7697076,1.6149637,-3.6120632,-1.4798231,0.20108524,0.25753367,0.4683601,0.6811054,-0.31226742,2.927721,-0.13652922,0.775327,0.26153752,-2.043789,-2.935679,-0.96202594,-0.7869456,-1.2342659,0.6892603,-1.6646372,-0.09862535,0.13136163,2.023568,1.696954,1.2093751,2.5140328,1.8899767
gitlab/BioimageInformaticsGroup/openphi,3.4171674,-3.4281132,2.6664135,-0.77536166,-3.522057,-1.2330453,-1.8885497,2.204861,-2.6792438,0.5943805,4.616285,0.73889536,0.83942664,-0.9208784,0.45299792,1.7154573,-0.21967277,-2.876513,-2.45314,1.783373,0.7011082,-0.11124899,-1.6656213,-3.9339383,-0.82493556,1.5606583,-1.2361794,-1.0972767,1.8544847,-2.1182725,-1.9658966,1.197812,-1.990631,-6.966377,2.5012004,-0.3401236,0.757044,-1.1524776,-1.5742369,-1.3393431,-2.7526128,0.021669399,-0.23922344,-1.1275537,1.9857864,1.0208426,-1.3578905,1.8682297,1.6588805,-2.5533965
gitlab/LouisLab/PiVR,6.024359,-4.424894,1.6549768,3.6331892,-4.8822393,-1.3771601,2.7372994,5.052576,-0.04232041,8.574302,-0.4168864,-0.41217193,3.536314,3.2505796,-0.38257706,-0.21135257,6.350517,0.17581244,-5.938342,-2.2539423,1.7605906,5.1023006,1.2441262,-2.6758955,-6.5617995,3.8038478,2.6018975,4.056655,2.6787248,-4.114839,-3.2505536,7.2897234,0.008562878,-2.2452936,4.1992593,6.8237014,-0.40138987,-3.7084694,4.697618,-9.466806,-5.726288,-0.4896093,-2.1547866,-3.9961314,-2.861423,3.3321826,-2.1339514,3.2798777,0.49552846,0.13545361
gitlab/ffaucher/hawen,2.6776521,0.24971089,1.1347405,1.4730624,0.43681967,1.8644677,2.5503867,-0.6642607,-2.040445,3.409022,3.4334855,2.7486255,0.97260994,-0.36671647,-2.6583962,2.0148637,0.8639055,1.6483345,0.69761616,-6.425849,1.4634768,0.8842298,-5.831156,3.0625281,-2.763764,0.09693845,-2.5617115,1.4218091,0.6703345,0.9261693,-0.6017529,1.9532496,2.8660862,-4.6991014,4.8585835,-2.95501,0.94900113,-1.4156051,-2.8476214,-1.7524462,-4.0260205,-0.9892281,-3.552278,-0.28871474,-5.8646526,-2.769425,-3.4068053,5.8957934,9.330593,-3.6900647
gitlab/gims-developers/gims,-6.1991568,1.9103755,2.3251448,-0.719851,-0.5786854,-7.1522293,1.8887556,0.09549325,1.4154752,3.8982844,2.0894783,-0.34918433,2.3999708,0.5365269,1.8102009,-5.0819273,5.1287217,-1.7820541,-1.3926293,-6.10634,-0.56895554,-3.6344554,-5.1225004,-1.0784484,1.4565277,0.35027272,0.29844728,-1.5376173,3.2374675,-0.075157374,-1.4708797,1.4167687,1.9040755,-2.574506,-1.1235895,-0.9657921,-3.577368,-1.4998529,2.1100852,-0.43615624,-6.058678,-0.9155567,-0.59135675,-4.487508,-2.6840072,-0.18030895,-5.230604,-4.165916,4.5361733,0.072450384
gitlab/vibes-developers/vibes,-4.8553095,2.616018,-0.3158311,1.3038607,-1.5147977,-1.0315514,-1.8409438,-3.0826316,-1.0827117,2.5996208,2.0333722,-1.7298267,5.8772182,-2.9449725,2.805237,0.7651537,5.4628553,-0.3169636,0.2311609,-10.952308,3.9613206,-1.8354304,-7.874482,-0.9882486,-0.8470788,-3.3845713,1.0860115,6.2334976,-4.923665,-2.089867,-1.2686079,-1.4828426,-0.83189213,-0.20265082,-1.8462603,1.2310939,-0.89349973,-2.0171225,3.5828903,-0.18681966,-5.466636,-2.1190202,-3.7096164,-2.0409708,-5.065315,0.8489549,-2.136914,-5.4880605,4.435442,-2.7152164
gitlab/project-dare/dare-platform,1.2167194,2.9701998,1.2678344,-2.4756095,1.4851323,-3.794773,-1.4632275,-2.7912822,-3.519304,6.7304807,1.771722,-0.05603704,3.4405713,-3.6471736,2.8499885,1.0768108,-1.8742102,-7.664976,0.44395363,-3.297396,-3.1287158,-0.49364015,-4.0260196,-3.4921775,5.5909266,0.7000262,-3.0372102,-1.0878894,-2.1948276,3.9979634,-4.0353494,-5.0769196,-2.0673213,-3.7469995,-0.77256197,0.650467,-2.5221043,1.4316088,3.2207203,5.006415,-3.6289775,3.3616195,1.2703176,-1.1682043,-0.06035668,1.1519116,-2.052019,-3.5131993,5.4427776,2.232087
gitlab/magnumpi/magnumpi,-1.8001093,-2.4228153,0.46145704,1.5144601,0.36445642,-4.802542,0.070837,-2.7452118,0.40405193,2.355823,-1.8098102,-0.30918247,5.1256566,-1.46084,-1.6553378,-4.8278794,1.8778218,-0.5877346,0.38590562,-6.363078,-1.7923144,-2.134095,-2.9745204,-2.385501,2.846674,-0.88421655,-2.1858187,1.0189154,1.2868872,0.7825297,-1.0891197,0.3493863,-1.7858125,-2.0439048,1.7001207,-1.1253237,-0.6282464,-1.2130786,3.3953204,-0.39238322,-3.257901,2.890861,0.05604046,1.515926,2.5271864,2.3700805,-3.921591,1.0344856,3.310648,-1.7835671
gitlab/ampere2/metalwalls,-2.590681,0.93187714,0.23050253,0.14229065,-0.011743261,1.4809352,0.68420565,-6.141928,-1.1356972,2.814093,1.0307668,2.7932396,1.8329439,-0.85080516,0.122801885,-3.1862352,0.81360704,-0.17424542,-2.3256748,-5.2572107,1.2231057,-0.69213474,-0.601593,-0.030293282,-0.22870047,-2.872739,-3.0082273,1.2622163,-1.0067041,1.0977527,0.8374226,-2.7350137,0.82481897,1.85465,3.5928242,0.51295316,-2.2020056,-1.024708,3.1342824,1.991193,-1.273864,-0.90233994,-3.9661064,0.29684293,-0.59474164,0.056829974,-4.4592175,3.3469448,6.7074623,1.012483
gitlab/remram44/taguette,1.3005582,-1.9674933,4.3619113,1.1513152,3.0383842,-5.601557,5.3778353,6.6767464,1.0370642,1.2256128,1.1503773,-1.4841583,5.160354,-4.118976,-4.373524,-4.8616986,-2.2037973,-3.5135806,-0.07250818,-1.7601905,-1.0402699,-1.6153451,-2.0165646,-4.6368103,1.7689286,2.8822548,2.7174447,-1.7258062,1.994599,0.53047836,-0.518526,1.7612283,-1.0256369,0.4612718,0.003614444,0.31502184,-1.3688036,-1.541806,5.8400598,-2.3439755,0.29189152,-0.949105,1.7481692,-0.97846156,-0.7894973,-0.31849426,-0.8623598,-6.3444304,4.2740254,3.5802767
gitlab/jason-rumengan/pyarma,0.38005602,-5.6226964,-1.1314523,1.7600126,0.39758652,0.68653494,2.962352,3.102526,0.99908584,0.09152125,0.38662952,0.7522934,-0.89043355,0.5424728,-0.3780807,-4.3892913,-1.2967958,-5.114731,-1.6922438,-5.458706,-0.8949561,1.0467131,1.3076696,-1.1453109,0.002633717,3.3986132,-2.4954762,0.07028802,1.0540237,3.3668816,0.5327609,3.1888537,-2.727408,-1.5527161,2.6430118,4.9021473,3.4328728,-2.361534,8.0504465,0.009430332,1.185499,3.569401,-2.352187,1.6124452,-1.9011849,-0.10640278,-3.6840403,5.4597006,-1.0376829,-5.969446
gitlab/fduchate/predihood,2.0800006,-1.1496336,1.2968069,0.15882026,1.7152776,-1.0431433,-1.3164495,3.529408,4.4034934,-2.8649132,-0.9493225,3.4801548,3.3163278,-1.9610565,-0.23181029,-5.5412006,-0.2388934,0.42248252,-3.1019216,-1.3771813,0.08462216,-1.2029834,1.5402676,-2.1954203,-0.5599255,-0.70583767,-2.3585289,-3.8749177,3.0017319,4.0185385,-0.19054213,-0.90706575,0.08729568,0.79604286,-1.7300093,2.415236,1.9197273,-3.245329,-1.7695731,-0.043409824,-3.1346543,-1.9208492,-2.6704504,-0.37923375,0.092775404,4.140678,0.10842107,-5.596603,0.22660781,2.590634
gitlab/mainlabwsu/bims,-1.1618905,-0.49757266,0.9043468,0.5775081,0.117696404,-0.7592635,-0.51562244,0.1602123,-0.12261378,-0.09889305,0.82210374,1.1873186,1.3564527,-0.8827368,0.29481047,-1.2543033,-1.1337675,-0.69868803,-2.310985,-0.7976216,-0.9552235,0.6152926,0.044223536,-0.0057882727,-0.8138761,-0.8515899,-0.112834826,-1.3842037,-0.20580897,0.57589346,-1.9648553,-0.4996233,-0.7589604,0.37600565,-0.9232428,0.47842103,-0.52996516,-2.6584,1.0659859,-0.31458125,-1.6948167,2.0482025,-0.8323698,-0.9086781,-0.60230315,0.7534637,1.3448737,0.4172126,2.2662678,1.0770651
gitlab/ChemBioHub/tpmap,-0.47411487,2.269273,3.937264,3.413247,0.94175154,1.2931929,-0.2078135,2.1833072,0.8869256,8.547632,-0.21239376,1.5905099,1.0017697,-0.9883987,-1.1945305,-1.1964974,0.9010354,4.2303724,-7.705893,1.9855692,-4.6127176,-2.0870228,-1.6244823,-3.8755188,2.2946665,-3.5772374,-1.7150325,-0.20646803,0.7206444,-1.1353968,-3.696973,1.8021195,0.7195043,-3.4111395,-2.02894,1.1362427,-4.532256,2.3620405,-0.985577,2.032737,-2.5070422,-3.0092857,-0.14508717,-0.62252265,-3.5289767,0.94245994,0.8685738,-4.395523,2.738997,4.274198
gitlab/davidtourigny/dynamic-fba,0.7443428,-4.2090206,-1.239666,0.7091851,-1.1896958,1.5955073,0.42079487,-1.9280233,0.012372554,-1.1429052,0.26924577,1.0183811,0.17384817,1.8128943,1.0936071,0.15151118,-1.0878979,-0.29847884,-2.242244,-5.2223086,-1.620096,1.7944002,0.029939637,-1.4699527,-0.19571148,-1.2749661,-0.2442374,-1.450704,0.6108987,-0.4038332,0.147633,1.4224935,1.8693105,-2.3200922,3.2060306,1.882268,-0.19103336,-0.3253481,4.528425,1.1648628,-2.0757127,2.722963,-1.5664483,0.8511056,-3.8814583,3.363885,-4.18691,4.7094812,2.4771988,-1.074585
gitlab/vincent-sater/umigen,-5.7137437,-2.6792855,-3.6646776,6.0583777,-0.2786135,5.3646913,1.6758571,2.6766653,-0.4710393,7.4647994,0.63381153,2.6934273,-1.688672,-1.4487536,-3.3452678,-0.29253832,3.1966887,0.85289115,-3.8919363,-5.126856,2.455684,-0.29892716,0.79513633,-3.1887195,-0.3586254,-2.5526066,0.91526914,-0.57958657,-0.86243296,-7.8371305,-1.7998966,-4.989313,-4.7165985,-8.669526,-4.801878,-1.299076,-0.4466863,-2.1429267,3.3313167,-1.8874723,3.6279886,-0.60463727,-0.98409766,-4.228244,-1.0534667,7.4330373,1.6324121,1.2431931,1.8904846,-4.881091
gitlab/geekysquirrel/bigx,2.309593,-4.200281,0.39126703,0.08080225,1.3391268,-2.2102945,1.0984073,-1.7075489,4.122096,0.17490207,-1.5134997,-1.1337919,1.3693116,-4.974557,-1.8339213,-2.0767734,-3.656772,0.37940416,-1.1116314,-2.8458169,2.6252432,-2.833353,-1.8554883,-3.6245828,0.2795472,3.8426855,-1.5700201,0.36264196,-0.030950906,5.879732,0.7797828,0.42686713,-3.2186744,-5.0929885,-0.8464231,1.2308357,3.4744856,-4.1729975,-0.9361502,-3.0947943,-3.994725,-1.838208,2.9776125,-5.8147187,3.9308083,0.610271,0.54505557,-5.2792645,2.7189443,1.769983
github/jiujiezz/tsnad,-2.2213178,-4.4430976,0.069107145,3.8188505,1.3173511,2.5448985,1.3683698,2.8538556,0.5205723,2.4360497,0.19948804,0.7407843,-0.65869766,-1.1147735,-0.27924472,0.9557665,-1.2030863,1.9729367,-1.1392533,-0.17976947,2.7458038,1.4428799,-1.9802811,-1.2474679,-0.7177627,-4.0634675,-0.0682424,-2.7736928,-0.51660603,-2.7960198,-0.7832485,-1.4185822,-3.0293345,-4.289824,-2.0669882,2.2384653,-2.6985872,-3.034252,-2.24576,0.45705634,1.2900835,-1.6163708,0.08003836,-2.1801672,0.88722986,4.5225782,1.1413625,-0.4844426,3.3565283,-1.4370137
github/twopin/CAMP,0.028152784,-2.0080583,1.028199,0.77500147,1.5393262,-0.20521839,0.7655174,-1.2139146,1.7441151,2.1646419,1.860562,3.6163776,-2.5848875,0.82552564,-2.0557323,-0.84404105,-0.78175056,0.632503,-0.1695716,-1.3989016,2.5538666,1.4586228,-2.0624633,-0.79165846,1.1024894,-3.7375808,-3.5969245,0.05339194,3.0850456,-2.0968857,-0.4023136,-1.5228215,-2.0756347,-2.6824875,-1.589021,2.225335,-0.8178375,-3.256893,0.249364,1.0665812,-0.9661391,2.045483,-0.49790743,-0.2938554,1.4516953,3.733419,-0.68166846,-1.0088209,3.6808674,0.2654192
github/kkjawz/coref-ee,0.77670586,0.010296007,0.5040818,-1.9750382,-0.9776993,0.18636225,1.2010719,1.1188978,1.2234558,0.67977476,-0.8967504,1.6134907,1.6355021,0.4408731,0.52782273,-0.9512624,-1.4068848,0.89050645,0.43420386,0.7661096,0.6695021,0.64606977,-0.16126347,-2.3801367,0.4962976,-3.489669,-1.2976904,1.485928,3.0596464,0.9880089,-0.3450815,-0.6420915,1.2359031,-0.70400584,1.3958263,1.3658526,-2.0751681,-2.4737675,-1.9879078,0.76817554,-2.4724586,-0.5963141,-1.4263178,0.19250564,1.1409277,1.8960719,0.96616626,1.467989,2.2303915,-2.143174
github/ekaterinailin/AltaiPony,0.8072804,-0.646916,-1.4503043,-0.32996565,-2.73956,-1.8129208,-5.8340354,5.4258075,-1.9115857,0.22536626,-0.23823817,2.7545877,2.288705,1.5729036,-5.902658,1.4847414,-2.9226973,0.4761451,-2.4216976,-6.348183,0.34887078,5.0078263,0.283693,-5.0313935,-6.23654,1.4648924,2.6644497,4.1171136,1.4728925,-6.742428,2.6702783,-0.17002818,-4.141821,-0.96162665,1.8265628,2.9454298,1.0549842,1.6855198,0.7984357,-1.5929662,2.4103,3.2273238,-4.824489,2.7052016,-3.7883155,2.4238799,2.602129,0.4612891,-0.8052484,-2.2303338
github/csbioinfopk/iSumoK-PseAAC,0.62223643,-1.0726422,2.396282,1.7041725,0.9153328,-0.50622904,-0.31147912,0.007826569,0.49241623,0.8782364,-0.31276134,0.94820887,0.10581069,0.7728572,0.83376145,-1.3316411,-0.26280147,-0.08423554,-0.4074973,-1.4743291,-1.7155358,0.1596733,-1.7913957,-1.7093835,1.1639234,-3.1676495,-1.6849613,-1.1873609,1.278814,-1.364889,-0.050493896,-1.0427215,0.26139483,-1.0093285,-0.18068992,0.41051754,-1.8463722,-0.9027004,0.98523057,-1.4833224,-2.0333936,2.1051056,-0.103374064,1.3752954,-0.7351531,1.3961157,0.40810838,-0.9938545,2.7961674,2.2705643
github/wdecoster/nanopack,-2.736384,-1.6104561,0.29544675,1.2386559,-1.2383068,0.97204614,1.6276767,0.3181875,-2.709025,1.5237025,0.35534206,0.11987379,-0.4288996,0.72232676,0.51308334,0.106811635,-0.5975652,0.8205657,-0.8684391,-0.9923931,0.9700463,-0.61625177,0.50506294,-0.8403625,0.18855816,-1.5507745,0.3094956,-1.3102531,1.7452848,-0.9124133,-0.6147502,-3.189853,-2.0655954,-0.81475794,0.45600405,0.16675399,-1.0895844,-0.43105638,1.0712458,-2.711093,0.7960896,-0.13246106,0.96064985,-2.167106,-0.9251913,0.015281931,2.5089638,0.19397342,3.0110571,-0.11121288
github/upb-lea/openmodelica-microgrid-gym,2.7994177,0.48139504,-3.2337754,-0.12769333,-6.2452335,-3.0473738,-1.0222815,3.1546295,2.2758782,0.78304636,-2.0232236,-1.1737149,0.9407768,1.4428453,-0.31528425,-1.2711451,-0.5229862,-0.5515821,-3.0562859,-4.8987126,-2.375271,4.162231,-1.8996373,0.9971197,-2.0728865,-2.1465933,3.8482134,-1.3851511,1.4944894,-1.9140236,2.0196993,2.058427,0.48740596,-0.20961349,1.5513965,3.0460024,0.42829394,-0.96426564,4.076882,-0.19183277,-4.692155,1.2356532,-3.046902,0.9315626,-2.9193885,3.4937196,-7.534028,-1.5061182,5.0200543,-1.3012831
github/upb-lea/gym-electric-motor,1.6942079,5.9393654,-2.6762154,0.021211443,-3.4825385,-1.4807783,-0.78617674,3.8390155,2.715322,-3.8172808,-0.7332198,-0.36445656,-1.8720725,1.89478,-2.0220852,0.21816508,2.2678988,-1.5756617,-1.2728405,-5.119047,-7.4034963,-0.3765101,-1.1818886,-2.725478,-4.099814,-0.81501913,8.692118,-1.3982068,1.4985653,-2.3341796,1.7560593,0.50429386,-0.18268462,-1.5466235,0.9596425,3.8494177,-2.5438004,0.75580907,6.2346773,1.1269342,-6.149327,3.7421522,-7.3145266,-0.8304739,-4.681848,3.5347364,-8.910348,-1.6468685,5.6461854,0.9958799
github/cobilab/RFSC,-0.93298,-2.687265,2.3854256,0.14623122,0.54553986,-1.0250231,2.6146917,0.45188984,-1.4344783,0.99318874,0.93587315,0.9947426,0.91323143,-0.81485486,0.3269163,0.5928759,0.17390904,-0.08935669,-0.18109013,0.9781302,2.007535,1.5500784,1.1209654,0.50798166,0.45134863,-1.2272934,-0.33030364,-2.5868845,2.8490431,0.3948065,-0.7644344,0.8790297,-1.2678183,-1.100419,0.33381522,-0.19836634,-3.3141963,-1.273532,0.72858,-0.9877817,0.7749556,-0.9598926,0.849055,0.1793205,-0.93265104,0.85904765,1.2899271,1.3771541,0.50158715,0.7728965
github/hsci-r/finnish-media-scrapers,5.2518463,-2.6994383,-0.13692749,-3.7415385,3.0763912,-1.1343395,1.856015,2.4373074,-4.359276,3.419571,0.6581776,2.4586773,4.7909765,0.9584127,-2.3945038,0.5880968,-4.857541,-4.9428496,1.7343869,-5.113764,-1.7420697,0.91120386,-0.97701216,-2.650396,-0.6787168,-1.8408539,-0.22577718,-2.451586,0.97812116,-1.0772396,-0.62722504,-1.4803803,-5.2032914,-0.840913,-1.543926,-3.2791936,-2.1028829,-3.6271448,2.5989735,-0.7573632,3.7866378,-2.1524794,-0.02860484,1.8027828,-2.8413198,0.6805635,0.3171777,2.106432,1.1268129,1.6771849
github/era-urban/wrfpy,-0.58275265,-0.38309857,-1.059231,0.09682535,-0.26343545,1.3651181,0.54252523,-0.014965189,0.5586523,-0.5856368,1.157507,-2.857797,2.6617305,-0.49805292,0.29758057,-0.1692431,-1.6187166,-0.9626152,-0.651619,-1.181426,-0.6398463,1.4599857,-1.3570724,-0.5451804,0.2625654,-0.8645575,2.3241642,-0.14564696,-0.9820258,-0.86617684,0.90286225,-0.94949394,-0.291162,-0.40327892,0.9820238,-0.95219326,-0.7182441,-1.4726195,2.9794483,-0.41680425,-0.022217238,-0.64605165,-2.402108,-1.3885486,0.3566458,1.3265891,1.5934107,-1.0529879,5.0695467,-1.8217989
github/alvinxhan/Phydelity,-2.2196963,0.2796711,2.092926,0.38455272,-0.98795795,1.9721591,1.1961069,0.2145206,-0.1215919,-0.27623618,-0.82110244,2.785649,1.771828,1.1825941,0.39273766,-0.7511577,-0.9933544,0.42796585,-1.3892318,-0.8335588,4.745642,-2.4198031,-1.3966545,0.47316977,0.18726745,-1.6762037,-3.4181683,-3.3445604,0.22615853,-0.39571,-0.6147007,0.19144307,0.88007563,-2.8978527,0.94562596,-0.80512863,-1.9646336,-2.7720544,2.8274302,-0.5857271,4.6616297,-0.15038925,-3.0993555,0.8221699,-2.3651655,3.702559,0.07931016,1.4547334,1.8084816,0.21391048
github/ynop/audiomate,3.566613,-5.0142465,4.8065047,-2.5875945,0.11530679,-0.05182049,5.48924,4.1375775,-0.2244462,0.7683363,3.0316448,0.9398301,0.9990305,-1.8158798,-1.3764889,1.1876937,-3.354875,-0.9927583,0.5967096,5.2283044,2.3818715,4.7170367,-0.33499673,-7.6757226,-1.9884906,-0.56307375,-0.8277982,-0.81691474,0.72260916,-2.4702125,-2.1621902,-1.8179721,-1.2859191,2.66014,2.1449423,8.098086,2.3950946,-3.1852899,3.1793036,-1.9806743,-4.725481,1.5674146,-0.7710044,-0.5814113,-4.2530894,2.717274,0.09558801,-3.3842201,4.421134,-3.8159983
github/adigenova/wengan,-1.7227551,-4.408647,-0.015075244,1.7472433,3.2342298,1.9521447,2.3052313,-0.30803013,-1.7271196,1.9326174,1.5135732,1.8218368,-1.9047235,-1.8415256,3.1766136,-0.19978863,0.630276,-1.7326219,-1.7211072,-1.6212529,2.4211972,-1.3648769,1.2520343,-1.4832381,-0.90577644,-2.1641293,-1.0343968,-3.27651,2.000117,-2.181613,-2.7650814,-0.28289446,-5.6104884,-2.8562722,0.5537219,-0.37539425,-2.192408,-5.553334,-1.878693,-1.4492006,1.7859979,-0.06624373,-1.1012743,0.50919604,0.31201363,2.986821,0.44602922,1.9440174,1.9351302,-1.6279342
github/pmoulos/metaseqR2,-2.6644778,5.8903894,-0.2536206,5.2610545,0.8311943,1.1088616,6.757127,4.44851,-3.9704082,2.7962894,2.107199,6.7383213,-3.0474424,-1.3193531,0.55491906,-0.13798764,3.9236267,5.605814,-2.912708,0.887862,-0.23831758,0.23779258,4.472996,-0.5914374,-0.5939287,-0.40099287,2.0982137,-6.8711195,-1.5952663,-0.7785012,1.4523695,0.9983006,-2.8148208,-0.26824948,-1.180642,-1.0210805,-1.1690096,1.9614319,2.5910594,-4.841511,-2.2723277,0.68182564,2.858518,-7.0069366,0.60997653,1.0947481,3.2333863,5.8510737,2.3165927,-0.4983576
github/glotzerlab/coxeter,-1.3955791,-4.485653,1.3092062,0.13652188,-1.4329535,-1.924838,-2.6475103,-0.35721347,-0.13022687,-3.9765058,2.8821998,0.6849067,2.0127785,4.597674,0.12609048,0.03157175,1.4061396,-1.4922132,-0.29032126,-6.2605586,-1.5179983,-4.108782,-5.364599,-1.7018384,-0.99678034,1.7567571,-0.5520509,-0.5521611,-0.6132883,6.5152345,-1.3130656,1.8837439,-0.8052516,-1.4554191,2.8373199,2.8352745,3.5252318,0.60950786,4.543483,-4.053221,-0.8172072,0.46566185,-1.3122494,1.2334229,-2.2600102,2.233064,-2.7014647,1.3157388,-1.2694829,-3.5650418
github/scikit-learn/scikit-learn,0.52920175,-0.43294218,1.1850448,-0.25534573,-0.7965033,3.1045897,0.8845843,2.5313716,-1.0489087,-2.7154331,3.3181772,4.8138924,-1.6587712,1.4941496,-2.0419815,-1.6957308,-3.8213267,0.42876193,1.7767631,-0.67110926,1.228428,0.66410476,1.9255701,-4.0046654,-0.48668376,-2.4053001,-3.6029596,-1.9391254,1.0518723,0.57887506,0.72165036,-1.1691424,-2.662765,0.75458026,-0.9363892,6.536659,4.580158,-1.444193,0.0060780137,0.23857975,-0.7601153,1.8166587,-4.4626727,3.7353952,-0.3096916,1.6014187,1.1398344,-2.9689574,-0.4569279,-1.1799018
github/jGetMove/jGetMove,-0.30742857,-1.2526417,0.48268467,-1.6695213,1.2141327,-1.3292109,0.17567557,-1.3859078,-1.3457885,1.5486978,-0.65473163,2.9064617,2.4347782,0.016442718,0.028477976,-3.1075125,3.5909402,-2.7914033,-2.301927,1.1705871,-0.57053673,-1.5641292,0.40956497,0.1638498,-1.0532452,-1.2540972,-0.08105367,-0.6063826,-0.5119949,-1.4018466,-0.8498932,-0.13795917,-0.46355775,0.15034585,-0.7232811,3.1609173,-0.8444798,-1.4451616,-1.5258238,0.25320676,-1.4400212,2.213975,-1.2137132,0.36292404,-3.80031,-0.4008389,2.126328,-0.92964584,1.7775774,-0.48588637
github/kinnala/scikit-fem,-0.47306144,0.5366384,0.18370783,0.43399572,0.03936372,-2.9651806,-0.6848448,-1.4869686,-0.2984761,-2.158026,-0.34205896,-1.0502489,1.1741441,4.25027,1.928807,5.8296227,3.5096111,-2.47762,1.121681,-12.525321,-4.153384,-4.6420736,-6.8280334,-1.2558123,-1.2756878,3.2400813,-2.6712828,2.479384,-1.7239555,3.648408,0.530231,1.5696446,-3.5107918,-2.1881225,6.799388,2.2977808,-1.6729227,2.0950217,5.900582,-1.4875257,0.4231751,1.8610028,1.4286166,0.8298403,-8.834693,0.6362526,-5.70007,3.643963,3.3592274,-3.6696568
github/IKNL/vantage6,0.64368075,0.35420763,2.7989154,-1.7044141,2.0359552,1.1344955,1.2617091,0.089189954,0.6487624,0.38769475,-0.27432874,1.6131064,1.0692425,-4.579814,-0.23594622,-2.2808619,-1.1346672,-0.93356043,0.037951272,-1.3446918,0.23231062,0.099331975,-0.015618048,0.059599932,1.4248334,0.50003296,-1.1646312,-0.95318764,-1.3209699,1.7057469,-1.5203379,0.59637606,-1.7506323,-0.20079704,-2.4841545,1.1913986,-1.7324499,-1.4464017,0.45870447,-0.9346428,-1.712985,0.9236002,0.2816258,-1.5154772,-0.6637874,1.0972012,1.5660542,-1.3918251,5.041844,0.42816055
github/aothmane-control/Algebraic-differentiators,0.9784645,-0.65579385,-1.5123659,-0.12790987,-0.8154823,-0.42566115,-0.8891979,1.3003036,-0.22006448,0.1779728,1.310344,0.40303424,0.0036292432,0.6376131,-0.42875883,1.0717376,1.7407756,1.0648401,-0.44017348,-1.6047491,-2.5998611,1.9990077,0.78744984,-1.5923271,-2.9257786,-1.9114208,1.1507308,-1.7974172,2.3819962,-1.669391,0.07257465,-0.76252747,0.020506479,-4.9171076,1.9707044,0.689646,-1.0667572,3.154977,3.3604932,1.2754536,-1.7937989,-0.97263336,-1.8769782,1.8059653,-3.780821,1.5571022,0.15620023,1.1419989,2.306872,-1.9671246
github/Kuifje02/vrpy,1.7681137,-1.2792393,-3.7333477,1.5103468,4.964562,1.7013373,-3.105561,2.2452343,4.1968236,0.79761726,-7.245995,4.71819,3.3099637,0.1085658,2.9297547,3.3368876,-0.011757791,-6.89441,1.1625011,-4.34603,-1.5902218,0.7686428,-0.15630662,-3.2463136,-0.068218455,3.2808053,-2.3313472,0.58482295,2.6241927,4.2841234,-3.164278,-3.2351258,-4.77765,0.762712,2.130122,1.1532141,2.3163745,-0.10175485,1.3910856,-1.3625603,1.0118638,4.3598237,-3.6913214,3.6705816,-8.108609,1.7469532,-3.4197054,-4.5335965,7.375787,0.990875
github/nlesc-dirac/sagecal,3.369245,-2.9067388,-1.9409025,0.15049675,-1.0171793,1.0438076,-2.4995308,2.045358,-0.39686853,4.745452,-0.2658039,1.3086902,2.1872911,-0.15881726,-1.7125179,-3.1919343,-1.1822381,1.9461116,2.051745,-1.8962592,-0.7637707,4.0192122,-1.3287495,-1.8206093,-2.041782,-0.22236252,-0.19510497,3.6632426,-0.5980298,-2.0814755,-2.2476037,3.167869,1.0894881,-3.5787098,3.6603675,0.005288359,-0.8896142,-2.4023914,0.38381127,3.1505232,0.82635874,-1.3466573,-3.129256,2.4666266,-0.8122007,1.8809633,1.3761976,3.4583945,2.7242997,-2.4512355
github/tensorflow/tensorflow,-0.12058568,0.3580908,-2.446088,-1.170915,3.720712,3.8630142,4.494474,2.749584,0.6704083,-2.072962,0.087550946,0.12791468,-2.325483,0.059095122,-1.4028281,-2.0734024,-2.802783,-3.5631213,1.6359327,0.4356866,1.7607058,-4.991094,-2.0626755,-4.949305,2.1676328,-0.84133846,0.01184143,1.9383782,2.6440208,5.638855,-2.1395116,-1.0025861,-2.8741002,0.6811484,1.398319,4.2811193,2.3162339,-3.6048195,2.84404,-0.5832494,-0.36786878,2.351447,-2.1192515,4.7151117,2.574918,-0.3776495,-1.6873316,-1.6820257,6.3569207,-3.912418
github/ZhaiLab-SUSTech/FLEPSeq,-6.1312904,-2.705436,-1.8141894,0.35912326,4.211485,0.22758262,2.386181,-0.14445399,-4.671831,7.274161,0.92691994,2.4522152,-1.2989336,-0.68386924,-0.418834,1.2343553,2.7486355,-1.3192015,-3.501796,1.302499,6.5122356,-0.20469528,3.4921756,-1.1287463,-0.6453873,-4.4460006,-2.4166496,-0.2491775,1.2738869,-3.885791,-1.6833692,-0.9889349,-5.2451267,-3.7210963,0.45771712,2.4844096,-2.762602,-2.0212038,3.1273644,-3.8494687,0.50358033,-1.7854973,1.1649176,-4.150609,-1.6980805,5.5534344,0.12813894,-0.7456049,1.1341397,1.1043781
github/bio-phys/BioEn,-4.9774365,-1.2573535,-1.2426026,4.3130784,-2.757626,3.5428786,-2.0918748,-3.2522378,-0.056615878,6.9404325,-0.78678757,4.1589413,-0.87465596,2.9875958,-3.6593552,2.6854827,2.3020403,0.48233628,4.70009,-6.736784,-3.8381362,3.0636513,-0.5709421,-3.9220705,0.5114091,-0.43377024,-3.118726,-0.2491296,-4.7477307,-3.1582007,0.3651911,-0.30676714,-3.0153508,-4.139782,2.745252,0.16252546,0.4961349,5.17324,0.82077116,5.2631903,-2.5243134,3.7156663,-7.845306,2.0190444,-2.4207513,-1.5715017,-0.5147985,7.1199727,3.0660458,-4.688143
github/Filter-Bubble/e2e-Dutch,0.13296314,-0.116361514,0.13339138,-2.2317903,2.0566754,0.10304943,-1.7660023,2.1782248,2.7534566,-0.40617102,-0.34102422,2.9304771,2.970831,2.3769186,-1.3631884,-0.11147882,-2.712929,0.84610903,0.3967583,0.46100894,0.38419193,2.389251,0.23843868,-0.60212517,0.31495768,-4.317427,-2.527882,-0.8932363,1.2854084,-0.039803993,1.2521781,-2.615676,-0.06981333,0.056969892,0.85405254,0.40031093,-1.2580036,-5.90081,0.88977146,1.7460674,-3.155572,0.5078016,-1.6577413,0.5643056,0.29225358,1.0983918,0.9673639,-2.357849,2.4840786,-2.9481266
github/Filter-Bubble/stroll,0.73662746,-2.901782,-0.22833143,-3.262975,1.2047423,-0.22666478,1.9449602,2.4082775,-0.5912207,0.86343795,-0.28410843,4.184873,-0.124874525,0.50916076,0.5530905,-0.67020774,0.45391458,1.6344746,3.2581198,1.2909863,3.1811805,4.3944283,-2.3378525,-1.2838657,-0.45289633,-2.8100517,-0.9234546,-2.0124354,2.125395,1.9401174,-2.072096,-2.0603676,0.7514288,2.4959066,2.5258136,2.659085,3.043148,-6.1123095,0.8840831,0.26834607,-0.7001855,0.736598,1.475768,1.5829686,0.31797045,0.815582,-1.6756722,-2.168866,2.5156193,1.9022777
github/tbrown122387/pf,-1.7910606,-2.696396,-1.8883857,0.9607355,0.24798843,1.4653834,-0.09526921,-2.1084363,2.857581,2.4908864,-1.721354,-0.099024795,1.3556764,2.6570282,-0.7578771,-0.7170648,-1.3560369,2.0940752,0.2650661,-2.719514,-2.7918243,3.825539,1.1687559,-0.3129836,0.8395039,0.45060167,-3.241967,0.49585775,1.7723106,0.7374568,2.3936274,3.4310644,0.9904085,-2.4861906,3.8006046,-1.2368338,4.6186314,-0.31466427,0.89337844,-2.5285394,-0.5297266,2.268473,-1.6325744,2.0007348,-4.098934,2.901906,5.727778,1.1591676,0.6783891,-4.2195635
github/deezer/spleeter,1.550278,0.1477291,2.4845207,-3.7889345,0.5587013,0.95338297,1.7510954,2.3019328,2.341747,0.11224701,0.71119964,0.2527318,-1.0206853,0.3150812,-0.91370344,-0.76330835,-2.4970374,1.2717707,-2.006267,1.1260818,1.3655245,2.0601094,2.126921,-4.3145914,0.69711894,-3.784152,0.22124302,-1.0183643,2.2591803,-3.1824982,0.76926786,0.34153575,-1.6286457,-0.439285,0.48299822,6.3676367,1.9329245,-4.6805453,1.517325,-3.7163017,-2.299415,-1.5517265,-0.8475618,2.1192825,-1.3075612,1.2515155,-1.3770946,-2.4059908,4.207368,-3.0972521
github/dmey/synthia,-1.9144055,1.1717275,-2.1955705,-1.7602065,0.2433703,3.5578196,-2.216367,-2.6243794,-1.5435538,-3.840923,0.90600395,3.7331212,-0.134797,0.96805936,-0.40742913,1.137873,-1.2118452,2.3432343,3.9583282,-5.4317427,-2.199824,1.0796763,-1.2966173,-5.398419,-1.6149151,0.04480904,-0.8739997,0.3161887,-1.8140506,1.3393276,-3.5726593,-1.2613906,-0.32553822,-3.0828118,3.2699604,5.1536283,6.6219897,0.29280514,2.9228544,3.3422,-1.4734251,-1.4953358,-0.90760833,2.1348407,-2.6858237,3.4509676,3.0917034,0.25922158,1.4373747,-0.05843146
github/spinicist/riesling,4.0624676,-3.038084,-2.8971,1.5407614,-1.98583,2.523551,0.059970923,-0.48982915,-2.35802,2.9814932,5.590628,-2.797479,-2.753662,-0.017120307,-0.15900506,0.33606985,-0.4578412,1.1351871,0.5695429,-2.9139957,2.7632282,0.17656957,-3.7822933,1.3204267,-2.4595225,-2.6314578,-2.9676116,3.1292982,-2.2007563,-4.6687016,-0.6503766,3.3415153,-1.1387,-4.8611255,5.828471,3.470585,-0.6730842,-1.5072323,3.232386,-3.0013337,-0.038426477,-2.888332,-4.9328103,-1.8433542,0.1727018,0.8004911,0.97643495,5.3948464,4.703002,-5.568192
github/hcdenbakker/sepia,-1.9784617,-4.7760606,-0.16811869,2.9996197,3.5756683,4.890153,4.7996497,2.3616397,-2.7604816,6.5232797,3.4458072,0.16305192,1.1609334,-2.6160755,1.6645913,-2.1722975,0.20367348,-0.19289264,-1.7595674,-0.42706007,5.466641,1.1925178,6.407294,2.126662,-1.1720065,-2.4299111,-5.9853797,-5.1706448,0.030825622,-3.457188,-1.4473661,-0.46224615,-3.0988097,0.60327476,1.9867194,0.5395869,-0.9170706,-4.3688607,0.9404869,-1.0748316,2.526707,-2.3229861,-1.3943172,0.7871883,0.12758707,2.1892476,3.6349826,-1.5649997,1.5325717,1.1157622
github/onnela-lab/beiwe-backend,1.8007975,0.68304944,4.0806384,-2.0355954,1.7711565,1.2838793,0.5349134,0.76333255,-1.2623215,0.35549378,-1.3374939,2.5165682,1.4089887,-5.9394526,-4.0913486,-4.8361907,-1.8898729,-5.802498,-2.6414661,3.279282,-1.1896259,0.07291595,-2.0208042,-5.9877768,-0.38278508,-0.15098731,2.8537605,0.4259064,0.59892386,-2.95755,-2.7202427,-2.6660876,-1.6512519,-2.519824,-1.3850778,0.7151858,0.81789196,-2.6579032,0.6165805,-1.4342905,-3.1584468,-3.1072776,-2.4186783,-1.2373867,1.228216,1.9405293,3.6460094,-3.0027328,4.7124934,1.6918868
github/isoverse/isoreader,0.37538314,-4.840935,-4.6607304,-1.116283,0.73857194,4.222787,1.6681187,0.7934557,-0.116287805,5.024114,2.9370105,-1.6018515,-0.5796929,-2.9533887,-2.4258995,1.7531326,3.9483833,2.6299417,-3.2096434,4.3329372,-1.6935718,6.8110538,3.440434,-2.2093775,-3.6303952,6.9566846,3.1484225,0.6203303,-4.459013,-4.401066,4.033162,0.53460073,-5.0989113,-4.6783376,0.7487149,0.2754153,1.6232045,0.14726737,7.354463,-1.5122932,-1.825889,-0.5570115,0.18691312,-5.1999173,-5.4947214,-8.595917,-4.326696,0.603674,4.650404,-0.20927358
github/phenology/cgc,1.4047748,-1.1995126,1.4823315,3.7310286,-0.49370724,-1.4479623,-3.527047,-0.6579172,-2.783106,0.7491291,2.9453368,2.937791,3.9751835,3.2076209,0.8553386,-1.169764,2.214433,1.0229901,0.7995664,-2.2853615,2.1711812,0.41142,-4.0701504,-1.3022113,0.20215699,0.7441836,-3.0512912,-0.4665573,-2.198411,2.2028832,-0.4683899,-1.7021457,-2.1491306,1.540022,0.06585428,4.982209,-1.7814053,0.5139284,1.711874,3.1183677,-1.7637428,-1.4826748,-3.841119,2.9262753,-1.8413433,0.76867586,1.1614702,-4.34663,1.484377,-0.1433803
github/surf-eds/one-button-compute,-1.4992586,1.0513649,3.2422104,1.9198948,0.4303054,-3.1368527,0.30169672,-0.27126044,-3.8454952,2.529065,2.6702912,1.656969,5.018814,-3.2402158,1.775011,0.5105961,0.20363832,-3.3803723,-1.023234,-3.2439353,-0.6155166,-1.8647333,-3.7887373,-3.4746275,3.6266782,-0.8913881,0.5924366,-1.554116,1.8822944,-0.99214005,-2.93691,-2.651732,0.00034149628,1.5278083,1.3861848,-2.5184653,-2.80951,-2.2051868,-1.9875034,3.5601819,-2.124701,-1.2267616,-2.1743393,-3.5351958,-0.018754575,1.6676174,1.3949491,-2.583307,4.4372053,-0.70284873
github/vprusso/toqito,-0.28982523,1.320768,-2.7229218,4.203551,0.64978766,0.8309708,-2.6203043,0.41448316,0.58249897,-1.3497617,1.9811696,5.1866217,1.9915254,0.7868142,-3.9876907,1.5591677,0.44873494,-4.0277076,2.5312104,-6.8795586,4.3386183,-2.7426283,0.853173,-2.45579,-3.4991515,0.2943303,-2.3618805,1.7261276,4.721255,6.177211,-1.9816774,2.921292,-5.782309,4.465778,3.1786728,7.7886977,3.8610044,3.8389335,5.404978,0.41157794,-7.7368226,3.904193,-5.0058427,1.3539897,-6.939374,1.3916701,-3.7071323,0.051852442,4.7952504,-2.0760732
github/JSB-UCLA/scPNMF,-1.4213877,3.2494574,-2.6215413,0.12697783,2.6827574,-1.5678364,0.338383,1.5283386,1.1830338,0.5052637,1.7633283,10.1960125,-2.8921776,-0.95965886,1.8175815,-1.3076968,5.057791,8.009752,4.0663877,1.8093199,4.392139,-1.0008495,-1.3702674,-4.0407023,1.7301533,0.14090367,-3.427716,-5.729308,-3.8451185,-0.40385765,-0.77028245,1.9710702,-1.2305837,-3.1195488,0.8883384,0.5194536,-1.977546,2.2518728,3.2666204,3.9923232,0.5287315,2.365379,3.6478631,-2.8427434,-4.218,3.2813985,4.4503784,1.2256994,4.043876,-0.79436135
github/jbuisine/macop,2.9209628,-5.3038745,-3.7185986,2.9770732,-3.111453,0.5678684,-4.4385896,0.2970255,-0.48187855,2.4865694,1.142688,9.718277,0.6316978,1.64186,1.1850058,0.6048861,-0.41658926,-7.970834,-0.5466005,-11.2265835,-2.0116448,5.719251,-0.32726815,-2.3319266,-0.20627637,5.774819,-8.202253,-0.8594843,2.6425042,1.6963885,-3.7080023,1.6361879,-3.432066,4.1187077,-6.8511167,1.3596984,4.0173745,2.344406,9.2124195,-1.3548057,-0.90408665,8.241363,-5.6635437,0.3436651,-9.7967615,2.3262885,-1.1163871,-3.9962335,3.4226074,-6.3906236
github/MrMinimal64/multivar_horner,3.0171945,-3.1643777,-0.78112215,-0.117736965,1.3252447,4.4543447,0.116066046,-1.1166867,-2.8242803,-3.6673667,3.7166471,0.9244557,1.6690983,0.59759355,-2.794517,1.6379873,3.2959733,0.65147465,1.8149596,-9.754194,-0.017584078,3.2658925,-2.949924,-0.29087695,-1.6563857,5.590699,-5.7670984,-0.72805136,0.6125545,6.623857,0.18497588,-1.2466763,-3.416883,5.0132966,3.9206238,3.946526,3.4924574,-2.040714,7.1161056,1.6339107,0.20365986,-0.94110155,-3.9690008,6.717656,-7.4512115,5.3399935,-2.4011533,3.207692,-1.4885448,-0.28556392
github/thejasvibr/bat_beamshapes,2.957674,-1.0541142,-1.7870741,-5.4500403,-3.533048,-2.78197,2.0047073,0.4691995,-0.5083885,-1.0933399,-0.7083226,-0.4851633,1.6872349,4.9788475,0.43752566,3.1088798,3.0935462,-1.2234988,-2.3064437,-9.541319,-4.3443513,-0.33933628,-2.1536765,-4.08852,-3.4014826,-1.2070608,0.22896154,1.9529805,0.13925873,-3.6829102,3.2697835,3.1453886,-2.3185968,-0.5998889,3.8843954,-1.9334482,-1.6313678,-1.5115566,1.3096344,-1.1912867,-1.9376451,0.8436848,-2.8491125,6.78262,-6.742443,2.1770458,-4.1943436,2.4907563,-0.67583245,-0.6779274
github/atomneb/AtomNeb-py,-4.922962,-9.285607,2.0189166,0.746374,2.044086,-2.7781992,-2.3605025,-7.77865,-0.2014864,2.1993513,5.320642,0.78605765,-0.19180731,-5.828996,-4.3330927,-5.1391954,-2.5172763,8.475388,-4.331423,-6.0559087,2.2397614,5.858119,0.743619,-1.1839575,-1.4701322,-0.37718755,-0.19179504,2.861225,-1.7423035,-5.164722,3.7330818,-1.585002,-10.437878,-2.440625,6.093156,3.6964548,4.0806684,-1.4267601,1.871041,0.6262665,-0.82673055,3.2799683,-5.0851455,2.677033,-1.0057302,5.1103506,0.22182076,-1.4988233,0.122268386,3.236536
github/eScatter/pyelsepa,-0.26520526,-1.6037593,0.27393803,0.25172183,-0.8924904,-0.13015063,-1.6947209,-0.85465187,-0.8845799,-0.59277946,1.4874384,1.4783428,2.2770185,0.10527484,0.8708004,0.06344953,-0.446449,0.49079773,-2.0953126,-1.6235766,1.3844652,-0.5648949,-0.8122309,-0.4637745,1.2900476,0.11759991,-0.008119566,1.6916565,1.5740865,0.23373552,1.0041524,1.0914638,-1.1049091,-2.3241343,1.2505205,-0.11120833,-1.0582781,-1.7022676,-0.6905567,0.3751523,-2.05348,0.5535559,-0.47732273,0.5623583,-1.2296535,0.072483845,0.76436627,1.009515,1.331978,0.7792369
github/cjbarrie/academictwitteR,4.4602833,-4.436489,-1.4557598,-9.292457,-4.2824674,-1.1082194,-0.7165588,6.8398376,0.5824669,4.3131914,2.470996,-1.5813926,-1.5882173,-0.5007876,-6.8839645,-2.1781871,-1.4430646,-3.0578732,4.779088,2.4048703,-5.83643,-0.6826346,2.1698198,-3.2459369,-0.78991234,4.8489895,-0.26012358,-3.058193,0.36003134,-0.5927907,2.637088,-2.682814,-6.272102,-3.6546679,-6.7767763,-1.5177692,-5.2835565,-3.8223972,-3.1049259,5.298614,-2.4595747,0.391379,-5.3007984,-3.4510005,3.4214375,-0.72618705,0.5953994,0.48961365,2.43828,0.318698
github/amusecode/amuse,-0.4304617,-7.1262274,-1.7384795,3.205305,-5.0330715,-2.946961,1.0490677,-2.5758235,-0.4909719,0.7944348,-4.0127206,-2.98114,2.9084306,3.256402,3.391526,-0.6041038,-2.7228806,-0.35136467,0.037792522,-2.0706053,-0.4289857,3.6135144,-2.3079329,-1.439199,-1.8984019,2.9986117,-2.8300116,2.4906492,-1.6650779,-1.1005095,7.685946,4.9494247,-0.8492463,3.5516927,9.538543,3.0172515,1.796594,-0.6429388,7.053863,0.29561245,-6.2009254,5.579252,-3.8725781,-0.39881432,-4.9380093,0.8054069,-3.7215714,4.0671973,2.2020361,-2.6059508
github/ketch/nodepy,-1.1228243,-4.167662,0.12206125,0.47603387,-2.9364676,2.8742695,-1.2480435,-1.2224884,1.4466304,-2.0008957,2.7695725,5.7206573,0.90618914,4.997284,2.3363128,4.6854777,3.1509209,-2.0124834,-3.2100642,-7.53215,-2.278992,0.5876917,-1.7989459,-0.21054547,-1.021191,0.85557115,0.41273877,-1.6857699,-5.0680337,0.7610261,4.1810346,-2.2581964,-2.164348,-1.8937129,1.2511431,2.8843362,-1.1819407,4.2586966,3.5239377,-0.3194913,1.520264,1.0860858,-3.733908,2.0443628,-6.7612967,2.0499501,-5.4785175,4.715234,0.35564563,-2.4142652
github/ketch/RK-Opt,0.46612456,-5.8981647,-0.32435852,0.6269936,-4.941764,2.8309727,-1.8202403,0.28796893,2.367185,2.271565,4.6605415,7.8184037,-0.61593723,5.7301884,-0.0881665,4.529646,3.5327613,-0.6655066,-3.1760418,-7.2220244,-3.2289915,2.4199486,-0.90241194,-0.19645871,-1.8969979,0.23293024,-2.8484693,-0.41947803,-8.065149,-1.1720636,6.3173976,-1.6069638,-2.037921,-3.6263895,1.0961518,-0.12025025,-2.6416917,4.876586,1.0504975,4.8941283,0.45046622,1.2369871,-7.0479064,1.7819579,-8.203097,0.80377984,-6.799116,4.7312217,1.7761602,-3.095377
github/c3s-magic/c3s-magic-wps,-1.3641734,0.95134413,-0.9750755,2.2262347,1.9426756,1.3952136,-1.5503939,-0.49831304,-2.7151234,-0.006317686,1.2442832,-1.1192753,2.2058742,-1.9789054,2.1723688,3.7519388,-6.1840425,0.8224738,-1.2193203,-5.1124444,-0.7709414,0.3965927,-1.123327,3.1887782,-2.6798408,-1.3224287,-3.4616485,-3.0799778,1.1256704,-0.6855346,0.3476451,-4.257448,-1.2603472,-2.5336738,1.6917053,0.2611939,-0.785018,3.005,-1.5188751,2.8287492,-4.650235,-4.2067704,-6.0900335,-1.9541956,-1.3268433,-1.7808309,3.4670715,-5.0834794,3.548152,3.0364778
github/DedalusProject/eigentools,1.9939215,-3.1040778,-1.8353415,2.1598837,-1.4485087,-0.38443616,0.5425718,2.3146193,2.5966544,1.1523055,1.7669293,-1.4306862,0.67835253,3.6999097,-0.3858026,4.2126956,0.51884985,1.6649256,-0.008976029,-4.0508575,0.593157,0.051519386,-0.9880926,1.1190575,0.26099798,-1.3022076,-1.361725,0.40064222,0.15879707,-0.9227439,3.902928,2.0137699,-1.3236179,-2.4458983,5.885008,2.0211773,0.9374699,1.451137,2.677698,0.9482254,2.9527068,-0.8338378,-3.5639043,-0.7504741,-7.6889052,2.174461,-1.1556284,-0.55511934,0.7323655,-1.1831355
github/kadyb/rgugik,4.1582923,-5.8732667,-5.031537,-4.0255027,0.858294,-3.4617317,-3.8116155,-2.4704049,0.49186373,-1.7684088,4.065396,-0.9480255,2.998127,-2.485038,-0.6779671,-0.5019689,1.5085531,3.3409774,-0.4150894,-2.1618445,-0.35700887,-1.9144152,-1.4262478,3.6566257,-2.544892,4.0867763,-5.91539,-3.4805763,1.6508851,4.649374,1.793921,3.5565283,-3.0161994,3.7770064,2.5265713,-2.9206958,2.0640588,-3.001802,-4.3994474,-4.858272,-2.8856823,-3.0949845,-0.3715879,-4.736479,-2.5402527,-2.1452928,-0.08035018,-3.0587604,2.6119177,0.24787593
github/MRCIEU/metaboprep,-6.9069014,0.8300155,-7.819952,0.020727308,-2.16042,2.3177497,-1.4312687,-1.0361049,-0.804034,-1.260183,4.079509,5.6648936,-3.8003602,-5.2652683,-1.2545305,-2.6541452,1.4049628,5.931443,-0.05546137,5.348114,-5.5232644,-0.98029697,2.406895,-4.2343564,4.733612,-0.796059,-5.3631115,-8.685706,-1.9928775,-7.0085554,-5.860984,0.67625755,4.425917,-2.0122473,1.4018707,-0.35047752,1.2747117,2.4371512,2.82139,-4.0704575,-1.4490384,-5.6757326,0.8962099,-8.828541,-2.023797,4.2085876,6.2754564,3.1938107,4.6249475,5.0613875
github/entangled/entangled,-3.5000715,-2.0343635,-1.8160429,-0.8650009,3.75875,-3.258235,8.170893,1.692809,-3.8707592,1.5461446,-3.765932,0.5073423,6.8465724,-4.757528,2.4959111,-2.5095408,3.0958195,-5.4237113,-2.7266464,-6.3492417,-0.65318793,2.053645,2.6284885,-2.791928,0.6661425,3.2258646,0.05232427,1.844668,1.6393346,2.9791546,-0.367863,1.4625024,-4.8755383,1.3527793,3.2566736,-1.3936948,1.6799324,-2.310597,11.063447,-3.5356965,-0.8016924,5.143849,2.5666037,-2.0588906,-6.6020117,-2.7034628,-3.3789,-0.71044505,-2.9103763,-0.7869484
github/geospace-code/h5fortran,-0.69710994,-5.5750647,-1.9574924,2.1905415,-2.3695536,5.6466165,1.2846646,-8.110684,0.10197002,-1.7596034,0.7860221,-1.6924691,0.8230777,-4.969594,0.18504526,-2.4365196,-1.1435574,-1.6739957,-0.51814336,-1.4012567,0.4842636,1.1088841,0.62009835,-4.7023973,2.844825,4.34034,-6.7114644,4.342169,-3.4816198,1.5627922,4.671987,3.9367216,-5.3317122,-1.2695347,5.751532,3.0845022,6.905605,-2.3937135,3.5294206,0.06803831,2.323719,1.3971603,-2.3265352,3.5137546,-3.2566962,-2.8436956,1.3210589,4.434744,3.264884,-1.424462
github/lijing28101/maize_pyrpipe,0.08537451,-0.5614764,-0.4183248,-0.22827002,-0.16282392,0.1359129,-0.45610964,0.35057428,-0.77049357,0.42590794,0.024097716,0.9808624,0.40730563,-0.29147276,-0.06819127,0.6722328,-0.014715302,0.3683851,-0.124918595,0.12187921,-0.37979296,0.1735075,0.3239176,-0.17466375,-0.27633816,-0.7261278,0.32922223,-1.0890049,0.48478642,0.1775487,-0.15748693,-0.60755026,0.03714721,-0.72120005,0.1595441,0.67075837,-0.7197331,-0.81952643,0.62170225,-0.61548996,0.19363785,0.73526824,-0.2276083,0.3141859,-0.11925743,0.08262215,0.3125113,0.075169474,0.54452515,0.3664343
github/OrlandoLam/SAMT,-1.0661795,-2.966859,-1.915854,-1.4580133,3.8595636,4.0925274,-2.8173876,0.92460227,-0.99377567,-1.5870262,-0.31682608,-0.51050204,-0.1412343,-2.5125833,4.460168,-0.6771794,4.0651827,3.0388417,-4.1792965,1.6656474,-3.6837373,-2.0816147,4.015213,2.8778734,-3.773885,-0.36484554,-6.4931145,-6.2155185,1.6730258,-0.31935474,6.184614,0.8726032,0.087679766,-0.20781027,0.35905516,-2.0391595,2.4416814,-3.1254737,-0.35229298,-1.848551,-1.8216788,-0.1914097,2.9744782,0.80966777,0.03938862,0.39148396,3.4890509,1.3159406,0.6150243,3.0209775
github/fAndreuzzi/BisPy,0.20533152,-1.0259761,-0.9233608,-0.49404597,5.019051,-1.0297464,-1.8906684,1.3294466,-1.4626316,1.4849566,-2.4761863,10.151893,2.578899,2.679299,0.67900395,-4.358607,4.31507,-4.2866936,3.3313797,-5.217702,-0.5574691,-0.69734263,0.27529457,-2.2837694,0.095896706,1.9594488,-1.527241,0.041354455,1.296697,2.9314203,-4.105226,0.03561422,-2.8956573,2.924529,3.7560897,2.3929455,0.72651064,0.6108163,4.0536914,2.324331,-1.4533839,0.986768,-3.0683722,3.3400066,-7.3913484,1.5794444,-3.6675396,-0.6033821,3.4617624,-1.3490206
github/pavanvidem/chira,-1.641157,-3.5374599,0.6848106,1.7121248,1.2211583,1.8756086,0.90567666,1.561868,-2.322878,3.0646093,2.2304618,-0.7757113,0.06425042,0.29647392,1.4704881,-0.82924116,1.6017361,0.16584529,-1.9789823,1.3376911,1.1866262,-1.0536704,1.9529929,-0.863551,-2.336603,-4.650454,-0.71328133,-1.7344476,2.722426,-1.227718,0.038194668,-0.8614618,-0.9749538,-3.3230937,1.0875239,1.2875971,-1.4873843,-0.95952475,0.124969356,-2.2925072,1.1137556,-0.5541787,0.5855494,-2.867242,0.22028637,3.1835737,0.039260805,-2.1667957,3.0046453,0.79941493
github/flintproject/Flint,-1.2657378,1.1110742,1.6658001,0.28243512,-2.5979352,2.7218883,1.4517158,0.04737755,-1.5694577,3.1446097,-1.051474,0.9789854,1.90016,0.8936593,1.9590172,-1.2200376,-0.8585108,-0.2377499,0.012768991,-0.7127228,-2.5094364,2.9395375,-1.0790167,-0.3741364,0.2726132,-1.7198346,3.0529761,-1.7451787,0.8747946,-0.25518245,3.0180788,2.3671167,2.086244,-3.3532257,1.3637892,-0.1313762,1.8946502,0.033264335,1.6308357,0.07784807,-1.960181,-0.031268694,-1.136085,3.486507,-4.733577,2.174336,-0.9833103,2.9073148,4.3041987,-0.03843097
github/oschwengers/referenceseeker,-2.3432982,-4.8936615,2.4717054,-0.9126226,4.5885286,5.1899457,-0.30327877,1.4505652,-0.24634065,2.1211798,1.1627905,2.6041992,1.057765,-4.029689,3.3581176,-2.1787186,1.8367481,-1.7639227,-3.1189218,-0.00023052203,2.5287557,-3.755924,0.46623513,1.7604198,1.641555,-5.158824,-4.629608,-2.7887928,0.37463206,-0.08547782,-0.73149294,-2.4357789,-3.4365194,1.6542385,-4.175044,0.5912479,-8.323221,1.4289652,3.602965,0.03753084,0.46727026,-2.298016,-0.6377086,-1.4926854,-0.79049,5.852112,-0.82000214,2.232023,3.0274308,0.64990455
github/oschwengers/platon,-1.7478201,-2.533615,3.8695242,-0.8432528,1.780571,4.2940702,0.7907335,3.077572,-0.14688584,5.056437,1.1226408,1.331977,0.2720853,-2.0555592,0.39433226,-3.3770125,2.3771102,1.5481751,-3.9012473,-1.1401805,2.0428605,-1.6724504,1.6657242,1.9645684,0.89815015,-6.513052,-4.081135,-1.3058928,2.2244437,-3.425895,-1.1718558,-0.66321915,-0.6748201,-1.0379825,-4.04408,1.6107278,-5.130255,-0.9499828,1.3637453,0.4071675,0.18752006,-2.6771798,-1.140457,-0.9976959,-0.27010414,2.9835994,1.7934736,0.56912833,1.5576774,1.1202079
github/oschwengers/bakta,-2.262916,-5.6499825,4.7341843,-2.1879091,4.3073783,4.2425876,1.8125895,2.582429,1.3483438,4.712186,2.0040402,-0.88960505,-0.15085432,-4.767678,2.319933,-1.755198,3.4118311,0.014208182,-1.860416,-0.0410784,4.4712167,-2.3218284,-0.9638136,0.5055829,1.6302549,-6.4438276,-3.8057349,-2.0318048,0.23991321,-2.131074,-2.7446806,-0.6764587,-2.7540252,-2.1693418,-4.190901,2.1869292,-6.4049783,-1.8654335,4.677349,1.2646279,-0.07219143,-2.979572,0.79714364,-2.2460284,0.49830377,3.9569457,-0.28366646,1.9720386,1.2760783,1.40999
github/hillerlab/GenomeAlignmentTools,-4.80835,-5.4965262,-2.4540591,2.027153,2.277036,3.0486846,2.174332,-1.2054183,-2.889666,8.522487,-0.90113753,-0.8579067,-2.743548,-0.9654186,0.14081948,-3.9786458,2.40118,-2.352577,-1.7092814,-5.4487615,4.595675,-0.7599148,0.52894986,0.044086702,-1.6595597,-3.975895,-3.574842,-2.0042653,0.060642388,0.7132435,1.4185181,-0.37531945,-1.5200655,-2.4449198,-7.554302,-1.643659,-3.143661,-3.1619258,2.5588033,0.60651124,4.3629923,-0.00085019297,2.2354352,0.18754938,7.160248,2.2083383,-0.09718989,-0.5491738,3.8113723,-3.063573
github/AstraZeneca/kallisto,-1.320225,-3.8439274,0.008948796,-0.5938724,-0.36739296,0.68852717,-0.15124804,-4.370632,0.7031166,1.6636289,2.3426678,3.028833,1.2735617,-1.0678215,-1.1291512,-4.388327,2.9621832,-0.30172297,-2.017824,-5.52114,0.9901893,-2.3215275,-1.3064852,-1.3127643,2.0331688,-3.5839322,0.8202198,2.5307288,0.32787225,0.56187564,-1.004747,1.3035009,-1.7384762,-1.1551362,0.5078679,0.3452131,1.1194987,-0.8308591,2.8729942,-0.08099262,-1.7425954,-1.7438046,-0.42969844,-0.11329667,-0.7738139,3.6153271,-2.2579749,-0.4821229,2.7841864,0.00012342779
github/mscroggs/symfem,-1.8048407,0.39993513,-0.6100169,-1.4162073,-1.0017443,-1.8318688,-0.5956277,-2.4428766,-0.85681444,-2.3515196,1.2662935,2.669308,0.3845011,1.0542232,2.6081133,2.297644,5.288602,0.3440134,0.6399645,-7.72641,-0.72514856,-4.9152966,-2.4129486,0.02815088,1.7143081,0.5140247,-3.3528826,1.523839,3.2922573,4.548521,0.23861039,0.68379134,-3.7133455,-3.605531,0.9147298,4.1072574,0.23901813,2.819529,5.486054,2.608849,0.17423326,1.5410689,0.30678594,-2.8707762,-10.046943,5.6755095,-4.746147,3.3804533,2.958647,-1.299298
github/CGAL/cgal,-0.89137644,-6.754504,-0.98678106,-3.3296611,1.0339262,-0.49541202,3.6733534,1.1406808,-0.5560096,2.8919775,3.550635,-0.5496815,-3.441448,3.4194205,0.60890967,-1.367644,2.238812,-1.0124483,-2.388195,-3.8586042,-0.0057246774,-5.608346,-10.907719,-0.13473323,-0.83262247,3.544796,-1.5858054,-0.43629655,2.8820176,6.222774,-0.4717353,3.2856834,3.9602456,-4.553615,0.86686546,-1.4395444,4.678685,-0.28143555,2.467782,-1.7210691,5.4822764,4.308568,-1.0122416,2.5079525,-1.9460129,-2.2910025,1.7842829,2.6527798,3.324633,-6.5606756
github/VNNikolaidis/nnlib2Rcpp,2.5218558,-0.22090015,-1.3959341,0.83174056,1.53414,-1.5387803,0.15762746,-3.5049953,-2.3423812,1.162749,-0.60452193,5.930386,-2.6992643,-0.32956278,-4.0819755,-4.036265,3.9936843,2.4122837,2.319213,-0.22268882,1.949767,1.7548125,-1.2468891,2.5973322,-3.3791072,-0.42901424,-4.0539136,-3.0559518,0.03993021,-0.028993415,1.0779004,1.3382066,-3.0676045,2.1098788,1.7721647,5.3813,5.8320427,-4.2608776,0.87153107,2.5569088,-1.6546482,2.8059075,0.5158538,1.2656984,0.90348965,-0.37144932,-3.3753815,-0.53117645,8.27204,-2.3950799
github/MoreiraLAB/mensadb-open,-0.40399897,-3.5935597,0.07973207,1.1966523,1.1099745,-2.768648,-0.7787847,-2.5063636,-0.157548,2.2662864,2.5010285,0.3017713,0.11326334,0.9127132,-1.1701264,-1.2260708,2.099554,0.97747713,-2.2863386,-2.596166,1.1962776,-0.6549846,-0.719561,0.83414537,-0.105332814,-4.430461,-3.4257486,-1.1751614,3.7849755,-0.925036,-0.15771517,-1.839708,-2.4338722,-0.8574871,-0.4778936,-0.7718705,-2.5429404,-0.39308083,-0.58338463,1.1147897,-0.34118977,1.3701221,-0.040991142,-0.41107392,0.7001372,4.6712623,-0.9283439,-1.2878014,3.6357996,1.6123807
github/MoreiraLAB/or,0.7497028,0.7367017,0.07115801,-0.33741903,1.5941888,-2.1471775,-2.496568,-2.7696948,-0.20619692,2.7478867,1.464281,0.36151505,0.54520607,0.6216122,-0.7077374,-0.86518264,0.21985787,-0.7437373,-1.6301283,-1.5019623,-1.5419718,1.0011625,2.5952983,-0.5578483,0.31608033,-4.831973,1.1242772,-2.6186428,1.9937526,1.6609385,-1.085454,1.0947266,-0.5296922,-2.6284964,-1.7065575,1.1082767,-2.1854215,1.1721157,1.6749326,-0.3771418,-1.1667507,2.9467328,-0.5617491,0.5020175,1.5306047,2.7750592,1.0773313,-1.0852628,2.2148156,1.4210008
github/cadop/seg1d,3.2057242,-3.3820138,0.03038174,-2.230025,1.2466528,-0.38638815,2.0125818,1.1049942,-2.2934396,-1.4992753,3.4397798,1.1307273,-0.027102003,4.558253,-0.27715537,2.1804388,-0.8388604,-0.071132146,-0.49928024,-0.18807642,1.7959914,-1.1248927,-2.6430917,-3.1361117,-4.933032,-1.0389946,-1.2986342,-0.8457682,3.6787248,-4.7844095,-1.3286432,-2.0279908,-0.29788592,-2.2900162,2.1552064,3.1015203,-0.72211653,2.7138393,2.6297138,-2.3701236,-2.8316762,3.2992911,-5.71934,0.44439602,-0.6705123,1.6427248,2.3476813,-1.1109492,3.0585396,-1.456481
github/mdsteiner/EFAtools,4.1035323,6.5205126,-0.9679003,-6.604351,-2.7462165,2.4129295,-0.8562831,1.5779493,-1.5129195,-0.52513033,5.399577,9.327893,-3.182153,-0.391702,-6.3030205,-2.016591,13.134314,3.3966718,-1.6131836,-1.3334756,-3.6495845,5.0067496,2.2600014,-6.5239344,-5.7073903,-0.23899059,-3.9399471,-2.354052,-2.5085642,-3.7393503,-0.904443,4.3343287,-2.482671,-2.8768222,0.37778318,-5.4148855,-3.5899866,2.1020155,-3.0863664,0.5315074,1.2159442,-4.641373,-6.939587,-0.01749282,-7.255647,1.1339843,0.48481968,1.3588625,2.9830198,-2.2261927
github/azizka/IUCNN,-4.0590034,-1.1023407,-6.6065283,-0.85109556,3.9809663,5.6305685,0.81602514,0.49892223,1.6554134,-1.3483903,-0.50106114,1.5378553,1.8703204,1.7198619,-0.34060216,-4.1640363,-2.5027494,9.443429,0.057276633,2.2396367,2.310924,-0.10302619,-1.7238148,6.631009,-1.7373912,-4.6936293,-10.372522,-6.1968718,-2.2123356,3.5513556,3.5556326,-0.22813882,-1.5256248,6.0865946,-4.2429314,1.8620756,5.467953,-6.847878,-0.3917384,-3.7483804,-8.093025,-4.712617,-0.40137124,0.76353425,5.1582007,3.60431,6.366788,-8.374106,3.9913068,1.5560678
github/BioGearsEngine/core,1.2995899,-0.98322666,1.9159315,1.9564718,-0.49854133,3.903235,-0.9168155,0.4015079,4.989718,4.851876,1.3073044,-0.29423377,-0.38263562,-0.672491,-2.467161,-2.4205565,-1.8888178,-1.1330831,-3.7610853,-1.6243712,-6.7341976,1.0665545,2.3762515,-1.599433,3.7912388,1.4403244,2.936331,0.7455657,3.4780293,0.9830329,0.1335388,4.291618,1.948297,-1.4956124,3.1533222,-4.3154,-1.5015506,-0.85563374,0.82381546,-2.6655219,-5.876988,2.5555084,2.5701277,0.35496345,-1.5824256,3.718155,-4.3438616,-4.289427,4.961077,-3.88121
github/DrDaveShaw/INCHEM-Py,0.43600604,0.99110425,1.8926854,-1.2744238,-1.2960674,1.2970892,-0.566192,-3.4199822,3.0256498,4.8120666,-0.699241,-3.308525,3.2422335,2.975747,-0.9447733,0.2748801,-0.9649288,1.029384,-3.393391,-5.433509,-4.4972334,0.8136237,1.9543496,0.15502262,-1.081633,-4.073736,1.8859497,-1.4193082,0.12874143,0.7823158,3.7459388,1.7832855,2.162225,-3.7098124,2.4103663,-3.2210305,-2.457353,-0.12696026,1.982416,-2.752452,-2.2809248,-0.9250306,-3.0129662,0.8110906,-2.224763,5.1941924,-3.218871,-2.9153636,1.6191897,-0.25543615
github/bommert/stabm,8.989691,-3.0166364,0.65368867,-1.7242613,7.3693156,1.6208326,2.9655516,4.0838795,2.8914244,-9.147433,6.2999682,16.614212,-5.779779,-6.2015347,-7.309058,-2.9976587,7.3683257,12.563369,3.6970804,-1.8677355,-0.24946363,-1.8002882,-0.49198416,-2.2313304,-1.8720313,-0.10544443,-9.370677,-9.839915,-0.89671034,6.161762,6.72258,-0.7101262,-3.534891,-0.20415746,-6.352895,-0.419409,-2.8391976,7.987007,-2.052834,6.8269916,-3.216515,-2.8854046,-8.552261,-5.5605097,-6.8364797,9.899813,4.279456,-3.9536738,5.662433,-0.20076343
github/Yomguithereal/talisman,-1.4288026,-4.3196526,1.0537257,-2.6673148,3.3587587,-1.568223,3.0517304,-0.28616962,0.102284916,1.7138568,1.4925604,6.905686,4.4788275,-1.6899785,-0.5672325,-4.7148943,3.521406,-3.162488,-0.91327345,-1.5400761,4.690572,-0.92108613,0.38772982,-1.5341138,-0.40868974,2.8811247,-1.9840523,-3.572817,2.4524808,0.06346051,1.261184,-1.1867518,-3.4737144,1.9937686,2.3823776,-0.39153916,-0.4655469,-1.8562697,2.5485947,2.8417482,2.481567,0.96447164,-0.20378608,2.8002038,-2.1451893,-4.246275,0.9072069,-1.166142,-1.4322366,-0.12229391
github/ashleefv/ACEInhibPKPD,1.4925618,3.8069396,1.2214084,-0.87300724,-1.9888196,-0.18048032,-1.3752608,-0.18598352,4.213043,3.558435,-0.32540926,1.4851419,1.5966753,-0.8710348,-3.2153294,-3.4666753,3.097962,0.69687873,-2.3580835,-1.6193341,-7.5097575,-0.16988732,2.7495444,-1.5972816,2.5094361,-3.7184813,2.3468263,-1.8695753,0.5817437,-3.149069,-0.16155931,1.6345276,0.8511207,-2.4865382,2.6995595,-1.9832684,-3.4027328,-0.5705793,0.3098523,0.6766605,-2.11222,-1.1894306,0.30965605,-0.32313344,-3.6176567,4.5952797,-1.4275916,-0.36967126,3.2764556,-1.3099223
github/mbhall88/rasusa,-3.5756328,-4.208615,-0.94578815,3.6840153,4.7527885,6.855528,5.4047003,4.2419176,-2.202124,3.5723078,2.6739786,2.648623,1.1116978,-4.7828035,1.0948484,-2.556547,-1.8530297,-0.48030072,0.11099918,-2.3431966,8.623956,-2.7661595,1.8014112,-1.0684928,1.7583205,-1.9503614,-1.2140155,-0.76444834,-1.1246055,-3.6982934,0.75185585,-1.5450573,-7.1288757,-3.2122018,1.4265183,-0.39156651,-1.1509259,-4.051062,3.5796475,-1.2802817,2.0511365,-3.058476,1.0835698,0.122003876,0.42934665,4.2790504,1.793628,4.2702117,2.5977962,-5.383517
github/NielsenBerkeleyLab/sconce,-3.539968,-0.16427198,-4.2175894,2.6936924,1.42039,3.9271588,1.9345775,-1.3146641,-3.0449007,3.2824678,-1.0325339,2.2125611,0.03674944,-0.48107943,0.94228053,-2.3797572,-1.2529498,4.272655,-3.1839037,-2.125485,0.2660127,-0.08606343,0.97008777,-1.3585202,0.99078214,-2.5400372,-1.5905004,2.274595,-0.89436865,-2.5751283,4.079628,-1.9476823,1.8968343,-5.427873,0.58941686,1.3003694,-1.772453,-3.4958563,-3.4837294,-2.286025,0.8624403,-1.0972292,1.9710348,0.3624947,1.3498914,4.9119406,2.1093965,2.2114272,3.177708,-3.965168
github/BioMeCIS-Lab/OpenOmics,-0.87563735,-0.7437677,3.9867876,0.4991777,2.810145,0.068320595,1.4932035,0.014556971,-1.0658748,-0.15730883,2.4642568,2.4202023,-0.4238288,-2.4126577,3.8351529,0.48246494,-0.4859109,0.25993484,-2.7583334,2.7174075,-1.0766195,3.4414284,0.77101445,-5.375177,1.4408257,-1.2721324,1.4691434,-2.2146468,0.27311134,-0.04513811,1.097718,-2.9168766,-5.6411524,-0.35604027,0.25549632,4.3168335,-2.7444053,1.4364005,3.0123081,1.3216732,0.22166723,2.5250278,0.6390585,-1.0272237,-2.1256309,3.0102391,1.5371476,-1.7356725,0.1859821,4.4066463
github/wangjun1996/VisFeature,-4.024267,-3.1389172,-5.8970337,-4.180985,-4.231466,2.524335,5.830271,4.890914,3.1235766,-0.32200196,2.5840645,-1.2062216,-2.7761576,2.2486348,-0.30809793,-0.14486155,3.1877666,-0.8929653,-1.8846799,1.0096495,-0.60810727,-3.1300993,0.9121014,-2.3620982,-0.9807368,3.0887856,4.433336,-2.2110038,-3.2779787,3.565093,1.9693942,1.9081256,-1.3003254,-1.3855085,-0.7269354,3.8429542,1.896845,1.0566794,2.697169,1.6634947,0.72844195,-0.72167194,1.0211837,-2.5162323,2.189098,-4.320269,-2.6967094,1.043241,0.26330966,1.9425611
github/ylab-hi/ScanITD,-3.966075,-3.8159285,-2.0623846,1.0551208,0.10539408,3.033056,0.5449385,0.23381671,-1.087294,2.297241,2.3751543,1.3044449,0.787165,-0.037718467,-0.4570946,0.6214659,2.4369416,0.9334777,-3.3422937,0.0026586063,2.3130639,-0.12844063,-0.5531633,-2.8861678,0.18197066,-2.3311214,-1.6913519,0.4046139,0.95059395,-1.7602298,-3.220522,-1.9936948,-1.5274864,-4.5352473,-1.0871054,-0.7052451,-1.666706,-1.5840147,0.26818177,0.35178524,3.1756885,-0.8353128,0.34400648,-0.023372138,-0.36198166,2.6316066,2.2998233,0.8064018,1.6584033,-1.9861225
github/csinva/imodels,2.7396274,-2.6108823,0.27881747,0.28332573,-1.0257938,5.5038905,0.88280416,1.0998671,-2.8031433,-0.32902214,0.18524274,8.043447,0.5552931,3.4103055,-3.3134544,-4.5280194,-1.0129794,1.843934,2.7109687,-4.225556,1.3935863,6.4303217,1.8842819,-1.8599294,-0.24427961,-2.6161711,-5.128774,-3.7029932,-2.555795,2.6952202,-1.3537765,1.5685512,-0.8786012,-0.6303834,2.896769,3.012833,4.318083,0.43211454,2.6927717,5.3879533,2.363413,-1.058638,-0.20683548,6.23739,-0.5852388,3.2050514,2.2100317,-1.005676,0.89413726,-3.161597
github/koenderks/jaspAudit,-10.14957,11.34265,-2.9012156,0.75552183,-0.43665624,6.6275663,1.8804334,2.624143,0.37971205,-4.001431,-1.474451,10.633871,7.0965047,-2.5997672,-14.934704,-5.6191173,8.83646,1.6884677,-3.3869727,-1.6851387,4.457378,1.461189,-2.0698276,-2.3564584,-6.496709,8.292224,9.774799,-4.4386005,-0.33234248,6.0066824,0.15543364,-2.909352,-7.5821724,-4.5640655,1.842895,-4.6654024,-0.8429709,1.802201,4.089355,-6.792902,-0.83356607,0.2629412,1.377878,-3.664442,-2.4873405,9.845506,4.126654,-5.388162,1.0605623,0.23019144
github/donaldRwilliams/GGMnonreg,1.7168804,2.3732991,-4.0396347,-4.7892747,0.8783245,7.9358277,3.8166595,1.2956175,-3.6948419,-4.5993786,-7.3414645,7.629466,-2.0907118,2.7517292,-2.567602,-4.775728,7.4180913,3.5844333,1.051135,2.5322418,0.37587515,-1.0397516,0.65456724,-1.716828,-4.470647,0.47732624,3.2775774,-1.254653,-2.0956151,0.19711506,-1.4354753,6.240827,-1.12263,0.6217037,6.616843,-3.0980937,4.3119907,0.6720571,-2.5011315,0.27253523,-3.443632,1.1049039,-2.6780243,2.95908,0.033990853,1.1899709,2.696959,-1.0535548,4.004753,4.436711
github/donaldRwilliams/BGGM,1.6667591,4.6088057,-8.946461,-4.837206,-0.20878987,9.859426,1.224621,1.9525703,1.8865563,-4.5351624,-5.010094,9.149847,-0.9027287,2.8311162,-3.892762,-3.011766,4.900314,2.9598663,-1.9280666,1.288075,-0.3176924,-1.1603606,4.6122355,-3.2489228,-4.7591186,-0.43320978,2.9797366,-1.7899891,-2.7576723,0.7488204,-1.4119314,7.267961,-1.2494227,2.525474,7.765373,0.008088675,4.9773912,3.6232271,-3.7161627,2.3739944,0.5196172,1.6621621,-1.1986377,2.4894636,-3.097682,0.8801932,4.1068435,-1.372234,6.0342097,3.1527584
github/mpc-bioinformatics/CalibraCurve,0.98703665,-0.29121453,0.6043826,-0.13315721,0.17133208,1.5944996,-1.2630141,-0.6539357,0.067759365,3.2102087,1.8369201,1.5482707,-0.42533424,1.6652131,-0.23195258,0.21785355,-0.40239972,0.10910187,-1.1526958,0.017416293,0.42073762,-1.67528,-1.1885215,-0.48616615,-0.40322384,-1.258825,0.4200185,-4.5016203,0.458927,-1.2883378,-0.5351233,0.83586055,0.17000297,-3.2613933,-0.34798476,-0.1809469,-2.538343,1.1144876,1.6792204,0.47544628,-1.6121899,1.6251739,-0.04140205,-0.12903394,1.0087565,1.590017,1.6907343,-1.178862,0.57164305,-0.30411267
github/neuralgraphs/diman,0.13079022,-7.260799,-5.1010256,0.4466713,-2.2997956,-2.882853,-3.109141,-5.1195774,1.6067485,1.4873174,2.580679,2.6912315,-0.53138936,-5.3274217,-3.7556293,1.4810969,7.9838853,-4.3906727,3.3653789,-8.785256,-1.8428855,4.3654103,-2.8493214,-5.514742,-1.629216,0.6965401,-0.044062637,4.994053,-2.1020424,0.28057525,-0.7432479,2.931875,-2.8864782,-3.5522535,7.889055,0.701573,-2.2962003,1.3717597,5.864425,2.986909,-6.8987374,0.3634151,4.2097936,-2.9318886,-9.405808,6.461542,-10.316056,4.465661,4.7774935,3.1100986
github/poldracklab/nitransforms,0.09260103,-5.53701,-0.34201086,-2.0681627,1.899479,1.2666372,1.1336552,-1.7145556,-2.7026024,-4.2975826,6.0684237,0.5242735,1.2467256,2.028,-2.5575535,0.18104891,-0.55743444,-2.3071256,0.07257604,-1.092197,1.9689757,-1.7073045,-2.733851,-2.5480306,-3.1335762,-2.1445065,0.20583372,0.0039606295,2.9738715,0.42628983,-3.146795,3.1805758,-0.2479408,-0.39218786,5.315726,3.5172174,1.724956,0.11950698,3.535888,-2.9991095,-1.9270136,-3.8671942,-0.4086466,-1.3789413,-2.887547,0.20354693,-1.4190924,0.85121864,2.1390102,-0.9718906
github/omuse-geoscience/omuse,-0.12069486,-1.3458236,1.0791874,0.94258416,-0.6237441,0.03730164,-0.79154015,-4.856876,-1.3522525,1.4854529,-3.11764,-3.3549416,2.0628211,-0.89422804,3.2918048,2.171911,-1.9154842,0.004119979,-0.27807862,-2.5146859,-2.5981207,2.0051627,-1.8318857,-1.3321918,2.09392,1.2537835,0.12906854,0.34750006,-2.7064228,-1.0273596,3.9391563,-0.19053262,-0.51549566,-1.4499595,5.676974,3.4027722,-1.8974456,2.7727396,2.5587616,5.2489924,-5.10117,2.1307955,-4.3751407,-0.45987368,-1.1786206,0.61303717,-2.0283089,2.216745,3.3007164,-0.8860452
github/reality/klarigi,-0.31393006,-1.4958503,2.724864,-1.7424268,1.9422936,1.8949375,0.30549106,3.2771218,1.4134263,1.7591586,-1.6325614,1.8541709,1.2285856,-3.2226093,-0.49131888,-2.7378893,1.0715481,0.4671428,-0.3405029,-1.9286932,0.4469576,3.5470355,-1.5925341,-2.1336012,-0.73201835,-2.5100958,-1.7458701,-1.3043773,-0.94815046,1.151745,-0.52446395,-1.326296,-0.32010028,3.2891579,3.3717136,-0.021937825,-2.0853703,-1.7078235,-2.1478016,-1.0806121,-3.0629902,3.3250663,0.8319248,-3.0595706,-2.4035242,1.5502784,2.0926235,-1.2697513,-0.052130707,0.8750495
github/Narayana-Rao/SAR-tools,-1.5878125,-1.3913912,1.0118343,3.2680473,-0.30231145,-0.45338807,-4.3708816,-1.1242244,-3.1700583,6.426328,4.7926726,-2.1932266,-2.9719656,0.25283766,-3.1711237,0.48388818,1.9387693,-2.3144398,-3.5043776,-7.03617,-2.1170213,-0.24401432,-0.31361207,-0.41395673,-3.402954,0.06359106,-0.03616922,-0.17591548,6.118509,-3.0336585,-5.8387074,-2.540092,-3.3963025,-5.42051,7.113401,-0.7031597,-2.1263433,0.32589242,-4.6291256,7.266449,-6.552902,3.0844626,-6.97347,-1.6350394,-1.3596512,0.7559915,-1.0003583,-2.7817736,1.3232769,3.418484
github/metaOmics/MetaPath,-1.4669132,2.3929389,-2.0324144,-1.6523207,-0.381063,1.0609375,-0.8534247,1.1195349,-0.3701565,0.5636069,2.4791727,4.5191393,-0.9434055,-2.140749,1.5074666,0.12000639,4.4361963,1.9805475,-3.0092864,3.379638,-0.41500387,-3.4576688,1.5607011,-2.3643506,3.1104965,-4.090645,-0.88955605,-4.094666,-0.2485832,-1.593359,-2.3458688,-1.546157,0.9963019,1.5125773,-0.78415823,-0.8536116,-1.5984437,0.45519572,-0.44886547,-0.008687111,-0.27912042,-0.33899987,-0.07669768,-2.4932,-1.5760885,3.562606,3.267865,0.19183311,1.0123801,2.89221
github/Materials-Consortia/optimade-python-tools,-1.0194675,2.7916105,4.9219227,0.025529157,4.5027666,0.82770586,-1.4569,-2.7284293,-0.014048552,-0.28851834,-0.041443482,-1.5585134,5.2442417,-5.127182,-2.6784832,0.65609014,-1.3885621,-5.5680485,-3.1405208,-7.6967216,-1.302679,-1.1137092,-3.6438146,-6.56054,1.9889233,-1.242875,-2.9743598,-3.0767605,-1.0548872,3.5801485,0.64006615,-1.4848505,-0.6902086,-2.456668,0.35504058,-1.9360855,1.5278431,-0.3309684,4.568524,3.831555,2.436561,0.30652282,0.9597068,5.5024986,-0.8086689,1.383529,-2.3723845,-5.204978,2.2015479,0.03847204
github/skypyproject/skypy,-0.8553601,-2.228008,-1.8670185,0.48653403,-3.971004,2.060719,-4.910288,2.5695755,-0.8029065,-0.8118992,3.5608323,-0.3566012,3.950166,0.45986947,1.619604,-1.3531549,-3.386548,-1.5272912,-2.5494664,-2.8866448,0.23394422,2.950791,-0.9448151,-0.16329317,-1.548201,-1.8291277,1.8462925,3.0671606,-0.8283863,1.603605,1.5959973,0.663385,-0.62060624,0.89099544,3.1082518,2.356567,1.6461636,-0.57445675,1.3178558,-4.765133,-0.17607099,0.39799517,-1.0438172,0.17939858,0.44239977,2.280981,-1.1116046,2.366865,0.5028572,-1.7849869
github/RTIInternational/gobbli,1.3329823,-4.409223,2.4853911,-6.9538608,-0.17616576,7.603478,5.8081264,1.4910804,2.7228289,-0.0006158601,1.641668,3.8026164,1.5125076,3.1848745,-1.9381909,3.016329,-5.8641047,-1.7466018,-3.2992847,-3.8045878,4.2727137,3.3530002,-1.3982452,-2.1084766,5.0664577,-3.164964,0.65414083,-0.9645496,0.795531,0.9919327,-0.7158543,-0.9045134,0.9827057,3.3339849,1.387048,3.017911,3.495889,-7.844496,1.2375249,-3.8889148,-1.3204634,2.979744,3.1594658,4.227326,5.8714647,-0.7243341,1.6753623,-6.027731,2.7606878,0.46708235
github/alexander-shen/rtest,-0.9881417,-0.88234943,0.3278148,-0.5035139,-0.059864823,2.8208404,0.051019706,0.57338357,-0.3652674,-0.3621259,0.7545803,1.0892645,0.16050582,0.4790835,-1.5178912,-0.40306607,1.0344504,1.1255071,-0.58171326,-0.23675856,0.79899496,-0.46241295,0.4196711,-0.5661462,1.085746,-0.76867497,0.15229288,-2.133849,0.2780904,0.24967432,0.9440044,-0.12339387,0.5851026,0.7361787,0.6126614,0.49818942,-1.3937274,-0.042976215,-0.66453415,0.25817958,-0.76864225,-1.1903659,0.5749272,0.5386713,-0.390989,0.39338568,1.1168401,2.142216,0.89335513,-1.3008173
github/wvanzeist/riroriro,-4.1425033,-0.0733932,-3.4692438,-0.8136689,-2.318189,2.0100622,-1.6243883,3.1152642,-2.3119965,0.2524134,6.099303,-2.597066,4.2832913,3.0087528,3.1557078,5.0276103,-0.23785503,1.8682948,-3.4940712,-9.631404,-3.139163,6.749721,-2.3014877,1.8916689,-8.317586,-2.1587613,3.3162951,1.8096162,6.966651,-9.133889,8.742189,3.4619863,-6.87685,-1.0943847,0.59409404,1.4427662,2.4794967,-3.9395816,6.9489264,-7.641269,-0.97273576,3.6863208,-1.8393232,2.7284703,-3.6325965,6.673167,-6.92434,5.7709746,-1.188934,-4.793433
github/MD-Studio/MDStudio,-0.37298995,-1.860128,1.1838846,0.0024149688,1.7562902,-4.0889554,0.5788249,0.039298456,-1.9252499,0.422991,-1.0115932,2.451815,3.6023421,-2.0318792,0.5121452,-3.944386,-1.1688108,-6.2057986,-2.2276442,-0.10096354,-1.839868,-0.6489723,-3.800303,-2.9928634,1.031958,0.2819642,1.1269301,-2.969592,1.6496196,0.6958901,0.22609836,0.9712209,-0.5116839,0.6880416,3.3032966,-0.8944258,-0.7025549,-0.25799978,1.8714772,3.4723642,-3.401366,-0.7422047,1.1297333,-1.8896165,0.60811585,-0.82216775,-3.1923177,1.1360103,4.6322846,1.9787266
github/MD-Studio/cerulean,0.14473322,-5.0195837,2.3961508,1.0502512,0.6741051,-1.2050436,2.2964313,2.158745,-2.314157,2.762155,0.668929,1.4805284,5.607987,-1.0556003,2.4531412,-1.3993671,-1.4349295,-4.307715,-1.117582,-6.164824,2.383861,-2.119296,-2.850039,-2.4888468,3.8103104,-0.69419026,2.616597,1.7927147,-1.1900626,1.0612533,0.073924035,0.07482785,-4.847182,2.9444513,-1.4568613,1.3138521,-1.4854579,-0.040369365,1.9797857,0.75468415,-4.2297006,3.512768,-0.71582997,-0.9609968,0.078259744,-0.1718613,-3.6653094,-2.06927,3.4512942,-2.1906672
github/MD-Studio/cerise,-4.8516355,-3.106461,0.97193927,-0.56521916,1.7263285,-3.5579154,0.078885235,1.5135206,-3.5161855,7.5158696,-1.1315436,-0.02903787,7.050048,-1.1218916,3.2355597,-2.4588542,-2.4126494,-7.9413204,0.7936125,-5.964664,2.5039687,-2.4965327,-4.407378,-3.2442799,3.0718129,-0.7783089,3.7751706,-1.1905656,-1.382854,0.49611878,0.014090928,0.5240656,-3.0471332,4.2724867,-0.029589063,1.3751954,-1.4567199,-2.284937,1.3498147,2.5923307,-5.4776807,3.2756164,-1.4148346,0.67429566,-0.95458597,0.24124978,-5.473196,0.641566,4.091532,-1.7373222
github/climate-machine/Oceananigans.jl,-1.2521298,0.9213023,-3.3987412,0.07986294,-1.6677915,3.4825945,1.3534826,-3.2468448,-3.4945686,3.7529128,-1.9398893,-3.228858,0.17696895,3.8632376,4.4649377,4.501556,-1.337993,-1.1272826,4.645938,-9.582301,0.08869404,-2.478835,-2.3104572,-0.123524696,1.0285196,-0.59474236,2.9842284,3.3826177,-1.5010551,2.9092305,3.948075,2.1319256,0.0008240429,-1.9788034,5.8672376,1.9060906,2.170003,-1.9447743,2.5908196,2.4261227,-4.2755146,-2.4728217,-4.1053,0.5814266,-2.054825,0.60623485,-2.810815,2.9651203,4.101423,-2.8145823
github/WGLab/InterVar,-2.0848966,-1.0462979,-0.028137835,0.92422324,5.059478,1.9175011,2.8816044,3.4787238,3.464324,5.4073706,0.75112295,2.373806,0.16587354,-4.892643,-6.9543605,-2.3698914,0.71278185,0.8562102,-3.7767992,1.6838975,4.4986477,1.5483038,8.677738,-1.020925,1.758934,-5.7442064,-0.47847915,-0.180235,1.4338667,-3.072624,1.5590599,-2.8710291,-6.270846,-2.848015,-0.26552764,1.8704714,-6.8808246,-3.0692844,0.6580555,-2.878434,-2.0425878,2.4417865,2.097299,-3.8886654,-2.3592858,5.4360824,0.5212685,2.3421998,2.877898,0.6073486
github/nlesc-ave/ave-rest-service,-2.642418,-5.9151216,2.688182,-1.2954822,4.8850417,3.1479301,4.8016677,-1.2830237,-0.88828516,1.8818837,-0.15935831,-0.08589257,0.9892342,-5.3492923,2.2543142,1.9784108,-2.4561572,-0.9896036,-0.79117686,1.0343841,1.4223934,-1.9781306,-1.2430207,-4.604071,0.976794,-0.18546197,-1.4701221,0.39988267,4.524501,-1.5810144,-3.4974847,-1.5361298,0.13019155,-2.0895967,-1.8781515,0.6962561,-0.6416433,-2.845999,-1.437314,-0.78525925,1.9814562,0.7021942,3.3408756,-3.261033,0.47064552,3.778526,5.6041846,1.08904,4.607655,1.2558464
github/gtayana/CVRMS,0.17773853,-0.84099334,0.4455757,-0.6835787,-0.15614244,3.2653875,1.1891907,1.1972922,0.6289757,1.7247213,-0.22133112,1.6068159,-0.88583905,0.87815356,0.41019344,-1.1328266,2.2779033,3.1905918,-1.6919707,1.5498028,1.6025839,1.4140558,0.4388477,-0.7758002,2.3701239,-0.8404105,-4.20301,0.16892688,1.619166,-1.2981234,0.68706554,0.7813328,-0.24788527,-3.5320208,1.7368722,0.95276076,-2.759673,-0.42364144,-1.3816825,0.9149749,0.315627,0.9087421,-0.64841914,0.56732154,0.9261071,0.73977864,4.366017,-0.42078078,1.428556,2.4375396
github/hansenjohnson/WhaleMap,-3.1973763,-2.3109813,-1.037976,-1.1143423,-0.7937299,0.38660094,2.7737978,-2.9608335,0.16864024,2.5920682,3.4804022,-2.6560526,-1.0714942,-1.3681986,-1.5839678,-0.0021924782,-2.905819,0.64698863,-0.8866038,0.8618985,-0.8914124,-0.422816,-0.7286757,0.9448225,-1.2749887,2.2366161,-2.6113725,-1.3397307,-1.4858365,0.329329,-1.9428419,1.3753805,0.3589571,-3.4296834,-1.3408414,-0.0038027517,-3.7865205,-1.9666762,4.994677,-3.0023756,-1.8727163,-3.8003583,0.79437494,-4.198461,1.7377604,-0.3436578,3.3065562,-1.2970479,2.0288458,5.1214166
github/Sulstice/cocktail-shaker,1.230174,-2.8264153,5.423715,2.2764168,-0.7310389,-1.1306914,-1.4389863,-0.92761046,1.2082006,3.9909668,2.498425,0.49250108,-0.5628322,1.579208,-0.17094682,-3.1124754,2.0780613,-0.006851076,-0.11546746,-1.4019417,-0.4679835,0.47907877,-1.5590943,0.2669028,1.6726978,-3.3578143,-2.3290575,0.86243874,0.19043131,0.46847582,1.276512,4.3185744,-4.910938,0.14413428,0.589396,0.7538008,-1.0057268,-3.2712343,3.7869182,-1.088796,-1.5364671,2.5338373,3.087567,0.96168447,-0.86621416,3.7549114,-4.4463706,-4.138588,3.8505795,-0.53709406
github/virgesmith/neworder,0.18261456,2.3569295,-4.3276,-3.8505824,-2.248363,2.0357125,-0.84175736,-2.323816,-0.89519715,-2.0214634,-2.0487297,2.5677135,2.4407187,1.5148993,2.8445363,0.28744042,-0.5156005,-6.0672193,-2.2447884,-5.1208344,-1.9913242,1.7048959,-1.5657334,-2.0989604,2.1638067,0.90412915,0.10893217,0.7620645,2.8322926,1.9635831,0.16221207,-1.4979829,-2.2421343,3.0568275,-0.87069875,1.5288427,2.2099588,-3.3557277,1.5781673,-5.4416747,-2.397405,2.4827647,-1.870936,3.1623363,-2.0200984,4.544937,-2.7130246,-0.25062284,2.256021,-4.4873714
github/rajeshrinet/pystokes,2.777174,-1.6882633,-2.3426962,-3.7607286,-0.39922285,-2.936648,-2.7357466,-6.329964,0.66668683,1.7961257,-0.7587428,-0.56205285,0.14108919,2.6629398,1.1787649,2.2990277,1.7739351,0.2548939,2.3302052,-6.898329,-4.174165,-2.8299222,-3.54992,0.3020223,1.20813,-0.80254745,-1.6236787,4.8551817,0.9097832,1.9184322,0.29209194,2.990219,-0.8708149,-1.9742045,4.3903565,1.4411045,0.083340995,0.76657593,5.9722304,-0.8402315,-2.6586013,2.3991227,-1.0830297,3.1915483,-4.867256,1.7859246,-4.8695054,0.99739796,7.2843876,-2.8976052
github/auranic/ClinTrajan,1.6137427,-0.6511937,-1.1755537,1.6787182,4.699657,2.6695068,1.3053409,-2.1422977,2.365989,-2.7101176,-0.48258182,5.6189575,0.48400745,-1.7784284,-0.3176915,-1.1271831,0.68423706,0.5239231,-1.651728,-2.92493,-1.6620812,0.45864606,1.6461114,-3.149504,-1.6282285,-1.9821942,-1.668503,-5.224352,-1.0283655,-1.1633313,-2.8625064,0.09600662,2.8213599,-1.220968,1.7958659,7.1444225,-2.3600914,3.1434875,-0.8684847,1.5765694,-0.1195792,-1.3046212,-5.9348354,-3.9631977,-6.531401,1.4345558,3.8469903,-3.8793514,0.34633422,6.430215
github/spectrapepper/spectrapepper,1.1822801,-3.9407945,0.12374401,0.38589805,-1.8994025,-1.9245067,-1.180311,-1.8210282,1.387719,0.042731166,3.5010643,1.5362343,-1.6709567,-0.2556501,0.050303612,-0.33032945,0.089247845,3.2250144,-2.8546934,-2.8828306,1.5000604,2.5708342,0.33346814,-2.6526427,-1.2332177,-2.8746138,0.42825678,0.25393108,2.5661268,-4.189201,3.3033586,-0.43624043,-1.3713491,-1.4050697,4.549861,2.4799182,1.3801408,0.39974368,3.221576,-2.7605073,-3.173863,1.1061966,-2.9237616,-0.5408003,-1.5420669,2.1855943,-0.09312942,-0.68122077,1.8923334,1.889031
github/vavrines/Kinetic.jl,-2.7822797,-2.2315567,-1.5941392,-0.036698755,-1.6913974,-0.16902737,2.328986,-4.9714804,-1.6233482,3.5316823,-2.2506473,-1.1806785,2.0109484,2.2508075,5.709056,2.5507984,1.5980803,-1.463094,2.8013763,-8.255496,-0.79847616,1.2335365,-4.625103,0.65332,-0.23804128,0.051615022,2.3511808,4.687567,-3.4555357,0.89653516,2.8531947,2.517032,0.20207857,-2.0109706,4.9788404,0.73537487,2.3674488,-0.27123487,4.603128,2.2397857,-1.9166183,1.6751409,-1.7925013,3.6952481,-5.8545485,0.42655382,-0.16872078,2.0705824,4.702887,-3.2256663
github/ziyewang/MetaBinner,-6.7265525,-3.3966537,0.5331254,1.3813676,-1.8885452,3.5375166,1.0031185,-0.6619594,-2.5240128,4.400009,4.6677446,2.3436038,-1.1215978,-0.07114036,5.027048,-3.1479502,0.14079954,-1.1756185,-1.6393071,-3.8484402,0.7780783,0.25801226,0.5799739,-0.52942497,0.58638203,-2.867525,-2.8085785,-1.2224779,0.9669096,-2.9957228,-2.143478,-1.5186417,-3.5053496,-2.4011824,-2.4572668,1.5277144,-3.4833431,-1.4580114,0.5559149,2.2067575,2.8272438,-2.0395858,-2.0931756,-0.19906673,2.087933,4.211006,3.6027572,2.5495217,0.6574534,-1.0094681
github/ziyewang/ARG_SHINE,0.03598515,-1.4318051,0.9734026,0.9957274,-0.5092686,1.5470835,-0.51466686,-0.39072648,-0.837471,-0.715019,0.56856847,0.6236085,-1.1682469,-0.2600697,0.44489327,-0.2910251,1.1716962,0.21245685,-1.6119385,-1.2866544,0.25281435,0.0037954922,0.46793377,0.205575,0.2197034,-3.1039689,0.36121297,-0.7353603,0.9194633,-1.2433678,0.80331737,0.5716068,-0.67997396,-1.4246159,-1.0901879,1.0107789,-2.1555743,-0.6703118,1.5216898,1.1799635,-0.48010546,0.8149695,0.01574729,-0.3344701,0.6007708,1.307285,1.8154988,-0.98790234,1.402976,-0.06704246
github/meenakshi-kushwaha/mmaqshiny,0.21767192,-1.0906096,0.95388556,-1.9110358,-3.1504042,-1.1060961,-1.6284893,-1.0978161,3.6387258,4.8165035,2.4932847,-7.3558574,2.5096407,-3.4916518,-6.7983813,0.72702754,1.693434,2.3291163,-3.0271575,-2.657744,-4.6254773,1.535477,-0.3402423,1.6860461,-2.5240307,0.70287395,2.2085552,-0.34088475,-2.161409,-0.988844,-0.9570773,-0.3506717,-1.0151558,-7.0844827,6.045813,-2.7640636,-2.0626078,1.3411379,-1.9313426,-4.969857,-1.4955837,-4.1082244,-3.9196036,-3.4873073,-1.6188786,-0.7920773,2.9929512,-0.95335525,2.1562605,4.2969203
github/sibirrer/lenstronomy,-1.655869,-4.8932467,0.5206025,-1.5848804,-6.299087,1.132645,-3.0837555,0.6042042,0.24910933,-0.032673374,4.445504,-0.81875634,0.97092855,-0.8613426,-0.62448573,0.21891564,-4.233671,3.3394687,-1.5993488,-4.636096,3.2952979,2.5878892,-3.4965603,-0.7036308,-3.0240562,-4.00737,1.5670664,-0.39793423,-1.5619864,-2.825274,0.6366638,1.0412832,3.1588101,-2.4736772,4.1060367,4.330426,2.5039005,-2.633437,1.5657467,-1.4181445,2.8870294,0.007208747,-3.2174413,2.5273793,-3.648452,3.6723433,-1.0973452,3.8176777,1.5057623,-1.5298073
github/kuadrat/data_slicer,1.3677329,-3.652319,3.9083805,2.0412302,-4.6330996,-3.170926,1.0802863,-0.35082382,0.14028108,0.9572351,-0.4885598,-0.760077,0.48413733,2.5592246,-0.3370965,-0.18442644,1.0021237,-1.6658065,-3.4806032,-3.351647,0.38403335,2.4559531,-0.9502453,-5.5105042,-4.204241,2.3706083,2.1199493,3.5341222,-0.9382142,0.16156995,1.6526413,3.3282201,-3.204797,-1.700776,5.0134444,5.5643477,-0.4010068,1.9323322,2.8597565,-0.93849975,-3.281941,0.66102785,-0.5822519,-4.7568254,-1.6214002,2.0253155,0.14693275,1.2337549,-0.47243384,2.5435836
github/mazzalab/pyntacle,-1.7906294,-0.5220377,1.6874235,-0.8291745,-0.5414442,0.6046659,4.603659,3.415103,2.90082,2.4672923,1.0619148,3.0398946,2.4975374,2.4150937,0.04876765,-3.0541124,0.78252643,-0.47019267,-2.3145733,-1.1971487,1.6690598,-0.40054607,-2.2331686,-0.30411142,0.117437236,-3.039859,0.6632384,0.30176857,0.7887558,0.22717191,-2.6645272,1.5015466,-1.2456167,-1.983261,-0.82648134,4.0730424,-0.40670115,-1.6938913,1.7147378,0.1729422,1.8380979,0.49599105,-3.0484836,1.599089,-1.7397895,0.49873987,-1.7337291,-0.25960854,3.9378023,2.072309
github/rodluger/starry_process,2.671132,-1.9469571,-2.877747,1.1744996,-2.097444,4.2897735,1.2996724,0.39472234,-3.187568,2.3097508,-0.5520914,-0.0145465955,-3.9380717,1.3327229,-1.4862964,0.6026955,-0.021778973,-1.9877361,1.4840258,-5.6202326,-0.8820712,2.543702,0.016604707,-1.3987346,-1.0688275,2.670425,0.228385,0.96838695,2.1575212,4.656707,0.20103382,1.8612825,-2.2439122,0.064046144,5.109911,4.323366,1.4253508,-0.48959,1.2335209,-0.35805666,-0.047536496,3.1786904,-1.7830327,2.3585546,1.2045097,2.5796518,0.15730497,6.496758,0.58941257,-1.0498676
github/research-software-directory/research-software-directory,1.6144642,-2.8440936,5.8195214,-1.1439806,3.2164042,-3.2427154,-1.4156978,3.4110646,0.46890488,2.2692516,-1.8297002,2.214038,7.966047,-4.657593,-2.2723,-4.4038544,-4.087083,-5.493511,-0.8950441,-5.838794,-0.23766102,0.3107911,-3.18026,-4.427718,-0.6569748,4.1327763,2.3499768,-0.7685843,-2.689897,2.9446788,0.21622814,0.76351106,0.8951463,0.54264915,-1.4656439,-0.9168802,-0.8079396,-3.9982955,2.2206385,2.985476,-2.5371492,0.07382212,2.034432,-1.8041501,0.49190566,2.2753866,0.0026562985,-3.256946,0.6174508,2.2401793
github/tudelft3d/3dfier,3.8886614,-6.5568647,1.3312143,-2.2259126,-3.2057521,3.0775356,-1.0693417,-1.747567,0.5342013,0.4753223,1.0782827,0.20185396,5.2320876,0.69082665,0.55395544,-1.4501075,-1.1857448,2.4755342,-3.9337819,-4.509381,5.0861683,-0.4792074,-4.134134,-0.23350641,-2.3658414,1.2497432,-4.5871897,-1.6249967,1.6035134,5.326971,-0.990307,3.261301,0.54191524,2.0394313,3.0273178,-3.661114,6.979213,-5.6277595,-4.572909,-7.7996073,-2.0545938,-5.9432454,0.70352286,-2.0686002,-0.61010575,1.0178728,-4.1837697,-5.778028,6.015603,-6.5534973
github/ouyang-lab/PRAS,-2.215913,-0.77993715,-2.6213086,4.4657288,-0.17167646,0.38786843,3.0473928,5.593731,4.4436665,5.369396,2.5706341,0.77512157,0.30747527,-3.0883155,1.5006077,-0.69389546,0.40084678,5.2486105,-2.4468582,-0.53687084,4.5219045,0.718475,6.2186565,-1.9840409,1.2285556,-2.717225,-2.4050422,-3.5703378,5.0164485,-2.879052,-2.0360446,-0.051799424,-3.3977644,-5.6993213,1.432869,-1.7956214,-4.9140863,-2.8284006,-1.4058671,-0.6426128,-1.567148,4.72636,2.7223167,-3.5857105,0.99394655,7.344597,2.1216471,1.3121607,2.9061992,0.32623127
github/r-cas/caracas,1.4188803,-2.3646977,-5.627277,-3.2508056,-0.9257152,-0.7334883,0.2110769,-0.54187477,1.7580868,-1.0613109,-0.3276986,-0.114927806,-2.464704,-1.7593373,-1.609011,3.1278481,8.733297,2.6496189,1.4319257,-3.894493,-5.8848658,-2.2551897,-0.6542903,-0.06164875,0.25937384,-0.11874667,0.26443416,-1.770984,-0.9356511,1.1930532,-0.43404713,2.9043121,-3.6089327,0.9298307,-0.7159547,0.2662308,0.8981922,2.764367,3.8410454,3.1045418,-2.0886645,0.5201463,-0.6330246,-1.7511755,-5.3787365,0.76745605,-6.272,3.4342058,4.237532,0.7968511
github/brian-lau/MatlabAUC,-3.2610824,2.1013124,-1.0904002,-0.29673684,-2.4445243,2.3075674,0.5535072,0.66717136,-1.0274088,-2.1457703,-1.6616491,1.4443731,-0.63671875,-0.14748803,-0.72921383,0.7026787,-0.30028927,1.4990233,-3.6635199,-1.5684617,-0.41193935,-0.8948876,2.12355,-2.6220493,-0.5465411,-0.3472001,0.52089053,-2.42371,3.250366,-1.2717404,0.6547046,0.8497235,0.8667859,-2.9785573,2.3663936,0.9668478,0.5070833,1.5615737,-1.5605195,-0.08649055,-2.225265,-1.9311593,-0.15945467,1.0639838,1.3714377,2.0231156,3.1407464,1.876287,0.9173963,-1.0019838
github/mlpack/mlpack,-1.3263521,-3.3473837,-1.8963944,2.9929981,-0.57765096,2.7089503,1.3903619,1.4673439,2.7331872,-0.5942564,0.5396208,-0.9697546,-0.7243122,1.1650282,-1.8519968,-4.6028967,-1.8438205,1.0607239,1.7957664,-1.0642853,2.0269997,-1.226173,1.1026846,-1.2325985,-0.4419532,-0.2659725,-4.8065214,-0.8185619,2.5417144,2.2808034,0.81088847,3.2766788,1.7114257,0.1831482,1.2585857,4.166278,3.8420217,-3.3684797,2.6059823,1.0120379,1.693437,2.8563824,-4.446722,6.346212,0.10448023,-0.35536164,0.33603054,-0.08144545,3.9397814,-2.5328689
github/yaml2sbml-dev/yaml2sbml,-3.5851698,2.6644025,2.060809,1.7520947,0.5885586,2.0153275,0.5259896,0.18952233,-0.180297,0.16262566,0.038989127,-2.2620904,6.8908796,0.27714622,-1.8634485,-0.56631917,-1.209052,1.4050337,0.6136366,-5.2714353,-4.602487,4.0282216,-1.2526256,1.8687338,-1.0547612,-1.3264079,3.979651,-0.080806926,-2.1939065,2.1055183,1.8613228,1.2481691,1.451918,-3.7982383,2.9261074,1.7548571,0.5494013,0.47213885,5.817412,1.350906,-3.4279127,0.45779985,-1.8345778,-0.36165246,-5.8575115,5.5291185,-3.1316514,-0.58004206,0.9118575,-2.5169191
github/qMRLab/qMRLab,1.7234882,-2.3150582,0.99334246,1.6310658,-3.394547,-0.50637305,1.7964807,-1.2716471,-1.5484408,1.0150378,3.4412,0.9329664,-0.7042854,-0.2661039,-2.3350744,0.764238,-2.1347961,-1.1975485,-1.4454249,-2.2153203,-1.3239672,-0.4309211,-1.9638438,-4.0601525,2.491223,-0.7697984,-0.43383777,0.78207994,-0.13346605,-1.8137399,0.5728392,1.4228134,0.8863773,-3.97707,2.1899807,0.6683922,0.8917513,-0.21362685,1.0543683,-0.95156306,-2.7602458,-2.1680226,0.19574855,-1.4051367,-0.31803113,1.1497972,-0.63499755,1.1687719,1.4902248,-4.1981406
github/Computational-NeuroGenetics/deMeta-beta,0.56143415,3.443298,-1.7810907,1.3041399,0.9625522,7.5933423,-0.22589561,1.5654591,1.0225785,2.5303032,3.205213,5.177002,1.1305656,-0.84889233,-0.93561393,2.4224322,0.71870536,3.183807,-3.6925905,0.100563295,-0.24084906,-0.78956723,2.5789514,-4.0815206,4.746773,-2.4469936,1.7198025,1.4337475,-4.381364,0.8519219,1.4496226,0.8932133,-2.4745862,-0.86890507,3.225816,-1.8565187,-2.4173806,1.8093162,-3.7398407,-3.2390344,1.4613268,2.4138372,4.187071,2.226918,1.4924892,3.1784549,1.9786497,0.3977211,3.0343506,3.7766418
github/jianghuaijie/scLRTC,-1.5244849,0.033534817,-1.4365879,1.633855,-0.7163155,-0.19756001,0.82309914,-0.82616895,-0.43748105,2.9132805,-0.56970876,0.3617996,-2.4976563,0.4460894,-2.0697534,1.030799,3.7778065,1.0279835,-2.2660322,1.4659339,0.0747409,1.3677238,-0.4082703,-4.505714,2.207508,-2.4611404,-1.8267971,-1.7046409,-0.19862694,0.99034697,-1.0252913,-1.6264073,2.045125,-3.4742463,0.9406452,3.3904681,-0.8590519,-1.07387,-1.8560592,1.9619685,-0.91033924,-1.0309122,-0.9329323,-0.17652526,-1.1945854,0.9674793,0.47609782,1.8004582,0.97531396,-1.3003572
github/bhi-kimlab/StressGenePred,-2.6091857,0.5768749,-0.10068141,0.44772512,0.98843646,1.5250415,2.4825363,-1.7150121,-0.13923623,1.5922519,0.26718307,1.1488149,1.1199244,1.0492313,-0.20391123,1.4033065,1.0301727,2.2045226,-1.8971511,1.4594743,1.7525626,2.2892916,-1.129594,-2.1311998,1.4973785,-2.4874616,-2.350931,-0.95885295,3.397605,-1.4427131,-0.672419,-2.6497288,0.10600378,-0.9105456,1.9801688,0.39250764,-1.2497247,-2.236741,0.5874119,1.0600208,0.9249871,0.6832971,-0.3445565,1.2027645,0.4863504,2.6958098,0.44479525,0.28269252,0.45919874,1.3294331
github/compomics/DeepLC,-1.2468479,-0.4848971,4.56948,1.6320024,0.77554685,2.349835,1.4736904,2.3268137,3.8807077,5.9084597,1.1360413,1.5693458,1.4241147,0.5121423,-1.4023851,-0.91159827,-0.4822976,2.7529137,-1.1192719,-0.5339498,0.33676732,1.725008,-1.5687331,-1.9635646,2.5591197,-2.883365,-1.1055385,0.40853548,2.6172132,-2.5038865,-1.1042635,2.483318,1.6999179,-0.26847944,-2.9227946,0.5386456,0.2301472,-2.6828766,2.3725028,0.6881268,-0.40487295,-1.2031424,0.02743167,2.6107829,-1.366243,5.0158224,-0.005540718,-5.157823,4.64147,-0.7017157
github/compomics/COSS,1.3623579,-3.0505445,3.0797865,2.9784145,-0.7779879,-2.8590276,1.0424172,2.7352922,1.0072747,7.833924,2.0645893,2.7679455,1.3613036,1.0622537,-0.9627358,1.8554738,0.4056519,2.859143,-2.5062022,0.066064164,-1.5820822,2.3719003,-1.3978462,-2.6950772,3.1292503,1.3823769,-0.23485361,-1.0680568,5.7439995,-3.377087,0.010861171,0.73433584,-1.6307005,-2.0263307,1.2148935,-4.3687005,-0.23478803,0.19385934,1.6862842,3.493105,-0.88235754,0.90964127,3.3915017,-0.38253435,-2.76153,0.27597654,0.43538776,-1.2477368,3.4729846,-0.35879293
github/compomics/xilmass,0.09730456,-2.4814544,3.5147312,0.73562425,0.07744847,-0.15817566,-2.1520417,1.3974798,0.5513042,3.891848,0.90987325,1.185122,0.8145209,0.24916352,0.11481311,-1.8366439,0.48987523,1.6635866,-0.8705392,-1.228757,-0.8021836,-0.13780221,-1.9172518,-0.685016,0.21723397,-2.3463533,-0.980455,-3.340068,1.5397192,-4.2246437,0.64977896,2.081748,-0.26259986,-1.426556,-0.76189744,0.021684693,-0.42503008,0.5050289,2.3947475,1.0295112,-0.7793984,0.18340428,1.2015206,1.0962591,-3.2233534,2.681462,1.6340072,-2.6640897,2.5273018,0.6132701
github/KiranLDA/PAMLr,-0.27831733,3.663978,-1.0591152,1.0165192,-1.7922064,0.8171958,1.5943443,0.45496497,0.16454452,-3.24059,1.6883202,-0.8263086,-2.0313447,2.5233705,-2.906839,-4.0837708,5.355893,-0.08990577,-3.830842,-3.9155746,-3.655713,-1.2330307,0.37769845,3.1973717,-8.258279,4.2987785,-2.855066,-6.256207,1.8801495,-6.061506,2.491692,5.5245237,6.0555477,2.329768,2.0704474,0.20857714,-0.61242735,-5.4597025,1.2001833,1.0173339,-11.379364,-3.4946508,-10.245455,-8.256478,-3.0450737,-1.0299411,4.1796966,-9.856514,-1.4122705,3.0755322
github/BartoszBartmanski/StoSpa2,-0.015571532,-6.4839725,-3.0123198,0.40674686,-2.9038339,1.6132481,0.32252127,-1.0860388,2.1638188,3.3302798,-0.79702586,0.2710034,1.4851412,5.6714225,5.3697705,0.45949516,1.169909,-1.4437873,0.8511191,-6.2872715,-5.5211167,2.1017869,-0.87188166,5.107096,2.4150524,-4.6054626,-0.2638383,-2.3530202,0.08624413,-1.0254642,2.6794643,5.281596,-0.17970747,-0.4593153,3.3935409,-3.1893806,-2.789397,-1.704354,3.3539045,-2.2848642,-3.9956968,5.008248,-1.5990754,0.83789706,-1.0481102,8.971995,-6.935593,5.2335877,2.6583805,-5.706141
github/wangchao-malab/DeepAc4C,0.1270703,-1.2255018,0.9832325,0.11378354,0.96508056,0.25258043,0.43493137,0.6837818,-1.5522056,0.27717012,0.12223628,1.4599438,0.69070387,0.2519702,0.047189526,-0.23322795,-1.4286623,1.0247436,-0.60929024,-0.45620418,-0.27257892,0.3483979,-0.8239063,-0.63228893,0.11771211,-3.197376,-0.77331036,-2.4583344,1.3800976,-0.90589094,-0.21550255,-1.3106757,-0.20846035,-0.39425594,-0.8495045,1.0759226,-0.8167822,-2.6069038,0.5894453,1.0539454,-1.392998,1.5343604,-0.69367534,1.4343549,0.46634328,1.6048101,1.2236512,-0.09594413,1.5632327,1.0605679
github/sorenwacker/ProteomicsQC,1.8252866,-0.6700177,5.1809425,4.863682,1.6731001,0.013452352,-0.8111294,3.515639,-1.5438157,5.164124,3.1628683,-1.0007733,2.8282332,-3.384245,-3.1976335,1.1344279,-4.134815,-1.8903154,1.6487132,0.7412884,-1.3814987,-2.535916,-3.285828,-3.7517593,2.0680797,-0.6317275,0.78489643,-2.259116,0.79151493,-4.2142572,-2.0489624,0.89225805,-0.020112863,-2.944303,-0.5603654,-4.430621,-1.2616277,1.3805757,4.820248,0.47094426,-2.4941306,-4.592021,2.5497255,-5.278496,4.038087,3.3135867,5.193048,-4.4081597,6.17206,1.0799676
github/richteague/disksurf,3.2654166,-6.493159,2.528445,0.37445045,-3.9235382,-0.07471081,-5.487912,-1.4585453,-1.2555097,1.7647307,2.1598804,-1.5819427,-0.6437324,3.978223,-0.97937685,1.649917,-1.9283602,1.977892,-2.4957232,-4.868474,-3.0610142,-2.2435896,-2.9018965,-0.95469207,0.07824021,-2.379554,-2.7999613,0.7812648,-1.748372,-1.3984094,0.13775487,0.46417177,-5.226459,-0.60878277,5.731973,-0.62118113,-0.26066828,-0.20475778,-0.31797692,-2.3108969,-0.3098379,0.23640575,-2.8104146,0.8789165,-3.1235063,1.8055103,-0.25736278,0.39569634,-2.5160086,1.6773214
github/InsightSoftwareConsortium/ITK,0.040751494,-8.4947815,1.188878,-4.4840074,1.2400047,3.3666918,4.1099596,1.7081456,-2.5647852,-1.3800962,5.3023553,-0.25734708,-2.3971298,-2.324204,-4.279157,-3.9444327,-2.3307343,-5.389688,-1.6690794,-1.7984952,0.48558244,-0.14825991,-2.7552664,-2.0586803,-2.494509,1.8176534,-2.9545121,0.7805468,2.8726792,-1.2887913,-2.1201596,2.8207133,3.4218454,-0.32313064,3.2598243,0.6656459,3.784464,-1.9110175,5.2543616,-2.5315495,0.11639996,0.14687638,-2.7960703,1.0495312,0.143856,-1.2599314,-2.9111881,4.6902766,2.9066873,-2.889956
github/saeyslab/PeacoQC,-4.1758432,2.9760919,-7.8627806,4.158199,-1.6805917,0.46129772,-1.2302464,4.7530336,-2.832243,4.333265,2.3544304,-4.220599,1.149572,-2.108188,-0.8678559,1.1664511,1.4395145,8.182386,-2.04653,0.8862713,1.2938704,6.1307693,1.114943,-3.4972785,-2.3583462,-0.22086956,-0.51838934,-5.1006556,-5.4640346,-3.8473184,1.0081849,4.5092187,3.1232944,-0.9167826,3.018289,1.4844615,-2.7047129,1.339275,7.7396836,-5.1336718,-3.105947,-2.754371,2.5365112,-8.543954,-1.1952114,-0.032060746,4.871535,-1.0394067,-1.7356489,-0.34456015
github/saeyslab/nichenetr,-1.0529937,5.9755564,-10.095076,-5.1922445,4.1437163,-5.2333884,-1.2381494,1.2941252,1.6597921,1.9406515,-2.058679,3.6866157,-3.1535587,0.53207004,3.4064817,3.402624,8.455152,8.164853,-0.9049735,-0.0280669,9.526003,0.09639939,0.66913396,-5.4478087,-4.26154,-6.9239087,0.01768541,-8.204188,-2.4218223,4.8886003,1.5461274,3.6436367,-4.918093,-1.9694109,-3.2661374,6.0751,-4.0114923,-1.1560425,0.6329535,0.43435636,-5.835506,2.147394,5.5440826,-2.5148327,4.9292717,3.081183,-0.81351477,1.1918823,2.526101,3.6697845
github/saeyslab/CytoNorm_Figures,2.6115053,4.922483,-9.205886,0.14120692,-0.15077136,-2.6420133,0.6221384,1.6897588,-1.5536863,2.9921944,1.3058456,5.441512,1.5979952,1.3215396,4.9118047,1.9770168,1.4301023,8.500671,-2.6436608,0.6009934,-1.7356356,6.273119,1.1187361,-4.348783,4.014641,-2.1639478,-2.6559103,-2.0344596,-2.825685,-4.3179164,-2.5503614,2.7534838,3.4086902,-5.391005,6.7112584,1.5367432,-0.22081809,-4.121921,2.5786908,-2.7593637,0.1361693,-1.6040815,2.4980023,-2.4299796,-1.8585858,-1.4544108,4.622929,-2.0607483,2.7100492,0.0744692
github/ZJUFanLab/scTITANS,-1.5759903,-0.105236165,0.7494407,1.6665695,-0.22725868,0.6544156,-0.12722072,0.6947575,0.32037845,2.5101807,-1.8813634,2.5957582,1.067404,-0.25809437,1.461323,-0.103212476,1.908762,2.0603747,-3.760436,1.885208,2.229636,-1.3145573,0.09623065,-4.6795588,0.96231055,-3.563338,-2.2035778,-1.6816827,-1.4108318,-2.4638531,0.16819508,-1.5412457,-2.5043142,-2.3155115,1.4149474,1.0273191,-3.705358,-0.6563338,0.58979785,2.7858691,-0.9968281,2.087076,-0.3356804,-5.069689,-0.73895407,1.1431324,0.00491072,2.4658916,-1.26498,2.6505675
github/SunilAnandatheertha/PXO,-1.24992,-3.1030526,1.7664853,0.47435042,-1.30312,-0.16959791,-0.16297129,-0.8459752,-1.6952263,1.1892173,1.4944719,-0.82384443,1.1215051,-0.17239755,-0.25040072,-2.9860487,0.33634278,-1.5648243,1.5002799,-4.9575872,-1.7681376,-0.8521192,-0.20077352,-0.93416697,0.9169959,-0.41140273,-1.105632,-0.027548954,-0.388867,0.38002238,-0.8923723,1.6285964,0.59256417,-0.22622335,0.91231114,3.5881438,-0.5568044,1.2228948,0.10688721,-0.7174134,-3.2551415,-0.5040096,-2.5306866,0.9594573,-0.30803886,-1.1358585,-0.15460488,0.6475828,4.860222,0.5030702
github/zarr-developers/zarr-python,0.1551955,-5.3473206,4.5081253,-1.0272676,4.3948884,2.806474,1.9435942,-0.9086799,-1.5257152,-0.21396396,1.5292389,0.96719766,-0.4773022,-1.3071268,3.7135525,0.5538039,-1.8573906,-4.942348,-0.8257165,-0.3177674,-0.19048314,0.2651272,-3.7840457,-6.6004148,1.5525155,5.5363946,-0.8099555,3.3891084,-7.4497647,3.628298,1.2487756,-2.1870098,-6.176156,-2.24135,3.9542286,5.3350077,3.4508746,0.42523128,5.6117697,0.42599395,1.6627738,3.2557533,-4.2227755,2.1095276,-1.157726,-2.7532392,2.0361829,-2.7707102,0.6096643,-3.7803755
github/lrnv/cort,-1.9109656,1.5724332,-6.1588535,-1.1041853,0.24687764,4.55632,0.7602279,-2.4218473,-0.77322924,-4.990093,-0.8823088,5.375696,-2.951769,1.1518466,-2.5884836,0.36093116,3.6871524,5.458391,4.140307,-3.8569336,-0.35385144,1.328953,-1.1277703,-1.9104571,-2.8990612,3.3749065,-4.0244255,-3.669923,-3.8233159,3.1030345,1.9597502,3.320156,4.165111,0.9097298,4.445601,-1.2296141,5.601866,0.43039486,-2.4953578,1.54451,-0.30029312,-0.20932166,-3.103556,2.2725997,-2.9303555,1.3576362,4.811679,3.134427,3.8157854,-1.3014219
github/lydialucchesi/Vizumap,0.31833652,-2.922617,-6.1096416,-3.615382,-4.5133996,2.3406901,-7.3195934,4.4996247,2.7796028,-5.666886,1.644024,-1.6091336,2.9014857,0.8186437,-4.449911,-2.7816796,-2.8099504,3.1303377,-2.8504806,3.053025,-3.8274229,-6.1762223,1.9261625,0.014209337,-2.0352616,-0.66723466,0.7740074,-4.4690394,-1.5099219,-0.1936765,0.07872663,2.9551206,-1.5228218,0.49479285,6.1516314,0.037436202,0.91490674,-1.1396626,-6.434926,-5.79602,0.55069745,-1.4629372,-0.87776756,-3.2559316,0.24305178,7.0742607,4.3230824,0.8684723,-1.7204858,0.6446141
github/reproducible-biomedical-modeling/Biosimulations,-1.5595305,-2.0458515,6.9902396,-1.3896477,-4.0992084,0.47710627,-1.1973456,-2.1541536,-1.2775974,2.2638783,0.5274682,0.7196233,7.043789,0.4070818,-4.8507786,-3.9219294,-4.064664,-2.4636223,-4.39619,2.2279296,-3.8079014,-2.1906738,-10.548332,-5.80062,3.6075058,2.3906457,-2.121215,-0.6795923,-1.2777421,4.4003906,-1.8818221,-4.467256,8.662963,-3.2688236,0.57344645,-1.9271646,-4.168731,0.02696553,2.4605227,0.8289274,2.2581022,1.243059,5.199927,4.2747526,3.203998,2.489923,-0.79499704,0.4933228,9.409054,2.8186011
github/telatin/qax,-2.8562028,-1.4270431,2.9313974,-1.0257764,-0.85176176,3.7613149,7.8143916,5.1658707,-6.138753,7.3096204,4.5787473,4.2647557,3.8033228,-0.5692284,-0.8699953,-5.969632,-0.2344618,-4.0607224,-6.1275496,-4.061375,0.54458296,2.3859327,1.4642549,0.43274122,-5.014871,0.21415552,-2.072585,-1.5528303,-2.4947505,-4.811074,-6.4412484,2.3109665,-3.6652825,-0.76334924,-1.2512875,1.1975871,-5.961722,-3.7213547,8.354039,7.2078724,3.716308,-0.67812455,4.13603,-0.1477194,-3.8069391,2.5689037,0.26142502,0.74766284,0.39274773,1.6307422
github/ConorMacBride/mcalf,2.8583202,-2.6160169,1.2584991,-0.6849261,-5.499697,0.24579903,-5.3685555,0.32556307,0.8321811,-1.1332138,4.2305875,-1.9646991,1.9413406,2.8961575,-0.87005126,1.5922521,-5.2952757,6.044245,-2.9529784,-2.4614117,-0.3292992,2.8888705,-4.0592914,-3.2166917,-1.202341,-4.810362,-0.7175042,1.3962548,-0.4349757,-5.571707,3.5509372,0.81085443,-2.074524,-3.6370518,1.1413361,5.336695,0.4454349,0.1862134,2.2798707,-0.39681694,-2.5727046,1.2792845,-4.2499037,2.5666485,-0.7899226,1.8934444,-0.43622905,0.5760113,1.1886243,-1.6757108
github/NCIP/visda,-2.4501498,-1.5760307,-0.48130178,-2.3852637,0.7334821,1.4228966,-0.7450413,1.0069861,-1.9270785,1.3008158,1.7873313,1.5825179,0.9145927,0.8090495,0.0956649,-0.8017491,-0.53798664,0.8058039,-0.56803566,-1.3300825,1.2738593,-0.63947767,0.90391475,-2.1121862,2.3798714,-0.17018986,-0.03438216,-1.2031229,-0.14458825,1.3163791,0.8332635,0.94167626,-0.34646004,-0.4619497,-0.18450598,0.2062421,0.22096556,1.174748,1.5927465,0.60533065,-2.2896593,-0.010624186,-1.0573221,-0.32654887,-1.7455742,0.5822665,0.4168356,-0.43145755,1.6105344,0.24687111
github/SCM-NV/qmflows-namd,-4.4009643,0.0067306403,-2.7556744,2.2895994,2.3105776,-1.7109164,-3.2398083,-3.8861556,-2.06436,7.780096,3.5977726,-0.57917947,6.929596,0.41514093,4.7927256,-1.419354,6.465752,1.2886664,-0.789343,-10.364502,2.2111413,0.72683674,-4.0658197,-0.081652515,0.2859519,-3.2895129,1.2950128,6.541636,-0.6546117,-1.4218196,-0.9572558,-0.5948817,-4.303958,-0.8540166,-0.3074101,1.912958,0.49835336,0.07885268,5.1927238,-3.1595252,-0.6982002,-0.65013164,-4.208481,-0.20056254,-3.7673519,-0.3803585,-4.719719,-3.678233,4.8278446,-3.804406
github/SCM-NV/qmflows,-2.6560128,-0.42621276,-0.20651013,1.4227505,-0.8927701,-2.4986653,-2.6081467,-1.0858918,-3.3714507,3.7219102,4.144515,0.74383837,4.9327617,2.6110559,3.2583678,-1.5681704,2.524913,-2.437525,-2.057509,-4.8898163,1.1084745,1.3059397,-5.664789,-0.03743843,1.8196765,-3.592516,0.49706274,2.4914227,-0.6327987,1.931506,-0.41345993,-0.81789833,-2.0023282,0.25620794,-0.39349794,1.761568,-0.14497295,-0.12454788,5.365765,0.026266124,-1.5864253,2.183565,-1.481688,1.168307,-4.335041,0.34507883,-4.3955183,-3.972518,1.8301245,-3.1929507
github/SCM-NV/pyZacros,-4.489858,-2.116768,-1.9206818,1.9802539,-2.1116166,-0.72698957,-1.8039011,-4.129685,-1.1891993,5.6284337,-3.8678105,0.69976264,3.549358,4.320608,4.938761,-3.0469165,1.9091276,-2.5144389,0.74177647,-10.541622,0.35042742,3.3374367,-1.0802028,5.173642,-2.1398225,-4.2153974,0.8989159,-0.46830356,-1.6802369,2.5471292,2.9879816,-0.4327371,-1.8530284,1.1951069,1.3018024,1.9201739,-3.316154,-0.50404286,2.9746332,0.5496622,-6.084128,2.7052743,-0.80649126,-3.2778487,1.70566,3.341951,-6.180347,-2.2716577,3.261061,0.018461501
github/Merck/BioPhi,-1.8630219,-2.9327817,0.15477304,-2.016567,1.8258086,0.6966761,2.7729833,-0.9701995,-1.2865894,2.1689272,-0.41204697,0.038470298,0.117247954,-2.193137,-0.10981711,-2.3990166,-0.6607531,0.7195852,0.012438032,-1.5192331,0.81335825,0.39635676,-0.76228374,-1.0982896,0.5604785,-2.89695,-0.94948804,-1.7116947,2.2870598,0.56337965,-1.6745248,-0.69801575,-2.519345,0.08330147,-4.5395093,-0.7905947,-2.7516854,-0.15167154,1.5282851,3.5181363,-1.712392,0.32950705,-1.0824746,0.78979826,2.9458168,3.9943542,3.9935741,-2.4337366,3.4686038,0.600095
github/Sydney-Informatics-Hub/OmixLitMiner,4.1899495,1.3823667,-2.8538043,0.5384092,-1.6059376,-2.5588748,-2.5009491,5.290439,-2.4817827,5.6836643,0.42106837,3.4080532,2.9032338,3.8718908,0.7600472,-0.1942573,2.0671346,0.5383608,-1.0608032,2.1201036,-2.5412807,0.39009157,5.1000166,0.07670961,-3.1098766,-5.5167885,-0.017434316,-3.3112154,-1.1632755,1.015758,2.646048,-1.4256538,-1.3090746,-1.9640365,-3.336994,-0.20620711,-5.723126,-3.1269023,-1.7751491,2.605995,-0.20764789,-1.0434868,1.8381407,-3.2647889,-5.0517545,1.829921,2.4902086,-1.0495652,0.82731026,5.593284
